//Numpy array shape (64,)
//Min -0.309559285641
//Max 0.519356966019
//Number of zeros 0

bias_default_t b1[64] = {0.446691244841, -0.088537499309, 0.024972775951, -0.089181713760, 0.119403086603, 0.078257970512, 0.338676959276, 0.336627781391, -0.041739843786, -0.145845636725, -0.134783178568, -0.016749430448, 0.242908984423, -0.309559285641, 0.034424178302, 0.008825499564, 0.489944726229, 0.121383383870, 0.114351131022, -0.024433786049, -0.017833568156, 0.344655841589, 0.199033379555, -0.033683404326, -0.004354488105, 0.180893599987, 0.358423233032, 0.010840353556, -0.113424494863, 0.225764974952, -0.185626223683, 0.134316608310, 0.242841094732, -0.025829339400, 0.497987598181, 0.454987049103, -0.075822032988, 0.298140823841, 0.128371074796, 0.389471918344, 0.310530453920, 0.202246084809, 0.056871935725, 0.246654987335, -0.029543258250, 0.519356966019, 0.227709054947, -0.151363253593, 0.132997170091, -0.073573566973, 0.045881945640, -0.213048025966, 0.113012097776, -0.029801744968, 0.303942203522, 0.137237727642, 0.031595680863, 0.189218148589, -0.182630181313, 0.474032372236, 0.218495085835, 0.176341965795, 0.323983997107, 0.046042542905};
