//Numpy array shape (16, 64)
//Min -1.367971777916
//Max 1.087388515472
//Number of zeros 0

weight_default_t w1[1024] = {0.066371381283, 0.237224414945, 0.281768500805, -0.117678925395, -0.546734690666, 0.440885484219, -0.028319949284, 0.257371187210, 0.321900218725, -0.131373703480, -0.224605858326, -0.627991378307, 0.122540064156, -0.246755644679, -0.217816412449, 0.375306069851, -0.173742994666, -0.415143072605, -0.122359104455, 0.349585771561, 0.402017116547, -0.187274307013, -0.313623219728, 0.253080487251, 0.001119395951, 0.286253452301, 0.358606129885, -0.335385203362, 0.024597445503, 0.364107072353, 0.477122396231, -0.179484769702, -0.040437828749, -0.044622413814, -0.262969493866, -0.049384068698, 0.105894982815, 0.221959277987, 0.123343132436, 0.016792481765, 0.131038725376, 0.302956342697, 0.501259267330, -0.092785067856, 0.350736826658, -0.041996549815, 0.514168381691, -0.091511860490, 0.049751490355, -0.247254207730, -0.339951485395, -0.027962813154, -0.207264468074, -0.053159434348, 0.069778010249, 0.075797997415, -0.348484069109, -0.187517538667, 0.185724452138, -0.235684797168, -0.114589862525, -0.354948759079, -0.425710558891, 0.114182129502, 0.076937533915, 0.209818273783, -0.061800461262, -0.146920919418, -0.269422471523, 0.326471775770, -0.121119223535, 0.295671433210, 0.099854707718, -0.117088392377, -0.291221678257, -0.281315267086, 0.261577576399, -0.115336731076, 0.086128205061, 0.123934425414, -0.023640124127, -0.253153830767, 0.321723759174, 0.515811204910, 0.229735985398, -0.013638169505, -0.268417865038, 0.181234195828, -0.378025412560, 0.337039202452, 0.179609715939, 0.040765471756, -0.081408850849, 0.449270576239, 0.036033164710, -0.300370723009, -0.068692490458, -0.454120725393, -0.103454068303, -0.419187098742, 0.157029628754, 1.087388515472, 0.451220244169, -0.085662238300, 0.290354162455, 0.177840128541, -0.043654415756, 0.377248406410, -0.063983649015, -0.060114558786, 0.459460347891, 0.405947417021, 0.102625980973, -0.092401303351, 0.028893271461, -0.011326833628, -0.116407915950, -0.072052709758, 0.351425230503, -0.644569396973, -0.398385733366, 0.355685889721, 0.053444437683, -0.045470919460, -0.036350499839, 0.073686107993, -0.135494589806, 0.333892315626, -0.181036978960, 0.336795985699, -0.769744038582, 0.153238296509, 0.262471109629, -0.229497537017, 0.594604432583, 0.500448405743, 0.426952689886, -0.197388887405, -0.152957871556, -0.210765421391, 0.395668327808, -0.072778396308, 0.298250406981, -0.134399026632, 0.090250313282, 0.174420848489, -0.753772914410, 0.086205288768, 0.265745609999, 0.046664983034, -0.276757299900, -0.478513121605, 0.173099830747, -0.525918841362, 0.185895547271, -0.685579478741, -0.192417517304, 0.192219316959, 0.406962960958, -0.272646725178, 0.046859994531, -0.409602344036, -0.395629405975, 0.615958034992, -0.403526306152, 0.098192304373, -0.200048431754, -0.342574030161, 0.198031574488, 0.323172926903, 0.299689382315, 0.174079135060, -0.346655994654, -0.218362361193, -0.236166819930, -0.328712612391, 0.558404922485, 0.612930595875, -0.228851974010, 0.736021518707, 0.154269382358, -0.034969449043, 0.323670029640, 0.169345244765, -0.362766891718, 0.540398478508, 0.226861223578, -0.783238410950, 0.266485124826, -0.233654722571, -0.082800194621, 0.129548802972, -0.795332312584, 0.370482861996, -0.946883857250, -0.363878518343, 0.382888913155, 0.167543336749, 0.364124476910, 0.070455163717, 0.498518198729, -0.080628797412, 0.412983953953, 0.230275973678, 0.024179102853, 0.324976116419, -0.054719015956, -0.328814506531, -0.264540851116, -0.151763677597, -0.305140316486, 0.462103009224, -0.144388064742, -0.405152618885, -0.937525033951, -0.329136669636, 0.262889951468, -0.024234488606, -0.188761815429, -0.030354639515, 0.521557390690, -0.173787787557, 0.155452638865, -0.666049778461, 0.069750346243, 0.058761119843, 0.242582768202, -0.526897251606, 0.368899762630, -0.277054399252, -0.833729267120, -0.893062174320, -0.200612246990, -0.238067030907, 0.359675705433, 0.010927365161, -0.226083800197, 0.063621185720, -0.446025848389, -0.062717460096, 0.032117579132, 0.848091185093, -0.485871970654, 1.025771021843, -0.585603237152, 0.168611958623, -0.470367103815, -0.259842008352, 0.088307283819, -0.210232868791, 0.208763331175, -1.367971777916, 0.190782114863, -0.273968309164, -0.121609374881, -0.090839229524, 0.261293411255, 0.077959679067, -0.689506053925, -0.209347903728, -0.004386596382, 0.045310426503, 0.268259793520, 0.244890138507, 0.017314760014, 0.434694916010, 0.042510703206, -0.117268621922, 0.531212091446, -0.331076145172, -0.148696988821, 0.004676389974, 0.521282970905, 0.132448181510, -0.177431002259, -0.031955253333, 0.310106843710, 0.305650413036, -0.128617450595, -0.581915855408, 0.081661991775, -0.576547384262, 0.082895390689, -0.720945775509, -0.043436437845, 0.293816149235, -0.005449821241, -0.414786845446, -0.351145088673, -0.089627832174, 0.061073485762, 0.481507003307, -0.051860127598, 0.316121757030, -0.300780355930, -0.472568035126, 0.430876433849, -0.172916457057, -0.128741487861, -0.366388618946, -0.645907402039, 0.164691284299, 0.061615414917, -0.312470585108, 0.575369358063, 0.431090474129, 0.054735612124, 0.143012508750, 0.276584476233, 0.435964524746, 0.303620308638, 0.143141880631, -0.484134882689, 0.621510624886, 0.203070148826, -0.365244537592, 0.463981509209, -0.230832353234, 0.390261679888, 0.074034601450, -0.238797500730, -0.333227604628, -0.447186291218, 0.165804639459, 0.293456435204, 0.009963236749, 0.021393131465, -0.005259383470, -0.056650739163, -0.664937496185, -0.252154082060, 0.153633996844, -0.445500195026, 0.035233367234, 0.472589910030, -0.088101617992, -0.400420576334, 0.211852401495, 0.004347224254, -0.015314508229, -0.450330108404, -0.463793367147, 0.028343593702, -0.155125677586, 0.034910954535, -0.185459196568, 0.242059841752, -0.020395496860, -0.012074371800, 0.226103454828, -0.227120891213, -0.072679318488, -0.620861291885, -0.156366512179, 0.123641520739, 0.283821046352, 0.372513562441, -0.285985440016, -0.313403666019, 0.103223629296, -0.039226457477, -0.573076844215, -0.195781499147, 0.148915484548, 0.320546567440, 0.131086587906, 0.051308736205, 0.085442319512, 0.311037838459, 0.053551066667, 0.028966544196, 0.124452993274, -0.732821762562, -0.514651060104, -0.436952263117, -0.422254413366, -0.519348919392, -0.205747172236, -0.220651909709, -0.448907196522, 0.013488870114, -0.093755826354, -0.142128735781, -0.596546471119, 0.029176972806, -0.206864893436, 0.006312123034, -0.276746153831, 0.011254069395, 0.029326297343, -0.039813492447, -0.069573365152, -0.174037158489, 0.091769792140, -0.037284307182, 0.353713899851, -0.180534869432, 0.379875302315, -0.158743292093, -0.055641267449, 0.170898869634, -0.146832928061, -0.066261798143, -0.057503569871, -0.202539712191, 0.129257172346, 0.097285769880, -0.037996869534, -0.014729426242, -0.067228220403, 0.090024314821, -0.268214851618, 0.017002655193, 0.297772735357, -0.169096291065, 0.175653323531, -0.286126762629, 0.057504460216, 0.293704837561, -0.047828491777, 0.215796485543, 0.130911618471, -0.515369355679, -0.019215855747, -0.123711869121, 0.004960414954, 0.156511947513, 0.008531724103, 0.032779511064, 0.258112072945, -0.252025544643, -0.499239265919, 0.298010379076, -0.004887703806, -0.342227876186, -0.224011525512, 0.206903532147, 0.274643272161, -0.105124548078, 0.151252448559, 0.358628422022, -0.069891922176, 0.116526491940, 0.262238800526, 0.247374162078, 0.258678823709, -0.201930224895, 0.222588390112, -0.085136234760, 0.271308898926, -0.048183590174, -0.005136836786, -0.101699069142, -0.107191123068, -0.064169354737, 0.061245251447, -0.392962306738, -0.548442006111, -0.151719346642, 0.004673031624, -0.082796305418, 0.149464011192, -0.255585044622, 0.057757232338, 0.000778973510, -0.074755705893, -0.360245943069, -0.067663259804, 0.083094201982, -0.149104580283, -0.316236674786, 0.101586781442, -0.040763538331, 0.014370231889, -0.073929965496, 0.015344067477, -0.178873479366, -0.051975276321, 0.378365904093, -0.140004426241, -0.076233059168, -0.068636223674, -0.034720435739, -0.164713367820, -0.049501266330, -0.013844339177, 0.156014159322, -0.341949462891, 0.115503139794, 0.309337556362, -0.024814192206, -0.215762779117, 0.257011383772, -0.118493072689, -0.084335431457, -0.101402759552, 0.031729906797, -0.338132202625, 0.091340757906, -0.245310321450, -0.072423718870, -0.261337995529, 0.035952199250, -0.128260061145, 0.023825744167, -0.406816750765, -0.183586820960, 0.299471914768, 0.096933461726, -0.056357569993, 0.326099425554, 0.088339999318, 0.109415493906, -0.029780004174, 0.010430827737, -0.234057113528, 0.274733215570, -0.168416664004, -0.040606316179, -0.010580306873, 0.259417295456, -0.146608158946, -0.116158932447, -0.021063838154, 0.293127745390, -0.142302513123, 0.004966893233, -0.251345783472, -0.129610702395, 0.278081387281, 0.128014698625, 0.298243343830, 0.281725853682, 0.204737544060, -0.327588498592, -0.015813486651, 0.305587202311, 0.087088190019, 0.060941405594, -0.389774471521, -0.133596360683, 0.108335345984, 0.068310506642, -0.358584344387, 0.422528058290, 0.017414523289, 0.056868351996, -0.447572290897, -0.187764897943, -0.293834358454, 0.294486075640, 0.081775128841, -0.083780825138, 0.186586558819, 0.235228404403, 0.421678453684, -0.002396856435, -0.170953333378, 0.201744183898, 0.160412102938, -0.401276260614, 0.280742943287, 0.065753370523, 0.345897793770, -0.270940542221, -0.083886161447, 0.310734540224, 0.172281414270, 0.138229832053, 0.133790403605, 0.124794244766, -0.197319120169, -0.292143195868, -0.198380291462, -0.091828607023, 0.024711877108, 0.233638301492, -0.036636807024, 0.052277941257, -0.285562008619, 0.009490525350, 0.131376504898, -0.161146581173, -0.226226881146, -0.258408367634, 0.032274480909, 0.111784815788, 0.052937339991, 0.167004480958, -0.078735210001, 0.242566019297, 0.057846926153, -0.462708085775, 0.416197180748, 0.255137145519, 0.031843680888, 0.379376590252, 0.213916003704, -0.071414403617, 0.359087884426, 0.576003611088, -0.006486302707, 0.324629306793, -0.065908722579, 0.327414989471, -0.635583937168, 0.173603400588, -0.175105452538, -0.141586184502, 0.187126442790, 0.122069448233, 0.195050388575, -0.235004410148, 0.116471327841, 0.141584351659, 0.276823133230, -0.321596682072, -0.124032430351, -0.454091548920, 0.019704638049, 0.245277106762, -0.081497497857, 0.113189972937, 0.494968444109, -0.250038415194, 0.195559337735, -0.216242596507, 0.105465307832, -0.657738268375, -0.180401608348, 0.315673619509, 0.149261578918, 0.145631819963, -0.326423555613, 0.122622504830, -0.200719967484, -0.236814737320, -0.123436480761, -0.250528693199, 0.245455726981, 0.101706407964, -0.359932601452, 0.373500585556, -0.354302257299, 0.143827870488, 0.262530177832, 0.276319563389, -0.298938244581, 0.331926673651, -0.186799123883, -0.011067871936, 0.128727450967, 0.143542781472, -0.100952230394, 0.327740371227, -0.184682205319, 0.224869430065, 0.052330076694, 0.200772404671, -0.001340891584, 0.122926868498, -0.308322399855, 0.147560358047, -0.254330545664, 0.272340804338, -0.220460370183, 0.172817155719, -0.049884438515, -0.493872761726, 0.271639466286, 0.076061084867, -0.115834869444, 0.108171187341, -0.233382478356, 0.261047124863, -0.070097811520, -0.152760073543, -0.207538872957, 0.153228119016, -0.217192009091, 0.239014863968, 0.404379427433, -0.163205623627, -0.059581976384, 0.127290397882, 0.415985614061, 0.312414169312, -0.348387211561, -0.139366641641, -0.441329002380, 0.174680024385, -0.079601868987, -0.131813809276, -0.186351209879, -0.324825882912, -0.226948633790, 0.382860273123, -0.460767567158, -0.148756340146, 0.171363294125, -0.336078435183, 0.101107873023, 0.484844267368, -0.235397368670, 0.147330045700, -0.266594499350, -0.223948001862, 0.007834025659, -0.380732536316, -0.308287173510, -0.242454826832, 0.364262521267, 0.058546859771, 0.557237386703, -0.155467420816, -0.662459671497, 0.130495980382, 0.046337362379, -0.342984646559, -0.172032654285, -0.119358465075, -0.004362847190, -0.166523739696, 0.191230863333, 0.408439755440, -0.125437736511, -0.239597320557, 0.006853094324, -0.011193566024, -0.314184308052, 0.464007973671, 0.373750567436, 0.348013877869, 0.221797332168, 0.056488394737, -0.043131802231, 0.177351400256, 0.281144440174, -0.282182514668, -0.246430680156, -0.549657344818, 0.023340946063, -0.078247554600, -0.109913505614, -0.297419816256, -0.007190702017, 0.157835751772, -0.155315175653, 0.318598687649, -0.328250408173, -0.173358812928, -0.598895967007, -0.033334884793, 0.292749375105, 0.301601350307, 0.051160655916, 0.143193125725, 0.301818490028, -0.625485539436, 0.083163052797, -0.014618151821, 0.076715245843, 0.213514566422, 0.057471994311, 0.286368846893, -0.424240291119, -0.073643326759, 0.113937512040, -0.306705981493, -0.348070025444, 0.021809713915, -0.098243214190, -0.548825502396, -0.142624422908, 0.231656298041, 0.291766047478, 0.099488407373, -0.006106033456, -0.514910697937, 0.080454304814, -0.355819195509, 0.142546072602, -0.222848638892, 0.194740250707, 0.384616404772, -0.177088797092, 0.030444923788, 0.403315842152, -0.077700041234, 0.079083770514, 0.129570409656, 0.183582961559, 0.018743192777, 0.388762056828, -0.493698835373, 0.097918108106, -0.064036980271, 0.111605726182, 0.298765212297, -0.172405526042, 0.137312695384, 0.369476675987, -0.024150086567, 0.216249063611, 0.194396421313, 0.264010578394, 0.365861117840, 0.009120255709, 0.074480175972, -0.062761403620, 0.213423535228, 0.598888278008, 0.244342118502, -0.381618797779, 0.078076303005, -0.264684677124, -0.099320381880, -0.375680625439, 0.223091349006, 0.083124317229, 0.290072262287, 0.422261953354, -0.476181834936, -0.219885200262, 0.204672202468, -0.331301867962, 0.003101332579, -0.293243229389, -0.010222727433, 0.073329985142, 0.326649039984, -0.362909168005, 0.235719844699, -0.117091439664, -0.016075588763, 0.175922811031, 0.337390571833, 0.143307834864, -0.123465150595, -0.303132593632, -0.118001416326, -0.215523377061, 0.391797184944, 0.005780673586, 0.363967299461, -0.248869121075, 0.189998865128, -0.257228076458, -0.009517986327, -0.095236666501, -0.320874541998, -0.195379242301, 0.058054205030, 0.207726225257, -0.032833106816, 0.102778799832, 0.200609639287, 0.121776737273, 0.127590537071, 0.063295751810, -0.081611469388, 0.106613092124, 0.122146047652, 0.170019149780, 0.033285681158, -0.192922323942, 0.165678769350, -0.209798157215, -0.006305969320, -0.124162048101, 0.203040823340, -0.032025299966, -0.086120881140, -0.212339758873, 0.083118893206, -0.039314836264, 0.128324359655, 0.437377393246, -0.040798634291, 0.044796105474, 0.390344709158, 0.164373800159, -0.308204710484, -0.111019954085, -0.096842683852, -0.301069796085, 0.404107630253, 0.121018879116, 0.059381294996, 0.017046328634, 0.169620156288, 0.112683087587, -0.060890011489, 0.110555134714, -0.128007143736, 0.382402539253, 1.059591889381, 0.230685442686, 0.360663622618, -0.662091553211, 0.264188736677, -0.818019270897, -1.099632382393, -0.639968216419, 0.861877679825, 0.481851935387, 0.843776702881, -0.552285134792, -0.377550333738, 0.953584313393, -1.091899037361, -0.631510555744, 0.247769832611, 0.110541313887, 0.026061894372, 0.137494578958, -0.040301069617, -0.764318406582, -0.409566968679, 0.861765623093, -0.812541723251, 0.466950744390, 0.455541163683, 0.396513968706, -0.634714424610, -0.121383555233, -0.687256336212, 0.253809243441, -1.314002037048, -0.833731889725, 0.904145717621, 0.159313827753, -0.558965325356, -0.474800884724, -0.532943606377, 0.498854845762, -0.920318186283, -0.688143312931, -0.210246205330, -0.004657635000, 0.611809313297, -0.880458533764, 0.564911961555, 0.445686787367, 0.414267331362, 0.705095767975, 1.035536408424, 0.250712752342, 0.368864417076, 0.006809421815, 0.552435457706, 0.305104792118, 0.439995020628, -0.503343820572, -0.747671902180, -0.289598792791, -0.476428091526, 0.899221718311, -0.355163007975, -0.477869033813, 0.041761107743, 0.128530114889, 0.142765611410, -0.229229941964, 0.172876551747, 0.247674211860, -0.195249006152, -0.018019776791, 0.035131741315, -0.141978368163, 0.461325258017, -0.173275277019, -0.013065117411, -0.427837312222, -0.091374218464, 0.055004917085, -0.038127571344, -0.684739708900, -0.319078564644, 0.348058015108, 0.355100989342, -0.179568052292, 0.115876212716, -0.280075699091, -0.153590083122, 0.461800336838, -0.133801311255, -0.083095587790, 0.038661886007, -0.091338217258, 0.159429550171, -0.539688348770, -0.085746310651, 0.159943297505, -0.035830374807, 0.093379676342, 0.415244698524, 0.045488204807, -0.340900689363, -0.140572234988, -0.237253457308, -0.107034064829, 0.004657143261, 0.417136013508, 0.034924298525, 0.071845330298, -0.414513438940, 0.241950869560, -0.065354630351, -0.098053365946, -0.129644542933, -0.228230461478, -0.228758335114, -0.720284223557, -0.095895595849, -0.028133207932, -0.276942759752, -0.022533539683, -0.306955993176, -0.040423415601, 0.293302744627, 0.102702274919, -0.041513182223, -0.241915181279};
