//Numpy array shape (64, 32)
//Min -1.341783881187
//Max 0.676052272320
//Number of zeros 0

weight_default_t w2[2048] = {0.372152477503, 0.115531504154, -0.147358715534, 0.329820901155, 0.204719826579, 0.136961653829, -0.214980348945, -0.538138329983, -0.341624736786, 0.058534082025, 0.313429296017, 0.228150248528, -0.564096689224, 0.186197087169, -0.266321271658, 0.121320210397, 0.072615966201, -0.578786373138, -0.239569768310, 0.314148277044, 0.523620188236, 0.121934741735, -0.111425630748, -0.491543710232, -0.271671056747, -0.219274267554, 0.368478327990, 0.224300861359, 0.329412430525, 0.201349511743, 0.314760714769, 0.475933164358, 0.023076595739, -0.132002279162, 0.205810844898, -0.065692521632, -0.166360840201, 0.123071223497, -0.039657335728, -0.167037948966, 0.029724406078, -0.005822127685, 0.155003234744, 0.008959000930, 0.139423966408, -0.079960539937, -0.084167152643, 0.196175381541, -0.095053397119, -0.036861807108, 0.125917837024, -0.149863019586, 0.031726475805, -0.236366212368, 0.193545073271, 0.051177967340, -0.011129486375, 0.140928268433, 0.235264196992, 0.017378797755, -0.142110452056, 0.106272339821, -0.015965903178, -0.170685574412, 0.036179792136, 0.001562700141, -0.412444025278, -0.005529613234, 0.333979308605, 0.144614771008, -0.366919249296, -0.067776285112, -0.050347499549, -0.149899378419, -0.206215515733, 0.089279994369, -0.041795969009, -0.330042034388, -0.172229945660, -0.398140102625, -0.034210462123, -0.132986247540, -0.354579597712, 0.116855464876, 0.201398462057, 0.270839005709, -0.231471747160, -0.400111079216, -0.145073339343, -0.286193698645, 0.112081564963, -0.656923592091, 0.184111371636, -0.152882859111, 0.220967903733, 0.084021307528, -0.070622555912, 0.159823015332, -0.071131795645, 0.160595014691, 0.199172869325, -0.020679073408, 0.127876713872, -0.067039906979, -0.144043460488, -0.055943433195, -0.140152961016, 0.118569076061, 0.154834151268, -0.010925952345, -0.197778195143, 0.003544638865, 0.015284551308, -0.047343809158, 0.175520092249, 0.059687230736, 0.120394200087, -0.277157783508, 0.251981794834, -0.084921002388, 0.337574094534, 0.020522398874, 0.120993986726, 0.113765232265, -0.078945957124, 0.113743156195, -0.058147907257, 0.019544133916, -0.153809964657, -0.228911504149, 0.072422519326, -0.211899623275, 0.231780946255, 0.217556476593, 0.068345420063, 0.238965123892, 0.023549724370, -0.440158307552, 0.029923563823, 0.059213880450, 0.145104050636, 0.017049802467, -0.080690219998, 0.088446967304, -0.370290666819, -0.209607169032, 0.073287256062, 0.090838298202, -0.687925517559, 0.066657312214, 0.056200083345, 0.107080727816, 0.058984998614, -0.117243565619, -0.047936640680, -0.080594480038, 0.262622863054, 0.087050989270, 0.130967468023, -0.066712312400, -0.053784813732, 0.008450604975, 0.098201356828, -0.106211639941, 0.023620637134, -0.147538915277, 0.144271001220, 0.157353088260, 0.308412462473, -0.116088114679, -0.103725552559, -0.112208418548, 0.031648848206, -0.025848381221, 0.354421705008, -0.143063709140, -0.302640378475, 0.351902753115, 0.203792944551, -0.114172257483, -0.178363025188, -0.008833568543, 0.153190538287, -0.066852532327, 0.228465676308, -0.055420681834, 0.096201926470, 0.079492472112, -0.027790585533, -0.034069184214, 0.074044607580, -0.482846975327, -0.476178824902, -0.270106613636, 0.141025692225, -0.144339174032, -0.530601978302, 0.140296742320, 0.074717372656, 0.078743487597, -0.241039499640, -0.103535816073, 0.300897121429, -0.162756368518, 0.334085166454, -0.555534601212, 0.412043243647, 0.395251333714, -0.141315475106, 0.124268785119, 0.010898225941, -0.585661351681, -0.383949756622, 0.257692337036, 0.121682398021, 0.178096726537, 0.105303145945, 0.289016813040, -0.292648822069, 0.057743314654, 0.251975148916, -0.184757009149, 0.190813258290, -0.380432218313, -0.087963059545, 0.067959383130, 0.220108672976, 0.018519539386, -0.425245732069, 0.585607647896, 0.254672616720, 0.184426084161, -0.043282154948, 0.086594015360, 0.184937760234, -0.230845943093, 0.294798642397, -0.049644067883, 0.088552378118, 0.110287718475, -0.105973832309, 0.018860850483, 0.396334230900, -0.050966914743, -0.058600485325, 0.081457413733, 0.475217908621, 0.132077589631, 0.371051907539, 0.162129208446, -0.051447857171, 0.362967312336, 0.236811622977, -0.277251273394, 0.114858046174, -0.031953971833, 0.182682320476, 0.195230633020, 0.128576129675, 0.039658308029, -0.068999744952, -0.165600657463, 0.111209757626, -0.147803813219, -0.015874939039, 0.271877437830, 0.085386455059, 0.174545839429, 0.083358094096, 0.226878404617, 0.188085243106, 0.173723980784, -0.172256335616, -0.509656369686, -0.214309483767, -0.158925965428, -0.286791056395, -0.308948129416, 0.027479009703, 0.250088274479, -0.124373592436, 0.368194609880, 0.052425656468, -0.241654798388, 0.043788623065, 0.160631582141, 0.136654153466, 0.358539193869, 0.117651641369, -0.279024809599, 0.316089451313, 0.377735048532, -0.073247686028, -0.047906402498, -0.021914849058, 0.152345061302, 0.125939458609, 0.100612238050, 0.092932000756, 0.081570237875, -0.172005876899, 0.159658282995, 0.054820001125, 0.324237912893, 0.182020276785, -0.253951996565, 0.327314555645, 0.038250517100, -0.231042250991, -0.160385698080, -0.162067592144, 0.037534192204, -0.176053285599, 0.124944001436, 0.247264429927, 0.454855382442, 0.340215563774, -0.047320924699, -0.162820234895, 0.319089114666, 0.014853615314, -0.090350054204, -0.359640985727, 0.029004117474, 0.044434342533, 0.035622667521, 0.048889093101, -0.660998404026, -0.027044268325, -0.353789001703, -0.195422232151, 0.401515454054, -0.066108703613, 0.110765606165, 0.122643642128, 0.095671154559, -0.089012227952, -0.038990650326, -0.149457365274, 0.018718179315, -0.301054269075, 0.107903629541, -0.141168966889, -0.236433058977, 0.186286598444, 0.073267333210, -0.151579439640, -0.188569903374, 0.129382416606, 0.137614592910, 0.194713994861, 0.140376076102, 0.174821034074, -0.185005888343, -0.340331614017, -0.046018600464, 0.045524451882, -0.108810484409, -0.133685365319, -0.251650899649, -0.092565171421, 0.246590584517, -0.099852122366, 0.060366228223, 0.149617895484, -0.065923653543, 0.127842888236, -0.022875078022, 0.149722620845, -0.020543703809, 0.087149158120, 0.080521263182, -0.039373159409, 0.142259389162, 0.026651958004, 0.079385057092, 0.099243894219, 0.178543180227, -0.092398427427, -0.068948425353, 0.038631502539, -0.080447122455, -0.454415559769, -0.253474652767, -0.206779941916, 0.052110720426, 0.145965203643, 0.216785803437, -0.306316435337, 0.240507230163, 0.090671680868, 0.139487951994, 0.181777790189, 0.249284967780, 0.060814257711, 0.038249187171, 0.324620485306, -0.282119840384, 0.162808731198, 0.140294715762, 0.058674938977, 0.085396528244, 0.107198901474, 0.075980074704, -0.032228060067, -0.018486179411, -0.089972384274, 0.371620237827, 0.160521656275, -0.224914193153, -0.064854107797, 0.594443261623, 0.022094337270, -0.323791503906, 0.059645101428, -0.303118228912, -0.095021650195, 0.065194956958, -0.236723363400, -0.028010871261, -0.732164025307, -0.233762145042, -0.097240358591, -0.003634541295, -0.104279078543, -0.066157490015, 0.007987472229, 0.676052272320, -0.264306455851, 0.311293542385, -0.242773562670, -0.119583554566, -0.253467708826, -0.204382494092, -0.192548304796, -0.326793998480, -0.352637171745, 0.114246487617, -0.340128958225, -0.180445358157, -0.267605334520, 0.118071079254, 0.135871469975, -0.255824744701, 0.118598170578, 0.145641654730, -0.000698397751, -0.212592899799, -0.140218421817, 0.096978016198, 0.107682310045, -0.190982505679, -0.169006109238, -0.113746866584, 0.254320442677, 0.256213843822, -0.069501280785, -0.070250838995, -0.048179496080, -0.064475372434, 0.057773333043, 0.126928508282, 0.299694031477, 0.343918889761, 0.017348816618, 0.399712473154, 0.059531677514, -0.335806071758, -0.006373257842, 0.089016653597, 0.210063904524, 0.138833120465, 0.148526549339, -0.259553551674, -0.289173603058, -0.154737904668, -0.453288227320, -0.233196347952, -0.244362369180, -0.339623510838, 0.023740578443, -0.084333471954, -0.075009785593, -0.069330736995, 0.146390527487, 0.218264818192, -0.082192681730, 0.220935136080, 0.074947156012, -0.015786860138, -0.151370748878, -0.301330924034, 0.107378758490, -0.094783060253, 0.050535567105, -0.130555748940, -0.095468021929, 0.287614077330, 0.152172610164, -0.070944897830, -0.132693529129, 0.143087580800, -0.040222119540, 0.149708226323, -0.232641369104, -0.209919899702, 0.015183454379, -0.466073065996, -0.108878552914, -0.168785095215, 0.120359927416, -0.160300135612, 0.026223171502, 0.357170730829, 0.296904236078, 0.490211606026, 0.056713383645, 0.115103900433, 0.057749155909, 0.093195781112, 0.003398506902, 0.539429187775, -0.009189391509, -0.523676693439, 0.358688592911, 0.021410927176, 0.037242941558, 0.106771029532, 0.031922951341, 0.059171937406, 0.544894278049, -0.202627822757, 0.595115542412, -0.373246967793, 0.389131516218, 0.062538653612, -0.146966174245, 0.084968432784, 0.172264471650, 0.127588152885, -0.112136118114, 0.007764198817, 0.347198575735, 0.245438635349, 0.107818536460, 0.167221963406, 0.151879087090, 0.316393107176, 0.155638679862, -0.125033691525, 0.071567922831, 0.303471803665, -0.096405327320, -0.092165775597, -0.353956401348, 0.105094924569, -0.225941419601, 0.100837908685, 0.067627541721, -0.162373080850, -0.240499392152, 0.290217459202, 0.224711045623, -0.358110815287, 0.502142965794, -0.105896785855, -0.007118944544, 0.055944100022, -0.172523438931, -0.335314244032, 0.252358168364, 0.142633661628, 0.358810603619, -0.035138417035, -0.126153051853, 0.151338562369, -0.053241290152, -0.048034630716, -0.020423728973, 0.278772026300, 0.107477635145, -0.153336495161, -0.023635519668, 0.174241766334, 0.302651345730, 0.182038351893, -0.116346664727, -0.036427516490, -0.136886611581, 0.130733296275, -0.107231117785, -0.018728610128, 0.013075076975, -0.188697472215, -0.119874648750, 0.139476180077, 0.031902141869, 0.076845385134, -0.033789828420, -0.083402298391, 0.131194457412, 0.005225109868, 0.064719110727, -0.038290686905, 0.040986645967, -0.248204022646, -0.180287241936, 0.343058109283, -0.113033272326, 0.143039137125, 0.117278978229, -0.135080203414, 0.107437215745, 0.093191906810, -0.269101649523, 0.355379432440, 0.152782678604, -0.224539071321, -0.057301048189, 0.230034992099, -0.306722909212, 0.098975889385, -0.245909228921, 0.059331316501, -0.119084849954, 0.181484311819, -0.183572024107, 0.058175660670, -0.534633874893, -0.024937542155, 0.278677493334, 0.160002380610, -0.143416643143, 0.048828117549, 0.125727280974, -0.166050642729, 0.099252037704, -0.103259772062, -0.047399740666, -0.161376729608, -0.031221633777, -0.027100374922, 0.265630334616, 0.194502532482, 0.070983625948, 0.269997149706, 0.032988574356, 0.029532866552, 0.148501992226, -0.210881128907, 0.017724668607, 0.132759794593, 0.174857258797, -0.206619367003, 0.097408585250, 0.001999750035, 0.017685456201, -0.083460211754, 0.078395389020, 0.032236296684, -0.177134826779, 0.042973414063, 0.252489060163, 0.108879983425, 0.156265974045, -0.048194710165, -0.228084549308, -0.203210860491, 0.114251926541, 0.107601396739, -0.170968756080, -0.052630685270, 0.036112327129, 0.303684949875, 0.217622891068, 0.077069640160, -0.226418286562, 0.237033903599, 0.000065060558, 0.049256484956, -0.302377730608, 0.122191764414, -0.237954184413, -0.114952936769, -0.006563890725, 0.067323401570, 0.364889711142, -0.231428980827, -0.025884050876, 0.325276911259, 0.122535184026, -0.025068374351, 0.122634321451, 0.138212099671, -0.105447016656, 0.139613181353, 0.240558177233, -0.220680981874, -0.384970515966, -0.165116325021, -0.487518191338, 0.100953057408, -0.171909153461, 0.092863172293, -0.007472419646, 0.242664292455, 0.179384306073, 0.105223625898, 0.166610240936, -0.021116536111, -0.223464429379, -0.184114381671, -0.136409386992, 0.264488577843, -0.139782801270, 0.064716510475, -0.239334374666, 0.047552470118, -0.028391627595, -0.162943527102, 0.068516537547, 0.117882609367, 0.042374130338, 0.227117002010, 0.198825135827, 0.252957612276, 0.206910848618, 0.175326555967, 0.252487152815, 0.081378005445, -0.392458975315, -0.266893029213, -0.376964449883, -0.419264286757, 0.142757833004, 0.075197406113, 0.164926111698, -0.038000296801, 0.241526424885, 0.106517739594, 0.314736485481, 0.152174443007, -0.026670889929, 0.002023633337, 0.201900497079, 0.172227606177, 0.040057435632, -0.229579985142, -0.324483543634, 0.400772988796, -0.291075140238, -0.333153337240, 0.151805073023, -0.259308844805, -0.309749633074, 0.176354050636, 0.053283315152, 0.100882634521, 0.001576444018, -0.289128422737, -0.196291133761, -0.247883856297, 0.457875609398, 0.099275670946, -0.023213321343, -0.007916108705, 0.106593370438, 0.123130656779, 0.085684999824, 0.228967204690, 0.011091823690, -0.119334653020, -0.017146961764, -0.094129197299, 0.240482896566, -0.028061239049, -0.090692773461, 0.182906568050, -0.178075850010, 0.061003204435, 0.076550200582, 0.080427408218, 0.016741726547, 0.073603838682, -0.157283067703, 0.282586634159, 0.059925250709, -0.373782396317, -0.114534743130, 0.035247545689, 0.094068899751, 0.245766848326, 0.123077578843, -0.058865819126, -0.172327652574, -0.458169549704, -0.112457573414, 0.013271386735, -0.011529096402, -0.197877958417, 0.302865833044, -0.333678781986, 0.159224092960, 0.231662094593, 0.331704139709, -0.111179411411, -0.139462500811, 0.116294346750, 0.228396549821, 0.057699471712, -0.371989607811, 0.389099478722, -0.153115615249, 0.344370454550, -0.020545652136, -0.325979441404, -0.209288373590, -0.177611261606, -0.260824263096, 0.358695358038, -0.316130578518, 0.266587466002, 0.113447628915, -0.226775839925, -0.114212162793, -0.190249428153, 0.083142831922, -0.262139767408, 0.142501711845, 0.001594909234, 0.276555418968, 0.369076013565, 0.256685137749, 0.256515979767, 0.033601883799, 0.100140772760, 0.085206851363, -0.287804365158, 0.281675338745, -0.244123399258, -0.085983239114, -0.139648258686, -0.108081296086, -0.019666725770, 0.158686354756, 0.161699891090, 0.169501930475, 0.043094493449, 0.027337580919, -0.083548478782, -0.056636177003, 0.190531268716, 0.193166866899, -0.056416455656, -0.221356123686, -0.121408820152, 0.243766993284, -0.221669003367, 0.127728581429, 0.181382879615, 0.313964396715, 0.116535067558, -0.046036522835, 0.107650972903, 0.054704982787, 0.156187072396, 0.192659258842, -0.038687840104, 0.156715065241, 0.186658650637, -0.226168692112, 0.141277343035, 0.048741791397, 0.014590241946, -0.127279013395, 0.341069698334, -0.140924260020, 0.417848378420, -0.048803925514, -0.198927491903, 0.319783121347, 0.044476550072, -0.046866185963, 0.086560010910, 0.190198257565, 0.097482211888, -0.019842742011, -0.048702076077, -0.120591685176, -0.041726958007, -0.128331720829, -0.098285540938, 0.123564906418, -0.073925949633, -0.001686773729, 0.200021058321, 0.216500297189, -0.205202609301, -0.448525696993, 0.073718681931, -0.146398067474, 0.127674609423, -0.313023835421, -0.038572818041, -0.159605026245, -0.045660182834, -0.131655722857, 0.252050697803, 0.128865748644, -0.019159859046, -0.056589998305, 0.290731728077, -0.223748490214, 0.336582690477, -0.189378425479, -0.101004339755, -0.129627272487, 0.082085609436, 0.226116120815, 0.072507217526, 0.293894588947, 0.093630738556, -0.048218883574, -0.161005273461, 0.428836554289, -0.056400768459, -0.322779327631, -0.558648109436, 0.042923077941, 0.170484289527, 0.110569246113, 0.285314381123, 0.203377544880, 0.139213785529, 0.136151522398, 0.345944732428, 0.242820769548, 0.039085309952, -0.042243137956, -0.013560662977, 0.096133299172, -0.002958180383, -0.167785152793, 0.159392133355, 0.246652513742, 0.001113055740, 0.074092388153, -0.292485654354, -0.040148869157, 0.204831004143, 0.303592503071, 0.075075887144, -0.228669464588, -0.079277455807, 0.124355085194, -0.083044722676, -0.019093882293, 0.066284231842, 0.320237398148, 0.101651996374, -0.122917465866, 0.254799246788, -0.148786157370, 0.134593099356, -0.215608641505, 0.143064126372, 0.095144197345, 0.185715839267, 0.027962224558, -0.174886167049, 0.118602514267, -0.002927881898, 0.137722522020, 0.184137314558, 0.004146517720, -0.059616569430, -0.194554194808, 0.135586753488, 0.131786748767, -0.217854455113, 0.132373794913, -0.193560346961, 0.209261849523, 0.182447776198, -0.146205708385, -0.041782662272, 0.125635266304, 0.112647347152, -0.063612550497, 0.193960636854, 0.127551332116, -0.063049346209, -0.095113344491, 0.163587674499, 0.206193819642, 0.099013946950, 0.215556591749, -0.042684081942, -0.073589116335, 0.097549535334, -0.006526954938, 0.246427685022, 0.013838409446, -0.191811457276, -0.103928312659, 0.229707077146, 0.012105306610, 0.071245908737, 0.183675676584, -0.158317416906, -0.216498464346, 0.139066323638, 0.215850308537, 0.149268656969, -0.100856028497, -0.091123193502, 0.068768426776, 0.179489716887, -0.184209048748, 0.177676573396, 0.003879856551, -0.120504751801, -0.070675827563, 0.346916258335, -0.288830995560, 0.202713340521, -0.174798160791, -0.028296517208, 0.100933067501, 0.084541596472, -0.025681382045, 0.028672827408, -0.159939289093, -0.115489810705, -0.434171080589, 0.065336927772, 0.330620050430, -0.959474742413, -0.101645022631, -0.089224778116, 0.150430127978, 0.305540174246, 0.216556787491, -0.102975174785, 0.163246557117, -0.069954261184, 0.027895716950, 0.146487429738, -0.073927193880, 0.296962857246, -0.337659448385, 0.207653760910, 0.429867565632, 0.274843275547, 0.083077475429, -0.288981705904, 0.124355599284, 0.018898785114, 0.072735503316, 0.033912390471, -0.025085240602, 0.254608809948, -0.314838200808, 0.148858070374, -0.413579344749, -0.089680790901, 0.156836912036, 0.039607994258, 0.308829933405, 0.481288492680, 0.008525962010, -0.383762776852, 0.158667266369, -0.097461797297, 0.156057059765, 0.135003477335, 0.008703327738, -0.091335065663, 0.207435086370, 0.151031687856, -0.103495411575, -0.041080962867, -0.030922716483, -0.320404917002, -0.245277658105, -0.022068936378, -0.108163513243, 0.190258443356, 0.161493599415, -0.017757793888, 0.097680084407, -0.030153473839, 0.240055084229, -0.116210415959, -0.316989988089, -0.086511574686, -0.001253448892, 0.170000731945, 0.020611912012, 0.147279918194, -0.227689787745, 0.260059326887, 0.102064870298, -0.144452244043, 0.199920862913, -0.499189555645, -0.201245829463, 0.227942481637, -0.063408777118, -0.180067226291, -0.059490237385, -0.156599462032, -0.051263410598, -0.065854743123, -0.093885198236, -0.147958040237, -0.048539303243, -0.122779354453, 0.019532559440, 0.206394776702, 0.338732987642, 0.127257287502, -0.024688577279, 0.248759284616, 0.090727128088, 0.084662795067, 0.329084187746, 0.034528475255, -0.096453659236, 0.095980733633, 0.157875359058, -0.197641059756, 0.041935533285, -0.247994378209, 0.036820191890, -0.061596594751, 0.186109125614, -0.033803749830, 0.346610546112, 0.262112468481, 0.315142810345, 0.254694014788, 0.283432871103, 0.255219221115, 0.327506661415, -0.151444792747, 0.113312989473, 0.396432429552, 0.095186278224, 0.168135061860, -0.136492371559, 0.263735026121, -0.122348375618, -0.069556795061, -0.202667966485, -0.138731598854, 0.090408220887, 0.360064774752, 0.189732059836, -0.237298816442, 0.260391503572, -0.215143188834, -0.005132707302, 0.046845935285, -0.069321677089, -0.051429931074, 0.164163634181, 0.147779971361, -0.214140787721, 0.219116419554, -0.069848403335, 0.076012298465, -0.025371517986, -0.093761973083, 0.098274126649, -0.084464393556, 0.233271285892, 0.052967380732, -0.121936015785, -0.119887955487, -0.054685972631, -0.295331954956, 0.133232355118, -0.247891947627, 0.030538957566, 0.067388467491, 0.015411923639, 0.338190704584, -0.148632928729, 0.309660941362, 0.110107213259, 0.482787162066, 0.407895475626, 0.274996280670, 0.174726754427, 0.073402389884, 0.206946268678, 0.289763271809, -0.103009998798, 0.146624967456, 0.045315854251, -0.057310160249, -0.154603630304, 0.052643194795, 0.052603051066, 0.081182867289, 0.254023075104, -0.012549284846, 0.089646793902, 0.185972660780, 0.160427734256, -0.177802652121, -0.096616797149, 0.021033488214, 0.044846445322, 0.036163464189, 0.148529335856, -0.160826638341, -0.030814792961, 0.000196507433, -0.235976651311, 0.176509350538, -0.039652515203, 0.226277738810, 0.326419323683, 0.048877656460, 0.037964146584, -0.135620221496, 0.131514802575, 0.164768040180, 0.015799492598, -0.245199054480, 0.060449372977, 0.243222385645, 0.166670084000, 0.169210076332, 0.178221523762, -0.047361470759, -0.019885249436, 0.015433857217, 0.290430247784, 0.290633767843, -0.069873332977, -0.186964958906, -0.218404114246, -0.084157109261, 0.052972290665, 0.214338719845, 0.242605581880, -0.267936736345, 0.176775351167, -0.054686013609, 0.145769000053, -0.055565219373, -0.268978476524, 0.169372782111, -0.250263392925, 0.183389291167, -0.091696873307, 0.130416095257, -0.047453243285, -0.088230855763, -0.332594573498, -0.260584384203, 0.262394785881, -0.018086515367, -0.017276436090, 0.117103405297, 0.176997780800, 0.048287842423, -0.064504757524, -0.213660910726, 0.146613150835, -0.254507899284, -0.101791501045, -0.268317222595, -0.022810056806, 0.137614175677, 0.141940951347, 0.318197280169, -0.429230093956, 0.362101256847, -0.316557705402, 0.252925485373, 0.194985032082, -0.259242981672, 0.162734374404, 0.382048487663, 0.276551961899, 0.304913729429, -0.341518759727, -0.342724144459, 0.003955694847, -0.009164695628, 0.363280117512, -0.109854273498, 0.054881263524, 0.285317838192, -0.106613978744, -0.077203564346, -0.166910454631, 0.234053790569, 0.063398569822, 0.227073594928, 0.036743119359, -0.265994489193, -0.138583987951, -0.125267848372, -0.150653749704, -0.164980456233, -0.045219153166, -0.332360088825, -0.017411712557, 0.032160557806, -0.142333567142, -0.133737981319, 0.036630969495, 0.074908062816, -0.075075253844, 0.243725344539, 0.087313011289, 0.139576300979, -0.324329316616, -0.171864226460, 0.174025997519, -0.683169126511, 0.294760078192, -0.217225253582, -0.116204611957, 0.127666965127, 0.013038851321, 0.191778913140, 0.063362210989, 0.193727418780, 0.189538285136, 0.088214695454, 0.060988839716, 0.146693438292, -0.297491401434, -0.425350278616, -0.058140918612, 0.078579969704, 0.212774947286, -0.014434659854, -0.164510846138, 0.036573067307, 0.021726645529, 0.217922359705, 0.219505205750, -0.013200662099, 0.087051279843, 0.038919329643, -0.341419190168, -0.047981798649, -0.158399730921, -0.364053130150, -0.067484386265, 0.163595691323, -0.060502640903, 0.126430168748, -0.123017095029, -0.027913538739, -0.033550314605, -0.166359707713, 0.193432867527, 0.041761178523, 0.160472646356, -0.101282477379, 0.034548252821, 0.010625364259, 0.146396502852, -0.120684243739, 0.093912824988, 0.064474441111, 0.198338896036, -0.039153110236, -0.078111462295, -0.081606827676, 0.152973145247, -0.073928318918, -0.155206844211, 0.114589281380, 0.047578528523, -0.090588569641, 0.405939429998, 0.183792695403, 0.075507082045, 0.049964010715, 0.082491256297, 0.153673410416, -0.224213913083, -0.124123051763, 0.092965967953, 0.146792307496, -0.128625079989, 0.034166097641, -0.076649464667, -0.108692415059, 0.253788828850, -0.046952668577, -0.042559880763, 0.183199822903, 0.141700699925, 0.007096495945, -0.102397985756, 0.084771946073, 0.044764369726, -0.283587425947, -0.080495938659, -0.179790735245, -0.276687711477, 0.149173930287, 0.124496549368, 0.170010209084, -0.188429310918, 0.134197935462, -0.184033855796, 0.118495605886, 0.102885171771, 0.320339620113, -0.223330408335, 0.206309199333, -0.123088501394, -0.084082834423, 0.142831578851, -0.198894545436, -0.229385197163, 0.059339743108, -0.032558310777, 0.004768461455, -0.203592404723, -0.227878466249, 0.124959670007, 0.257469356060, 0.081819497049, 0.143746808171, -0.112940751016, -0.073377542198, 0.007898010314, 0.039304479957, -0.508087098598, 0.159692704678, -0.139856144786, 0.167545318604, -0.026387162507, 0.013438630849, -0.168864279985, 0.029003065079, -0.401826769114, -0.109725750983, -0.380100607872, 0.115895159543, 0.181479513645, -0.717994749546, 0.512508213520, -0.106304280460, -0.288763254881, 0.487934768200, -0.044369786978, 0.084645025432, 0.147648110986, 0.254029184580, -0.111730165780, 0.167994871736, 0.115549318492, -0.108675137162, -0.616582036018, -0.202946379781, 0.015607956797, -0.097197517753, -0.312872856855, -0.398177981377, 0.294933229685, 0.127308309078, 0.013295261189, 0.268995046616, 0.278973847628, 0.017602244392, -0.127861872315, 0.372751623392, 0.231847926974, 0.133796349168, 0.128384709358, -0.306460529566, -0.091356799006, 0.235434383154, -0.062987267971, -0.117864668369, -0.356830447912, -0.113777130842, -0.214157491922, 0.223637402058, 0.084140136838, -0.009082852863, 0.005700148176, 0.075846038759, -0.257942825556, -0.239907830954, 0.335614800453, -0.093667484820, -0.000471465901, 0.262502044439, 0.294449478388, 0.013113611378, -0.073380127549, -0.261425346136, -0.149100035429, -0.059809330851, 0.044277966022, 0.127838537097, -0.108079098165, -0.055849835277, 0.112926483154, -0.052817016840, 0.089568018913, -0.036381296813, 0.126724228263, -0.093076877296, -0.124272882938, -0.013589215465, 0.006927001290, -0.024073906243, 0.056200280786, 0.198612079024, -0.157561555505, -0.138692736626, -0.089709579945, -0.302160680294, 0.269385248423, 0.079771578312, 0.126995414495, -0.073044002056, -0.170007437468, 0.198466196656, 0.155695691705, -0.095431365073, -0.015575931408, -0.051232576370, -0.258857578039, 0.063540883362, 0.038191828877, -0.177893653512, 0.210800290108, -0.269717395306, 0.130957484245, -0.020363347605, 0.386264294386, -0.064602583647, 0.079019933939, -0.211801543832, 0.183298900723, 0.234334439039, -0.136156305671, -0.449087172747, 0.218701943755, 0.033051889390, -0.230749994516, 0.038023091853, 0.062247361988, 0.042784888297, 0.002342284657, 0.307448059320, 0.168173447251, 0.274217188358, 0.233749702573, 0.056362941861, 0.100419297814, 0.211991861463, -0.087393350899, 0.185702338815, -0.412532925606, -0.246614217758, -0.232069030404, -0.064603805542, -0.331250339746, -0.362458854914, 0.194233864546, -0.587889790535, 0.007516199257, 0.167083323002, -0.215081706643, 0.054413344711, 0.057521454990, -0.031161274761, -0.085036888719, -0.408802241087, -0.064847052097, 0.004432915710, -0.338509380817, 0.084433995187, 0.154876306653, -0.577880501747, -0.184392750263, -0.172679230571, 0.268211007118, -0.057726487517, 0.192318633199, -0.178219586611, 0.120024450123, -0.105265192688, 0.202538102865, 0.017275037244, 0.024198358878, -0.033386148512, 0.406478971243, 0.161372900009, -0.040726732463, -0.353222906590, 0.246869936585, -0.105966821313, -0.335134506226, -0.022508928552, -0.038015287369, 0.080846570432, -0.070889495313, -0.280654966831, -0.108272813261, -0.511553943157, -0.172888189554, -0.080068878829, 0.006161782425, 0.118472315371, 0.031319923699, -0.041601989418, -0.012969615869, -0.048294756562, 0.261415690184, -0.017097830772, 0.319548785686, 0.154578909278, -0.127534538507, 0.437600106001, -0.192365467548, -0.046003259718, -0.379245728254, 0.071789115667, 0.018729433417, -0.011209249496, -0.651425063610, -0.784440219402, -0.107638701797, -0.639014840126, -0.132956922054, 0.435424804688, -0.305327773094, 0.123099900782, -0.058598857373, -0.032789751887, -0.200579851866, -0.604739308357, 0.049318127334, 0.160568088293, -0.895817160606, 0.087704673409, -0.019733468071, -1.341783881187, -0.323392450809, 0.114515282214, 0.101164922118, -0.070898115635, 0.006345373578, -0.190340861678, 0.057770729065, 0.019371567294, 0.015411718749, -0.034049876034, 0.175142288208, -0.029923819005, 0.021201390773, 0.196225672960, 0.232560619712, -0.159885883331, 0.080377221107, 0.161242648959, -0.071897037327, 0.054235257208, 0.031009025872, 0.341990947723, 0.284122377634, 0.199415728450, -0.042981948704, 0.085927903652, 0.162653535604, -0.003482518019, 0.033015690744, -0.067559041083, -0.112647518516, 0.072506159544, -0.111170098186, 0.034346219152, -0.081339381635, -0.091100983322, 0.198902994394, -0.036705117673, 0.048045970500, 0.263252288103, -0.219029650092, -0.022701673210, -0.046513874084, 0.250639647245, 0.085822694004, -0.199958801270, 0.397707164288, 0.304396063089, -0.001531878370, 0.051962669939, 0.196869641542, -0.091817803681, -0.048120725900, 0.045132454485, -0.240417301655, 0.022865442559, -0.083037763834, 0.091751500964, 0.260439664125, -0.000360240228, -0.160628661513, -0.228571936488, 0.082211509347, 0.062031384557, -0.227175503969, 0.246100157499, 0.190455526114, -0.047684650868, 0.009964494966, 0.027520479634, -0.207907810807, 0.076697647572, 0.152259901166, 0.138788014650, -0.164924278855, 0.222217008471, -0.442665576935, 0.094902604818, 0.147729307413, -0.182080730796, 0.024386310950, 0.117951825261, 0.183551043272, 0.027532840148, 0.219019666314, -0.008632144891, -0.080189406872, 0.277391761541, -0.040288105607, -0.124695703387, -0.026696646586, 0.442770659924, -0.020783275366, 0.070138245821, -0.322138488293, 0.028591731563, 0.380239814520, 0.013320508413, 0.317336678505, 0.391669541597, -0.000558344298, 0.185694664717, 0.061269607395, 0.112742498517, -0.081303536892, -0.195540398359, -0.006069910247, 0.149690732360, -0.219708248973, 0.216246798635, 0.209905922413, 0.141096785665, 0.294296652079, -0.171384260058, 0.071045689285, 0.025291303173, 0.230531007051, -0.069782637060, 0.071223445237, 0.135233312845, 0.102551922202, -0.151861503720, -0.102733187377, 0.227790698409, 0.026173226535, -0.141038402915, 0.150038957596, 0.077644340694, -0.044608760625, 0.033746853471, 0.124400787055, -0.338134527206, -0.030346844345, 0.005601339508, 0.055911172181, -0.009006001987, 0.244477704167, -0.101307578385, 0.000124065293, 0.038829591125, 0.080291964114, -0.087865456939, 0.066117897630, 0.043290786445, -0.195430904627, 0.165596976876, 0.008971948177, 0.047785218805, -0.333325088024, -0.307040989399, 0.026436774060, 0.041119374335, 0.212836742401, -0.041655346751, -0.039333805442, -0.034480847418, 0.002681306330, 0.062376063317, -0.114771723747, -0.304480969906, 0.143039599061, 0.150018796325, 0.080823346972, 0.556944429874, 0.189964652061, -0.131438374519, -0.015811990947, 0.220800325274, -0.029641756788, -0.058036629111, -0.097293697298, 0.367279618979, -0.166900798678, 0.349424779415, 0.144209966063, 0.015162039548, -0.088556744158, -0.025557419285, 0.298262298107, -0.017742959782, 0.051274765283, -0.228821218014, 0.112073250115, 0.009677889757, 0.153458103538, 0.022585019469, 0.309205681086, -0.001202718238, 0.077040113509, -0.165528923273, -0.042025811970, 0.173969253898, 0.048637855798, -0.039847142994, -0.054088965058, 0.313989639282, 0.182269021869, -0.121622480452, -0.158934801817, -0.164147779346, 0.169974878430, 0.000290883792, -0.024642387405, -0.117418780923, -0.300993323326, 0.145107224584, 0.036703448743, 0.019103804603, 0.021923495457, 0.026280192658, -0.471397310495, -0.139584794641, 0.085735678673, -0.019331937656, 0.135443374515, 0.045408375561, -0.121663644910, 0.382551580667, 0.225532814860, -0.312000334263, -0.102660052478, -0.018541302532, 0.158624917269, 0.245972096920, -0.125044941902, 0.211432799697, -0.107155807316, -0.346205532551, 0.280105173588, 0.101512193680, -0.287621527910, -0.555918812752, -0.136967703700, 0.187157377601, -0.288422167301, -0.178672149777, -0.024080827832, -0.136459231377, -0.450788617134, 0.026349261403, -0.026360809803, -0.119406916201, -0.379821628332, 0.317568093538, -0.528867363930, -0.524442911148, -0.323179483414, -0.502027750015, -0.095821380615, 0.388336062431, -0.030868956819, -0.075099915266, 0.001732655568, 0.210691273212, -0.293669998646, -0.086128845811, -0.099093899131, -0.193965271115, -0.288457095623, -0.676310241222, -0.046816419810, -0.132914990187, -0.113761849701, -0.002822476206, -0.151026830077, -0.009568702430, -0.271898508072, 0.024400707334, -0.210014581680, 0.127624332905, 0.156011670828, -0.141904637218, -0.397869437933, -0.009612925351, 0.196111857891, -0.260504812002, 0.247695878148, -0.336170494556, 0.185707151890, -0.086760692298, 0.067148171365, 0.445472002029, 0.254088431597, 0.081781633198, -0.024071056396, 0.188827902079, 0.369148552418, 0.055927734822, 0.111304052174, -0.126771166921, -0.314590364695, 0.012134236284, 0.198435530066, -0.610041141510, -0.410274595022, 0.186190634966, 0.283748894930, 0.069860495627, -0.178955614567, 0.057116396725, -0.174282386899, 0.210431784391, 0.111650429666, -0.301872551441, -0.049583539367, 0.013226121664, -0.004383405671, 0.216179221869, 0.050856780261, 0.283460497856, 0.067427635193, -0.100044943392, 0.101429834962, -0.182273119688, -0.222166851163, 0.143768474460, 0.153674870729, 0.075866565108, -0.022521756589, -0.036068011075, 0.164718076587, 0.082299046218, 0.258258342743, 0.151296019554, 0.120437026024, 0.323872208595, 0.272175431252, 0.121160835028, -0.083360128105, -0.119827158749, -0.041193176061, 0.092580512166, -0.191015526652, 0.302247613668, 0.198454916477, 0.093670338392, 0.023660540581, 0.192035987973, 0.236109435558, -0.069782249629, 0.263348132372, 0.073256522417, -0.136073827744, 0.280392706394, 0.269313067198, 0.110939756036, 0.107170559466, 0.186859741807, -0.004161283839, 0.252281308174, 0.119825422764, 0.003204121487, 0.237262204289, 0.031486760825, 0.000310217933, 0.086055971682, -0.186973378062, 0.059086557478, -0.004816606175, 0.021843962371, 0.124048233032, 0.324043542147, 0.457180321217, 0.097350545228, -0.095461599529, -0.130459457636, 0.150884956121, 0.107471168041, 0.316640168428, 0.110616758466, -0.028264712542, -0.285204708576, 0.141322761774, -0.052132844925, 0.211085006595, -0.118095032871, 0.008776146919, 0.173251673579, 0.035982798785, 0.125140756369, 0.232057258487, -0.099256977439, 0.152911514044, 0.252487331629, -0.100481130183, 0.013718567789, -0.195276558399, -0.665861666203, -0.174367591739, 0.081286042929, -0.217198014259, -0.102236017585};
