//Numpy array shape (32, 32)
//Min -1.628347158432
//Max 1.217982649803
//Number of zeros 0

weight_default_t w3[1024] = {0.044399444014, 0.149409368634, 0.259078651667, 0.367370843887, 0.117578774691, 0.259043723345, -0.103615790606, 0.112590171397, -0.297430574894, 0.217888221145, -0.353099495173, 0.033222392201, -0.393161743879, 0.069824844599, -0.241952672601, 0.187528952956, 0.247793838382, -0.017729472369, 0.101287454367, 0.124754935503, 0.431572794914, -0.191336393356, 0.428917169571, -0.322818964720, 0.571464002132, -0.326830744743, 0.221671313047, 0.615834295750, 0.040180832148, 0.136912778020, -0.335384577513, -1.011837363243, -0.168359383941, 0.447122186422, -0.022348210216, -0.121670484543, -0.257185727358, 0.101146288216, 0.037506304681, -0.271686524153, 0.210885554552, 0.384222775698, 0.219105020165, -0.091131076217, -0.173929736018, 0.314529001713, -0.099565461278, 0.377521097660, 0.235399842262, 0.242397546768, 0.157543510199, -0.367029905319, -0.364573895931, -0.102075077593, -0.113696791232, 0.018392570317, -0.415400773287, 0.147679671645, 0.095887087286, 0.051760345697, -0.226938977838, 0.292441189289, 0.197803944349, 0.130760625005, -0.720354735851, 0.171139881015, -0.127390220761, 0.126830071211, 0.206467449665, 0.006319678854, 0.244703590870, 0.105652749538, 0.248139113188, 0.580205023289, 0.352598875761, 0.297956407070, 0.173580631614, 0.340905934572, 0.251136958599, 0.025909848511, 0.189525067806, 0.188234522939, -0.529500365257, 0.051697876304, 0.409506350756, 0.352335780859, -0.459508299828, -0.237966671586, 0.308514058590, 0.597795724869, -0.468337476254, -0.130303591490, -0.455194175243, 0.159354209900, -0.280467301607, 0.491895765066, 0.183864146471, 0.242226108909, -0.363638460636, 0.161339759827, -0.155960559845, 0.100009940565, -0.053862091154, -0.170025601983, -0.256504088640, 0.374043583870, 0.279206424952, -0.028587562963, -0.049225606024, 0.029058234766, 0.260657072067, 0.375032484531, -0.052086032927, 0.274763315916, -0.055706959218, 0.284834474325, -0.178468704224, -0.022971658036, 0.103718653321, 0.171513915062, -0.283485442400, 0.118436180055, 0.277365952730, 0.162812337279, 0.323439866304, 0.089411005378, 0.149627208710, -0.032743886113, -0.213917315006, 0.311802148819, -0.326796054840, 0.329158365726, -0.250153988600, -0.050036229193, -0.176908314228, -0.183218374848, 0.002954790369, -0.181177735329, 0.073990397155, 0.408359169960, -0.381606131792, 0.028595240787, 0.299348205328, 0.044871497899, 0.438678711653, -0.068285070360, -0.517695188522, 0.296792060137, -0.167228102684, 0.052549149841, 0.267043143511, 0.321493715048, -0.261675149202, 0.305295646191, -0.013950069435, -0.090035125613, -0.173886150122, 0.313765406609, -0.013006196357, -0.367403388023, 0.413991421461, -0.316490054131, -0.163654237986, -0.289434432983, 0.462101966143, 0.086928308010, -0.133906453848, -0.238709047437, 0.090606465936, 0.036595389247, -0.119221135974, 0.034895136952, 0.023356070742, 0.265685170889, -0.007362096570, -0.104039065540, 0.297890931368, 0.172495812178, -0.029533227906, 0.069008558989, 0.355029344559, 0.002147291321, -0.111671537161, 0.039761222899, 0.255230098963, 0.002582581248, 0.106751278043, 0.317517757416, -0.038146376610, 0.141654878855, 0.100654870272, 0.095870085061, -0.054235402495, 0.305562168360, 0.004818567075, 0.117135129869, -0.471395641565, -0.100037217140, 0.167504429817, -0.298649758101, 0.545314550400, 0.338742256165, 0.426571249962, 0.524409592152, 0.334650486708, 0.249056532979, -0.605179786682, 0.085958942771, 0.147944509983, 0.023535996675, 0.085360310972, 0.136822298169, -0.292389154434, 0.315390139818, 0.683967530727, -0.192264929414, 0.093615308404, 0.161902740598, -0.488706678152, 0.351362615824, -0.199699684978, 0.328455179930, -0.406320065260, -0.204087913036, 0.061781641096, 0.131338968873, -0.068785101175, -0.103453367949, 0.028624534607, 0.029153123498, -0.281619101763, -0.147759184241, 0.373795092106, -0.009992876090, -0.150920718908, 0.110913895071, -0.605928719044, 0.008371690288, 0.000658942095, -0.175982430577, -0.320477277040, 0.116312459111, -0.053521290421, 0.274352043867, 0.137371510267, 0.391732454300, 0.034122828394, 0.241831004620, -0.541981518269, 0.079738818109, 0.306460618973, 0.070741869509, 0.173079401255, 0.203539788723, 0.255486249924, 0.015251690522, 0.240208208561, 0.991781115532, -0.587539136410, 0.102024801075, 0.428188771009, -0.404237926006, -0.847572684288, -0.149926289916, -0.075518921018, -0.816670715809, 0.128474652767, 0.344161510468, -0.502748370171, 0.069807693362, -0.194149434566, -0.031866651028, -0.226907789707, 0.141993209720, 0.220476925373, 0.415211915970, 0.477089107037, -0.386056065559, -0.007403595839, 1.045807123184, 0.147177040577, -0.074353031814, 0.240841746330, -0.041424710304, -0.271520674229, -0.434107214212, -0.041476123035, 0.188532620668, -0.245874822140, 0.227056697011, -0.041867699474, 0.213127523661, 0.009618102573, 0.016161287203, 0.278725177050, 0.086036264896, 0.248434081674, 0.309318482876, 0.016012920067, 0.400713771582, 0.129793137312, 0.156967714429, 0.088214650750, 0.074615657330, 0.174991771579, 0.397403091192, -0.456824272871, -0.094590596855, -0.117422737181, 0.326616853476, -0.229273021221, -0.067119404674, -0.088766627014, -0.132619351149, -0.238331764936, 0.003715231549, -0.702332973480, 0.015299120918, 0.157246649265, 0.087158791721, 0.367648661137, -0.282728165388, -0.008114528842, 0.268862813711, 0.371283233166, 0.056939110160, -0.046303726733, -0.195266261697, -0.268544614315, -0.161785990000, -0.378164529800, -0.407315075397, 0.328691452742, -0.323098987341, 0.756456911564, -0.185411751270, 0.325774848461, 0.246026307344, 0.049683786929, 0.347483783960, -0.277735203505, -0.880503237247, 0.312813788652, -0.008843076415, 0.290480643511, 0.088526256382, 0.309322208166, 0.249734863639, -0.014498546720, 0.194249957800, 0.345244795084, 0.219256848097, 0.051720511168, 0.345265179873, 0.037729728967, 0.255635172129, 0.209401950240, 0.015214589424, -0.086958825588, -0.142266750336, -0.220660656691, -0.676810860634, -0.131507635117, -0.205556765199, -0.157458096743, -0.508851587772, -0.010038309731, -0.284428656101, 0.199483558536, 0.268880605698, -0.115104988217, 0.245525777340, -0.035930000246, -0.165319994092, 0.125298425555, 0.284222751856, 0.221691235900, -0.297272384167, -0.314850896597, -0.693052828312, 0.327984541655, -0.661819040775, -0.020946810022, -0.214178994298, -0.446101129055, 0.592265486717, -0.128971219063, -0.020021043718, -0.056885197759, -0.233662247658, -0.045352414250, 0.113265410066, 0.227483019233, 0.117155134678, 0.228537589312, 0.203943803906, 0.483587026596, 0.129015013576, -0.624526619911, 0.202302634716, -0.837272524834, -0.229139819741, 0.595916032791, -0.710946142673, -0.265462458134, 0.290240287781, -0.658148825169, 0.192934408784, -0.169754073024, 0.686412811279, -0.182641640306, 0.129317507148, 0.683740854263, 0.033249743283, -0.315856724977, 0.549414336681, -0.312291562557, 0.262396067381, -0.035792425275, 0.222001761198, -0.714335799217, -0.044379539788, 0.561884164810, -0.292046695948, -0.430505543947, 0.029245369136, 0.011804314330, -0.747180342674, -0.443083584309, -0.708958327770, -0.634285390377, 0.030003096908, 0.477703064680, 0.024895310402, -0.028682999313, 0.429033219814, 0.227526679635, 0.063230775297, 0.161003530025, -1.029200911522, 0.774347066879, -0.212894544005, 0.468032151461, -0.440582126379, -0.234777569771, -0.370815962553, -0.486167043447, -0.561999022961, -0.257073670626, 0.036623653024, -0.057482626289, -0.337597012520, 0.275905072689, -0.309844911098, 0.249190449715, -0.249013125896, -0.174865514040, 0.097010970116, 0.236475989223, 0.074408583343, 0.743188738823, 0.323665678501, -0.424377411604, 0.076049894094, -0.395182222128, 0.186992049217, 0.334437012672, -0.197099059820, -0.124520368874, -0.495382875204, -0.432051569223, -0.584750056267, 0.138851553202, 0.168001860380, -0.004119454883, 0.079984396696, -0.048472598195, 0.117120541632, 0.169845655560, 0.261785328388, 0.304921954870, -0.319736570120, 0.328331738710, -0.998868286610, 0.122716002166, 0.087595812976, 0.015316021629, -0.164759755135, -0.143212586641, 0.009565113112, 0.041590407491, -0.750522732735, -0.008350889198, -0.671244025230, 0.407178699970, 0.259909778833, 0.081947796047, 0.059169117361, 0.010025272146, 0.001969380304, -0.274010151625, -1.078426122665, -0.224564760923, 0.345289409161, 0.108951419592, 0.122451514006, 0.373365253210, 0.214368328452, 0.391979008913, -0.164472952485, 0.126076474786, -0.079596132040, -0.187011048198, -0.385992705822, -0.277866274118, 0.316332548857, 0.124989248812, 0.420466512442, 0.439849019051, -0.035450626165, -0.118462704122, 0.199535176158, 0.080355763435, 0.186715826392, 0.119374439120, -0.138931512833, 0.261511832476, 0.001515761716, 0.300180584192, 0.101920008659, -0.199869766831, 0.321048468351, 0.112867459655, 0.476587742567, 0.361446917057, -0.221435233951, 0.074578836560, -0.327728778124, -0.068134553730, 0.371280074120, -0.242631390691, 0.034007117152, -0.387495130301, -0.395754814148, 0.053091656417, -1.306665301323, -0.474885940552, 0.104125857353, -0.168752089143, -0.083977848291, -0.138492554426, -0.276679158211, -0.898831963539, -0.094033665955, 0.180275395513, -1.628347158432, 0.258405208588, -0.180560365319, -0.373762041330, 0.291978657246, -0.020247504115, -0.296092152596, 0.493441522121, -0.335649847984, -0.201802611351, -0.105754949152, -0.015315597877, 0.203072592616, 0.340922355652, -0.828830659389, -0.286700159311, -0.056472398341, 0.121645368636, 0.136191606522, -0.034061487764, 0.198605522513, 0.015244675800, -0.014314805157, 0.163262948394, -0.328357517719, -0.130516901612, 0.082120582461, 0.313953965902, -0.030616994947, 0.137109011412, 0.282156974077, 0.011088389903, 0.205203294754, -0.124908134341, 0.239010319114, -0.212480008602, 0.387493342161, -0.170932099223, -0.139968529344, 0.256724506617, -0.095946766436, -0.317039787769, 0.031748600304, -0.568280100822, -0.146860823035, 0.128684371710, 0.493911474943, 0.208190217614, 0.342296332121, 0.228875279427, 0.587418794632, 0.207496166229, 0.140671283007, 0.015996553004, 0.427750915289, -0.578252017498, -0.101823560894, 0.593536078930, 0.150196924806, 0.007060602307, 0.143866688013, -0.097765550017, -0.183303445578, 0.108305260539, -0.176327601075, -0.070279106498, -0.067732170224, 0.324671685696, 0.079825140536, 0.334705650806, 0.448776572943, -0.395855516195, 0.179215848446, 0.264650374651, -0.138288840652, 0.460162341595, -0.152023792267, 0.121214561164, 0.330644488335, -0.316803574562, -0.163215175271, 0.066339239478, -0.168992295861, 0.249202355742, -0.301422536373, -0.044739939272, 0.001008309075, -0.164291858673, 0.190201789141, 0.159622862935, 0.068974286318, 0.307577997446, 0.117677174509, 0.122280523181, 0.280902028084, 0.234186008573, -0.144956618547, 0.037210892886, 0.392544329166, 0.132264301181, 0.354853481054, 0.150919705629, -0.284262895584, -0.433726757765, 0.101838305593, 0.170550927520, 0.237016871572, -0.007921748795, 0.105317272246, -0.060721129179, 0.187719047070, 0.039742082357, -0.046105731279, -0.612202644348, 0.302770107985, -0.200983747840, -0.193706795573, 0.152985036373, -0.299497902393, 0.228162050247, -0.190311759710, 0.090489074588, 0.213468775153, 0.152232006192, 0.063909098506, -0.178906068206, -0.075893238187, -0.142336174846, -0.486944913864, -0.221999004483, 0.020883550867, 0.361365437508, 0.073253557086, 0.244972482324, -0.133887082338, 0.002706040395, 0.252438724041, 0.209306150675, -0.054017260671, 0.065625011921, 0.139292567968, 0.104436747730, -0.324604958296, 0.125817075372, 0.156503677368, 0.267920881510, -0.242868766189, -0.078059613705, -0.279553085566, 0.410395503044, -0.300551801920, 0.140976130962, -0.316473126411, 0.265269190073, -0.133959025145, -0.192769244313, -0.161116451025, -0.080056309700, -0.081359252334, -0.378791242838, -0.032323282212, 0.273625999689, 0.000998762902, -0.241712406278, 0.220831021667, -0.151581853628, -0.133399859071, 0.330892860889, 0.359666913748, 0.225353643298, 0.098958134651, -0.221653208137, 0.174449965358, -0.415581732988, -0.386325001717, 0.345869570971, 0.385258048773, 0.010807438754, 0.536804318428, 0.116980046034, 0.018492620438, 0.081766948104, -0.824493229389, -0.284257203341, -0.136256873608, 0.089976631105, -0.233460262418, -0.159128546715, -0.077402129769, -0.025698319077, -0.337237209082, 0.192276746035, -0.419896811247, 0.043441969901, 0.303461283445, -0.912580549717, 0.051119994372, -0.895956337452, -0.436616629362, 1.217982649803, -0.393633633852, 0.178473532200, -0.318395197392, -0.239798069000, -0.006623218767, -0.587888360023, -0.353203386068, -0.043609522283, -0.276116400957, 0.953452587128, -0.015368317254, 0.377926975489, 0.382541716099, 0.053612690419, -0.136576220393, -0.290899008512, 0.035367108881, 0.593694508076, 0.325995743275, -0.008484595455, -0.056122746319, 0.150596499443, 0.258760213852, -0.009990453720, 0.036948341876, 0.087319277227, 0.319176852703, -0.092540882528, 0.088290698826, -0.150953575969, 0.303944230080, 0.134957358241, -0.282334923744, 0.413513720036, 0.029621394351, 0.069575466216, -0.209725573659, -0.145060583949, 0.255693703890, -0.053873851895, -0.089481174946, 0.046467918903, -0.236484855413, 0.321313112974, 0.216891065240, 0.079461112618, -0.264272689819, -0.163170039654, -1.543874263763, -0.080604344606, -0.062686972320, -0.242151826620, -0.252558022738, -1.529931187630, 0.253419369459, -0.059097986668, -1.241400718689, 0.369497597218, -0.572197973728, -0.553339600563, -0.422174602747, -0.064634047449, -0.163103044033, 0.365633219481, 0.009938086383, -0.128910660744, -0.042501043528, 0.054230425507, 0.095820970833, 0.524182796478, -0.187937557697, 0.108755357563, 0.189372867346, 0.292262047529, -0.293897509575, -0.265424847603, -0.108800530434, 0.039934728295, 0.237182512879, 0.039233278483, -0.216371327639, 0.161501869559, 0.426060765982, 0.429253607988, 0.036076173186, -0.581211268902, 0.063542962074, 0.286720544100, -0.759365975857, 0.202288016677, -1.145059585571, -0.937156081200, -0.195412576199, -0.118547089398, 0.174849510193, 0.086201012135, 0.071943379939, 0.097037196159, -0.485134631395, 0.438564926386, -0.047910500318, 0.306232929230, 0.036505497992, -0.212713807821, 0.350231558084, 0.131897404790, 0.188768282533, -0.012749739923, 0.252913117409, -0.101202093065, -0.004724415485, -0.485857695341, 0.343177348375, 0.705030500889, 0.086407855153, 0.136519506574, 0.196118161082, 0.048998974264, 0.028724517673, 0.054694220424, -0.053642872721, 0.342607259750, -0.134256958961, 0.299481898546, 0.576043725014, -0.395170390606, 0.373509705067, 0.271249771118, -0.051420461386, 0.249130532146, -0.710295319557, 0.060458943248, 0.189088776708, -0.200202509761, 0.768206596375, -0.007012396585, 0.540288686752, 0.523493051529, 0.658343076706, 0.653773009777, -0.053726051003, 0.190617188811, 0.241269484162, -0.175858587027, -0.013191008009, 0.241352483630, -0.458792686462, -0.080224663019, -0.295730084181, -0.058395210654, -0.767078697681, 0.131606757641, -0.099867463112, -0.027205109596, -0.313895314932, -0.620060145855, 0.417897880077, -0.094223856926, 0.143175035715, -0.255099773407, -0.079951152205, 0.280059039593, -0.760647356510, -0.102454796433, -0.178309053183, -0.159170478582, 0.295160412788, -0.158519044518, -0.228945061564, 0.064784340560, -0.246892675757, -0.073287494481, 0.307891428471, 0.412947326899, -0.022004650906, 0.100969038904, 0.495927661657, 0.224955558777, -0.332536637783, -0.382682383060, 0.035138312727, 0.255732059479, -0.599783718586, -0.248331904411, 0.762236475945, -0.085602506995, -0.400289714336, -0.353885352612, -0.301563590765, -0.162890046835, -0.031108716503, 0.123890750110, 0.135189235210, -0.335809886456, -0.016255877912, -0.113314196467, 1.112776160240, -0.521207094193, -0.424284398556, 0.216877907515, -0.321694195271, -0.005355565809, -0.786732375622, 0.032713014632, -0.074482738972, 0.400707751513, 0.110555306077, -0.208236739039, 0.196215391159, 0.235081747174, -0.324715673923, -0.753248929977, -0.002159605036, 0.176471844316, -0.634834289551, 0.166483253241, -0.038497533649, -0.281376212835, -0.113468743861, -0.145596101880, -0.060246650130, 0.073587507010, 0.220600396395, -0.179214999080, 0.171082854271, 0.020464248955, -0.225239112973, -0.261457502842, 0.214738890529, -0.259748250246, -0.285010397434, 0.267235159874, -0.313772797585, -0.078091137111, -0.017247747630, -0.057740248740, -0.225140795112, 0.316516727209, 0.296359598637, -0.644803822041, 0.211917877197, 0.093018062413, -0.158673480153, -0.158717542887, 0.022552020848, 0.150012791157, 0.214312300086, 0.455557942390, 0.270414084196, 0.019599284977, -0.244090989232, -0.726828575134, 0.541288197041, 0.059378474951, -0.022712422535, 0.079376176000, 0.276777029037, -0.464213579893, -0.133258119226, 0.031519979239, -0.453002691269, 0.426750093699, 0.417065769434, 0.349040985107, 0.135136142373, -0.039700884372, 0.435724377632, 0.038635049015, -0.233521670103};
