//Numpy array shape (32, 5)
//Min -1.684935569763
//Max 1.619768500328
//Number of zeros 0

weight_default_t w4[160] = {0.301979690790, 0.313740223646, 0.006525774952, -0.566978752613, 0.141734659672, -0.528596818447, -0.615311861038, 0.288272649050, 0.108245544136, -0.184506729245, 0.696744322777, -0.342636376619, 0.281021326780, 0.270680159330, -0.700069069862, 0.017542727292, 0.175012588501, 0.107776030898, -0.770707547665, 0.607326328754, 0.354800909758, -0.031755488366, -0.180176943541, -0.078647240996, 0.417587012053, 0.174757122993, -0.192174270749, -0.247826278210, 0.256593585014, -0.275441288948, -0.290506720543, -0.651522159576, 0.627023220062, 0.583532989025, -0.252897709608, -0.199159815907, 0.301505327225, 0.045825596899, 0.018120050430, 0.281983852386, 0.340712666512, 0.204057842493, 0.280222237110, -1.043877482414, -0.072500668466, -0.401261210442, -0.285253047943, 0.287310212851, 0.535463690758, -0.462025791407, -0.441455602646, -0.063838087022, 0.249806791544, 0.093499794602, 0.335236668587, -0.422008335590, -0.408276945353, 0.896125912666, -0.754056274891, 0.288051605225, -0.315680265427, 0.333640366793, -1.367416143417, 0.302895426750, 0.295502096415, -0.136014521122, 0.219026967883, 0.447719186544, -0.676414847374, 0.354451656342, 1.619768500328, -0.608231604099, -1.019463419914, -0.637870311737, -0.686660289764, -0.285087794065, 0.073055066168, -0.232970178127, 0.386731117964, 0.391776293516, -0.045925311744, 0.012123332359, 0.150846391916, 0.057659227401, -0.807738423347, 0.265541404486, -0.197304636240, -0.060100909323, 0.076679095626, 0.149648249149, 1.284590363503, 0.283967673779, -1.237918734550, -1.684935569763, -0.291899710894, 0.222868159413, 0.384884983301, -0.157312735915, 0.020130939782, -0.196595713496, 0.402105331421, -0.340263009071, -0.269903659821, -0.176693603396, 0.187567695975, -0.023476053029, 0.098567195237, 0.589735627174, -0.093923822045, -0.268620848656, 0.578717708588, -0.436449885368, 0.327438831329, -0.012680588290, -0.252594351768, 0.345438271761, 0.389027208090, -0.537141442299, -0.014437772334, -0.167006999254, 0.061754766852, 0.402991056442, -0.655584752560, 0.215759351850, -0.142749875784, -0.427604198456, -0.568158626556, -0.011811060831, 0.175171837211, 0.594342052937, -0.014946702868, 0.273022532463, -0.718815386295, -0.306871145964, -0.241916701198, 0.306950509548, 0.227305173874, 0.111614003778, 0.151058420539, -0.887615978718, -0.475573658943, -0.002095805248, 0.839851975441, -0.557470262051, 0.119790315628, -0.249690562487, 0.349140882492, 0.142726257443, 0.301332503557, -0.757062852383, 0.003800384933, 0.061308536679, 0.082776956260, -0.298214793205, 0.353484034538, 0.077871784568, -0.847705423832, -0.885314643383, -0.363986045122, 0.768945395947};
