//Numpy array shape (3, 3, 3, 10)
//Min -0.224901705980
//Max 0.226165696979
//Number of zeros 0

weight_default_t w1[270] = {0.219621464610, 0.220003738999, 0.226165696979, 0.020008429885, 0.042406275868, 0.078899994493, -0.039380997419, -0.198970869184, 0.219521358609, 0.115831628442, -0.042237892747, -0.164643660188, -0.170398801565, -0.170000448823, 0.184791490436, -0.211437106133, 0.172488585114, -0.125433161855, 0.035398826003, -0.134965837002, -0.184910550714, -0.102874569595, 0.075702264905, -0.105362862349, 0.102086737752, 0.140437588096, 0.121098712087, -0.116890892386, -0.009264722466, -0.027319803834, -0.034563750029, -0.216547921300, -0.017984300852, -0.017837449908, 0.190466716886, -0.028725415468, 0.182953789830, 0.183653786778, -0.091906696558, 0.204857423902, -0.129827231169, 0.069165274501, 0.156036183238, 0.198687002063, 0.174610599875, -0.147910282016, 0.140679255128, -0.215667217970, 0.189564570785, -0.135725349188, -0.217444986105, 0.066318288445, -0.024743393064, 0.099335834384, -0.051020696759, -0.125421553850, -0.201688736677, -0.162411332130, -0.211922273040, -0.195038154721, 0.137634292245, -0.010419219732, -0.163423180580, 0.162178054452, -0.185257002711, 0.081696197391, 0.022434353828, 0.108818665147, -0.162120610476, -0.085390821099, 0.150195404887, -0.095745906234, 0.186025187373, 0.161342754960, -0.200746864080, -0.146737486124, 0.062337413430, -0.011258020997, 0.023071616888, -0.130982637405, 0.137885466218, 0.113341942430, -0.049634039402, -0.186031132936, -0.032125607133, 0.031192854047, 0.195081844926, 0.183126524091, 0.060661092401, 0.134159550071, 0.119461253285, -0.029214411974, 0.152317538857, -0.043847858906, -0.209480419755, 0.161879643798, 0.149739786983, 0.114266440272, 0.155919775367, -0.015880748630, -0.143226504326, 0.132035687566, 0.174351230264, -0.005899727345, -0.021106332541, -0.112656474113, -0.156917631626, -0.105186037719, 0.119829520583, -0.221642419696, -0.084041208029, -0.124664761126, -0.042465895414, -0.073187366128, -0.076591283083, 0.201400920749, -0.137158587575, 0.003964468837, -0.161053240299, 0.092918649316, -0.161764949560, 0.140766546130, -0.046786755323, 0.108949497342, -0.035517767072, -0.205715343356, -0.168762966990, -0.024100527167, -0.164503559470, -0.063420951366, -0.076768815517, -0.033106744289, -0.210939854383, -0.091972783208, 0.214573845267, -0.122789703310, 0.038692608476, 0.084343239665, -0.125733464956, 0.006594210863, -0.090829133987, -0.021712124348, 0.153096094728, 0.084476158023, -0.102421961725, 0.045670762658, 0.148822471499, -0.200292363763, 0.221440121531, -0.117912515998, -0.160949051380, -0.199878036976, -0.163001686335, 0.018206417561, 0.041702076793, -0.106597155333, 0.040289416909, -0.097587049007, -0.070684000850, 0.148805722594, -0.066146150231, 0.021741226315, 0.024797126651, 0.126661732793, -0.088803395629, -0.068682551384, 0.218398019671, 0.162327542901, 0.208102986217, -0.201966032386, 0.032559975982, 0.057886585593, 0.064036235213, -0.006139606237, 0.019608512521, 0.009058699012, -0.202375441790, 0.043589070439, 0.038696840405, -0.058391615748, -0.210259884596, 0.015037402511, -0.052992179990, 0.114671632648, -0.011699408293, -0.082712695003, 0.190374985337, -0.204733073711, -0.204643025994, -0.136690914631, -0.011777848005, 0.027546033263, 0.214257940650, -0.224901705980, 0.054806873202, 0.137745842338, -0.057826921344, 0.078111514449, -0.192207068205, 0.218683168292, 0.215565696359, 0.143722400069, 0.056418463588, 0.038011685014, -0.049120530486, -0.194937348366, 0.182902827859, 0.163261696696, -0.127589404583, -0.062548726797, -0.149171084166, -0.161788761616, -0.184801906347, 0.077816411853, -0.033065497875, 0.183175906539, 0.060368463397, 0.047333791852, 0.018864199519, 0.144319072366, -0.142757356167, -0.130611404777, 0.125490978360, -0.080304265022, 0.188159450889, 0.145886525512, -0.037640482187, 0.176573976874, -0.000302836299, 0.132627204061, 0.045189902186, -0.063748076558, -0.123270280659, -0.211171254516, 0.193972751498, 0.206729337573, 0.057394251227, -0.089902862906, 0.089155420661, 0.066625967622, -0.006253793836, -0.073427453637, 0.164441898465, 0.118956908584, -0.084358140826, 0.078215554357, -0.105849049985, 0.160055592656, -0.214893519878, 0.116946890950, 0.124495998025, 0.171562150121, -0.088384687901, 0.195959076285, -0.188072115183, -0.009618148208, 0.175248607993, -0.135982185602, -0.139782935381, 0.016516447067, -0.163897603750, 0.008898556232, -0.087541297078, 0.017293110490, 0.102504447103, 0.161551520228, -0.139515042305, -0.133754447103, 0.069189086556, -0.053523615003};
