//Numpy array shape (3, 3, 10, 16)
//Min -0.159644201398
//Max 0.160017400980
//Number of zeros 0

weight_default_t w3[1440] = {-0.003908425570, -0.032939568162, 0.067838832736, 0.138296276331, -0.015986919403, -0.154746264219, 0.067888155580, 0.021936878562, 0.146990269423, -0.102597974241, 0.154479086399, -0.114686205983, 0.025587454438, 0.008634418249, 0.059503763914, -0.005920842290, -0.000768929720, -0.025210410357, -0.127784073353, -0.045331574976, 0.093266278505, -0.041841574013, 0.042744010687, -0.061531059444, -0.089870087802, -0.033787682652, -0.044639870524, -0.097897976637, 0.083601564169, 0.103146016598, 0.061851367354, 0.006323724985, 0.103523135185, 0.101300597191, 0.136326134205, -0.137784063816, 0.153719335794, 0.134782731533, 0.047451987863, -0.151740014553, -0.140567660332, -0.093570902944, -0.064490392804, 0.103052169085, 0.087521284819, 0.082685723901, -0.152550905943, -0.148948892951, 0.095919281244, 0.129233211279, -0.079895325005, -0.074876323342, -0.113833501935, -0.020249545574, 0.140962392092, 0.145475149155, 0.004010885954, 0.019357725978, 0.138971865177, 0.160017400980, 0.121818035841, 0.134188532829, 0.006660491228, -0.009975746274, 0.032482355833, -0.157379403710, 0.122523754835, 0.034519582987, -0.089152120054, -0.090784929693, -0.067813135684, -0.027953043580, -0.122429057956, -0.146938428283, -0.137926161289, 0.106577098370, 0.011841401458, -0.034940943122, 0.122918576002, 0.110563874245, -0.128413811326, -0.119805693626, -0.153347358108, -0.154261142015, -0.067659355700, -0.030151203275, -0.072630606592, -0.101007193327, -0.154358565807, 0.139096528292, -0.113223239779, -0.046679854393, 0.129196256399, -0.045736216009, 0.130413889885, 0.083613663912, -0.050358176231, -0.083708688617, -0.094755165279, -0.124780759215, -0.139740660787, 0.076426982880, 0.093234717846, 0.053558409214, 0.113715738058, 0.009306415915, -0.097008593380, -0.002107784152, -0.015369504690, 0.104790657759, 0.128932982683, -0.138003200293, -0.100449152291, 0.059065327048, 0.016335546970, -0.047800436616, -0.021907985210, -0.079292431474, 0.135282635689, 0.149077117443, 0.145267874002, -0.043119147420, 0.068596959114, 0.017480418086, -0.059929512441, -0.089696682990, -0.060798399150, 0.016827121377, -0.127268746495, 0.081182897091, 0.098652243614, 0.078587323427, 0.099712103605, 0.151019334793, -0.102376848459, -0.016729310155, -0.043302975595, -0.121706895530, 0.070306658745, -0.124930679798, 0.116940081120, 0.000785991549, 0.126327216625, -0.018680065870, 0.102481603622, 0.137980014086, 0.147326797247, -0.112440064549, 0.151269018650, -0.001998320222, -0.043518103659, -0.026785388589, -0.066943295300, 0.064319431782, 0.135427474976, 0.109900534153, -0.116551212966, -0.012429878116, -0.112364090979, -0.047844834626, 0.031295225024, 0.137128323317, -0.031368568540, -0.156994655728, 0.051492467523, 0.009923368692, 0.104586094618, -0.008906096220, 0.146410465240, -0.069255061448, -0.033183827996, 0.077895894647, -0.052074834704, 0.053605824709, 0.012553498149, -0.037059538066, 0.116585373878, 0.118944585323, -0.091111883521, -0.060672521591, -0.031227648258, 0.152224928141, -0.151104658842, 0.068612918258, -0.112810239196, -0.063049569726, -0.085921764374, 0.075386673212, -0.119789808989, -0.090246513486, -0.054702132940, 0.108978152275, 0.147927016020, -0.094603523612, -0.156908556819, -0.040671736002, -0.146720692515, -0.012137666345, -0.135351777077, -0.018284395337, -0.125291198492, -0.006547257304, 0.140564024448, -0.097522504628, 0.046681419015, 0.048713564873, 0.093723088503, 0.039157778025, -0.142244338989, -0.042392402887, -0.112481415272, 0.137417227030, 0.112291783094, -0.127304017544, 0.048452734947, -0.064086779952, 0.082896232605, -0.127003416419, -0.068100571632, 0.025345146656, -0.112125441432, -0.130598366261, 0.134660750628, -0.060368329287, 0.050868198276, -0.008891895413, -0.056191548705, -0.154175430536, -0.004379078746, -0.068300470710, -0.055222488940, 0.143124222755, -0.098462820053, 0.113026767969, 0.112782716751, 0.055226534605, -0.151606842875, -0.050385400653, -0.138536959887, -0.067738801241, 0.033192038536, 0.049370378256, -0.014165505767, -0.019089758396, -0.038387387991, 0.011448025703, 0.068711295724, -0.000027984381, -0.001865118742, 0.086882427335, -0.091419331729, 0.000724032521, -0.155912816525, 0.141638040543, -0.034561842680, 0.096421301365, -0.054206743836, 0.123199105263, -0.119420140982, 0.059286370873, -0.099040254951, -0.018998086452, 0.071631729603, 0.053011670709, -0.147125422955, 0.103341341019, -0.066436722875, -0.013149484992, 0.085973158479, 0.094687283039, 0.004530221224, 0.035695716739, 0.060297086835, 0.049332424998, -0.090163439512, 0.029382765293, 0.131679326296, -0.086331523955, 0.015108227730, -0.087031088769, -0.003830879927, 0.060841962695, 0.156093925238, 0.084676608443, -0.092322878540, 0.107809692621, 0.117158621550, 0.156043231487, 0.052882552147, -0.083285495639, 0.110747933388, -0.102534145117, 0.061428785324, -0.007259875536, 0.014361962676, -0.046437956393, 0.033073723316, -0.149013862014, -0.123970896006, 0.044932544231, 0.012178897858, -0.109654635191, 0.049048498273, 0.127209126949, 0.025795325637, -0.059474475682, 0.025581151247, -0.050338022411, 0.045261904597, 0.113992631435, -0.103545121849, 0.136398285627, 0.028053492308, -0.096837788820, -0.105022057891, 0.096890926361, 0.020171478391, -0.143548756838, 0.131001412868, 0.082764372230, -0.065992638469, -0.123890995979, -0.065039537847, -0.017745330930, 0.023090183735, -0.158646479249, -0.096340715885, 0.141436308622, 0.032111003995, 0.029217332602, 0.126497894526, 0.051474675536, -0.053165026009, 0.138891071081, 0.156849741936, 0.013867571950, -0.021283328533, 0.082608640194, -0.149218693376, -0.136214122176, -0.074698373675, -0.073881983757, -0.149705991149, -0.030362322927, 0.063128367066, -0.107005342841, -0.009674370289, -0.050654090941, 0.026095941663, -0.147879123688, -0.009608864784, -0.030651777983, 0.111968457699, -0.063429400325, -0.068528465927, -0.104891225696, -0.122226908803, 0.086719900370, 0.049862176180, -0.085373267531, 0.010291099548, -0.003149762750, -0.075808197260, -0.053562231362, 0.089453116059, -0.021783366799, -0.098806984723, 0.027047216892, 0.020655497909, -0.024185925722, 0.067349657416, 0.036369711161, 0.010448843241, -0.003703147173, 0.048185303807, -0.130349680781, -0.026562854648, -0.027795493603, 0.064133465290, 0.075770929456, -0.029924884439, 0.146789044142, -0.105339691043, 0.155391603708, -0.020327821374, -0.060719594359, 0.046061679721, 0.119031250477, 0.048395812511, -0.105664923787, 0.087130010128, -0.109714686871, 0.119640916586, -0.016852244735, -0.082000091672, 0.104174971581, -0.126188516617, -0.080463260412, 0.041237488389, 0.026274427772, -0.129926249385, -0.031542316079, 0.020891010761, -0.024951830506, -0.139220148325, 0.067315682769, -0.084079816937, 0.034576818347, -0.043387383223, -0.078597597778, -0.036987148225, 0.050785496831, -0.086390927434, -0.040755651891, -0.093405969441, 0.123604774475, 0.154691249132, 0.067843988538, -0.155100628734, -0.086285293102, 0.156080365181, 0.045978337526, -0.075993433595, 0.042365327477, -0.080052196980, 0.152547210455, 0.009994000196, -0.129486635327, -0.024986043572, -0.043514549732, 0.105144530535, 0.107841849327, -0.121833756566, -0.063370794058, -0.018567264080, -0.156670108438, -0.000754967332, -0.084191940725, -0.039191327989, -0.037405386567, -0.068601615727, 0.036493480206, -0.015053436160, -0.109971046448, 0.082472383976, 0.017846539617, 0.119484454393, 0.075189068913, -0.055048055947, 0.011543855071, -0.063308797777, -0.073686324060, -0.070290818810, -0.006317466497, 0.078836664557, 0.091746062040, 0.087234646082, 0.036149606109, -0.063418328762, -0.109016455710, -0.043104752898, -0.058386839926, -0.147135496140, -0.115363359451, 0.019737482071, -0.109620921314, -0.042859502137, 0.063898220658, 0.106065630913, 0.052455887198, 0.037488684058, -0.100977607071, -0.057094715536, -0.108537942171, 0.082210794091, -0.108095124364, -0.092697896063, -0.098845854402, -0.025929525495, 0.122464835644, 0.068613022566, -0.096393175423, -0.002521738410, -0.151302069426, -0.084976606071, 0.135821729898, 0.072052136064, 0.037447422743, 0.011006355286, -0.044228889048, -0.080099731684, -0.159644201398, -0.102654635906, -0.027185603976, 0.024484500289, -0.117204234004, -0.018929600716, 0.005354970694, 0.114637196064, -0.016842663288, 0.154629349709, -0.096165746450, -0.092688463628, -0.127197176218, 0.126665234566, 0.075123399496, 0.030490398407, -0.104349374771, 0.001272112131, -0.087810367346, 0.079371571541, 0.034108266234, 0.134189695120, -0.157983526587, -0.016493842006, 0.015183657408, -0.013006821275, 0.138322442770, 0.010573685169, 0.081863537431, 0.026629775763, 0.138480812311, 0.153366684914, -0.055910065770, -0.124049812555, -0.129346296191, -0.152262732387, -0.032825917006, -0.118364758790, -0.063472539186, -0.003859639168, 0.084986984730, -0.029490724206, 0.006115689874, -0.048412419856, -0.023307651281, 0.003616333008, -0.043386735022, 0.091248422861, 0.068270385265, -0.052497722208, -0.010504692793, -0.027310863137, -0.120758831501, -0.051838435233, -0.124923847616, 0.054593205452, 0.009594857693, -0.000211462379, -0.119864866138, 0.050324350595, -0.009259581566, -0.139768645167, 0.133349388838, -0.070439748466, -0.005701959133, 0.068639367819, 0.026707619429, -0.077760368586, 0.019823789597, 0.030900463462, -0.011106878519, 0.036697834730, 0.115986227989, -0.036346264184, -0.084181673825, 0.070621550083, -0.077032014728, 0.143764734268, 0.104032158852, -0.044833436608, 0.054518610239, 0.121294379234, 0.033103764057, 0.105715692043, 0.017177283764, -0.012468889356, -0.134288713336, -0.075981944799, 0.066038876772, -0.130618363619, 0.092275917530, 0.064806610346, -0.154682084918, -0.005138576031, -0.099969953299, -0.019935995340, 0.077958703041, -0.103714592755, 0.108707100153, -0.047155618668, 0.114984035492, 0.102874964476, -0.149250984192, 0.069476068020, 0.147938191891, 0.100805997849, -0.145300835371, 0.151202589273, -0.022820770741, 0.058247178793, -0.095322445035, 0.083731561899, -0.015942588449, -0.127342730761, 0.097373336554, -0.132514417171, 0.043642595410, -0.136083826423, 0.043224245310, 0.026883319020, -0.059996590018, 0.155864894390, -0.088816039264, 0.104442298412, -0.124906674027, 0.084057360888, 0.134938836098, -0.131879717112, -0.093911901116, 0.118397593498, -0.048758849502, 0.001304760575, -0.150570601225, -0.091957286000, -0.035149969161, 0.020280480385, 0.060088634491, 0.159391433001, 0.018015861511, -0.011437535286, -0.135017305613, -0.121855363250, 0.131687402725, 0.142823964357, -0.030772387981, -0.040304854512, 0.022786065936, 0.010312855244, -0.136488780379, 0.101696640253, -0.074984818697, -0.051051899791, -0.102276518941, 0.097562253475, -0.051768913865, 0.085266679525, -0.151510983706, 0.056089878082, -0.012952029705, -0.085376933217, 0.079158470035, -0.073807656765, -0.103070303798, -0.099459782243, 0.084478497505, -0.085989758372, 0.004556253552, 0.125455826521, 0.120077431202, 0.116308629513, -0.024363175035, 0.150661051273, 0.104783058167, 0.102041393518, 0.055326417089, 0.036568731070, -0.079865589738, 0.123567402363, 0.129341840744, -0.053979508579, 0.011302113533, -0.148459985852, -0.088991351426, 0.005392730236, 0.081763699651, 0.093458622694, 0.114412516356, 0.087608680129, -0.023031130433, 0.065239161253, -0.155712604523, 0.150079518557, -0.130460202694, 0.044723287225, -0.009517356753, -0.013828009367, 0.132987022400, -0.049726076424, 0.080975949764, -0.111042462289, 0.037474825978, 0.157335489988, -0.135178476572, 0.131752252579, 0.155082911253, 0.151028305292, -0.150673866272, -0.053415283561, 0.034240424633, 0.053575515747, -0.143001973629, 0.084933698177, 0.154083430767, -0.057672075927, 0.061085492373, -0.081483401358, 0.092875808477, -0.144450888038, 0.079873144627, -0.043802298605, -0.083649858832, -0.062775954604, 0.051371261477, 0.134876996279, 0.116330444813, 0.027809232473, -0.012635961175, -0.073967464268, -0.023883476853, 0.050171181560, -0.057817764580, -0.035516321659, 0.080317154527, -0.022116959095, 0.078563809395, -0.029339015484, 0.135265171528, 0.031834259629, 0.055322632194, -0.072242796421, -0.070472851396, 0.069787859917, -0.092468827963, -0.035472951829, -0.003013774753, -0.124029040337, 0.069867536426, 0.065287575126, 0.076437175274, -0.109367921948, 0.146941751242, -0.071272097528, -0.156669721007, 0.085983455181, -0.094162769616, 0.006613343954, 0.156599789858, -0.126831039786, -0.158999919891, 0.000536695123, -0.099288366735, -0.038446523249, 0.050544783473, 0.122824549675, -0.090390555561, -0.128861024976, 0.006031244993, -0.079126894474, -0.053714826703, 0.024047181010, 0.101805895567, -0.024480953813, 0.047984257340, 0.088471189141, 0.002325743437, 0.092646569014, 0.083117589355, 0.048385158181, -0.072959199548, -0.086108870804, -0.075238779187, 0.019767940044, 0.144533932209, -0.131446138024, -0.112058021128, -0.092769093812, 0.105465769768, 0.016713693738, 0.030824914575, -0.108715429902, -0.084939152002, 0.082445859909, 0.079993590713, -0.067682035267, -0.002824753523, -0.071510821581, -0.117358595133, 0.035191208124, 0.100763738155, 0.023378878832, 0.030506432056, -0.143389433622, -0.016265839338, 0.133298665285, -0.001334577799, -0.093023277819, 0.011172801256, -0.105483964086, 0.146247625351, 0.001808241010, -0.094114780426, 0.046771362424, -0.144995868206, -0.149813577533, 0.037872299552, 0.159102737904, -0.014972493052, 0.135174483061, -0.031333521008, 0.105588883162, 0.044945985079, -0.113880045712, 0.025976747274, 0.072308272123, -0.124577119946, -0.079212293029, -0.029425859451, -0.025942206383, -0.038101360202, 0.074833065271, 0.107983291149, -0.075648687780, -0.130866646767, -0.008267223835, -0.013057395816, -0.039596930146, 0.091262757778, 0.129134744406, -0.152184009552, -0.077364236116, 0.048643171787, 0.105065643787, 0.087211444974, -0.072252109647, -0.107773929834, -0.056027196348, 0.134524971247, -0.043740451336, -0.017459988594, 0.016787081957, -0.116540908813, 0.048658668995, 0.060787707567, -0.101105764508, 0.103190183640, 0.047295615077, -0.113837972283, -0.036443881691, 0.023193687201, -0.034155145288, 0.033093154430, -0.113984115422, -0.077372446656, 0.099329322577, 0.118777424097, 0.078925803304, 0.136534541845, -0.019124537706, -0.135886102915, -0.000333830714, 0.040754243731, 0.104139059782, 0.029923498631, -0.038723960519, -0.048393905163, 0.154682576656, -0.058026365936, 0.126716464758, 0.068818762898, -0.097280912101, 0.143880754709, -0.059379868209, -0.074986770749, -0.111600384116, 0.019676730037, -0.107630074024, -0.034867078066, -0.043647371233, 0.099139630795, -0.040570303798, 0.088306948543, 0.075002565980, 0.081675395370, 0.115869641304, 0.048715665936, 0.061666890979, -0.049019448459, 0.018346399069, -0.049058996141, 0.115523993969, 0.117308080196, -0.123002529144, -0.020088896155, 0.159876167774, -0.045033104718, 0.112415641546, -0.104082547128, -0.106248892844, -0.047496773303, -0.020032927394, 0.009350970387, -0.044348806143, 0.029558911920, -0.088935501873, 0.046383783221, -0.033610001206, -0.051351554692, -0.013796091080, 0.157266676426, -0.132086560130, 0.054767385125, -0.036397613585, -0.102330774069, -0.117523282766, 0.113778501749, 0.027801558375, 0.159176141024, -0.078355781734, 0.040621578693, 0.061185359955, -0.135244145989, 0.062832459807, 0.079834431410, -0.143335372210, 0.070497021079, -0.055498175323, -0.068979226053, 0.075344756246, 0.103804200888, 0.095321744680, 0.103691786528, 0.157397508621, -0.141480252147, -0.025348886847, -0.139661669731, 0.158286511898, -0.092422902584, -0.058236643672, 0.111214041710, 0.041847988963, -0.002933338284, 0.079629912972, 0.086401849985, 0.149087637663, 0.017200231552, 0.046302244067, 0.012828186154, 0.117105364799, -0.057835057378, -0.014850482345, 0.113892644644, -0.136671334505, -0.096319183707, 0.140310943127, -0.067437432706, -0.058617696166, 0.003349855542, -0.151710540056, 0.133183747530, -0.028053417802, -0.053161054850, 0.070915967226, 0.039181560278, 0.113829255104, -0.072941862047, -0.156891956925, -0.012575790286, 0.077201411128, -0.026940390468, -0.082251109183, -0.098972901702, -0.008497402072, 0.125937879086, -0.020615935326, 0.000526428223, -0.050808370113, -0.003151059151, -0.005783557892, -0.101260311902, -0.099329411983, -0.129244774580, 0.043307319283, 0.029359936714, -0.076144039631, -0.095534980297, -0.155232563615, -0.089880160987, -0.023245111108, 0.026706665754, -0.137176275253, -0.038825362921, -0.022393211722, -0.148848325014, 0.135743767023, -0.071735262871, 0.044958114624, 0.049988806248, 0.072122186422, -0.026615113020, -0.064273923635, 0.132141679525, -0.154219061136, 0.073295578361, 0.122090518475, -0.009606957436, -0.083762332797, 0.003746092319, -0.072514392436, -0.045257665217, 0.119755446911, 0.065651401877, -0.115166470408, 0.011472955346, 0.140017330647, 0.144009739161, 0.001190379262, 0.058044806123, -0.098689816892, 0.067825242877, 0.097156912088, -0.049767002463, 0.132945209742, 0.026045352221, -0.074888154864, 0.023948684335, 0.105428457260, -0.075906157494, -0.120522208512, 0.128246754408, -0.019973114133, 0.028042420745, -0.039232328534, -0.025042697787, 0.080929443240, 0.012482032180, -0.051499724388, 0.050735220313, 0.056592151523, 0.009007841349, 0.019913136959, -0.099737450480, 0.076344087720, -0.097380980849, -0.089810602367, -0.148817256093, -0.051514841616, 0.111851096153, -0.008107915521, -0.130268171430, -0.046621441841, 0.135453820229, 0.081856846809, 0.067874446511, -0.102525323629, -0.073076516390, -0.101613685489, -0.013022542000, 0.038908734918, -0.041628621519, -0.040226019919, -0.033768177032, -0.057811386883, 0.073621958494, -0.121148630977, 0.133211463690, 0.134985029697, -0.033044368029, -0.151149436831, 0.088737547398, 0.158857375383, 0.002255216241, 0.066555827856, -0.103771284223, -0.069909006357, 0.039433762431, 0.120385527611, 0.007705986500, 0.034063324332, 0.044155478477, -0.057878918946, 0.043618321419, -0.158991262317, 0.056125923991, -0.028215557337, -0.113992139697, -0.055257350206, -0.063280776143, 0.123974323273, -0.102256894112, -0.113402143121, -0.033740907907, -0.092690795660, 0.159135162830, -0.126697272062, 0.061064302921, 0.147979140282, -0.131456106901, 0.086192145944, 0.046430125833, -0.065200529993, 0.095882922411, 0.010053738952, -0.051564589143, 0.002648368478, -0.107699260116, 0.102882772684, -0.062425486743, 0.128364175558, -0.150141358376, 0.030807167292, -0.068242020905, -0.128104493022, -0.035623177886, -0.118453517556, -0.026369020343, -0.030861303210, 0.003543555737, 0.037285923958, 0.005964010954, -0.012169882655, -0.099359147251, -0.088142283261, -0.149171471596, 0.153489917517, 0.011212095618, -0.034312084317, 0.077296629548, 0.158485800028, 0.108866125345, 0.112915992737, -0.027838662267, -0.108967743814, 0.061513766646, 0.126019567251, 0.154091179371, 0.048755720258, -0.016217350960, 0.056507974863, 0.126926541328, -0.005541428924, 0.074506461620, -0.012457400560, -0.071624092758, 0.064693227410, -0.048133768141, 0.041614189744, 0.061239153147, 0.155744135380, 0.038979217410, -0.016749247909, -0.058316402137, -0.003341913223, 0.006516560912, -0.137298822403, -0.122362822294, 0.015263989568, -0.091580823064, 0.152820020914, 0.105251938105, 0.032026290894, 0.132841855288, -0.142402052879, 0.157729566097, 0.057845979929, -0.024127855897, -0.105461634696, -0.153234004974, 0.070263519883, -0.034430623055, -0.045069254935, -0.111179560423, 0.075697213411, 0.052516579628, 0.084000483155, -0.126784324646, 0.154092520475, 0.113687217236, -0.053821682930, -0.135513111949, -0.060802556574, -0.087297648191, 0.027256727219, -0.069374904037, 0.110943764448, -0.053369924426, 0.040198296309, -0.071797266603, 0.070810183883, 0.074684709311, 0.059765458107, -0.102521315217, 0.005165800452, -0.054246522486, -0.132775634527, 0.009044259787, 0.044195607305, 0.073136225343, -0.122414514422, 0.078636616468, -0.125562980771, -0.063647165895, -0.105071574450, 0.071164697409, -0.038941688836, -0.069046996534, 0.076917067170, -0.152170151472, 0.014042451978, 0.105715543032, -0.039929263294, -0.152217298746, 0.037887185812, -0.101407028735, 0.076769232750, -0.008643701673, 0.127201557159, 0.061117634177, 0.135514855385, 0.116758674383, -0.039778038859, -0.007934123278, -0.016324982047, 0.093303948641, -0.138803482056, 0.070416957140, -0.053044460714, -0.004495128989, 0.086653709412, -0.102428466082, -0.065455250442, -0.036976613104, -0.071604929864, 0.141393929720, -0.027185916901, -0.108871042728, 0.150108903646, 0.038843378425, 0.019591748714, 0.076759159565, -0.140957489610, 0.117478549480, -0.075319677591, -0.122639611363, -0.033214867115, -0.137359037995, -0.076385781169, 0.140558272600, -0.107411742210, -0.018769145012, -0.099616125226, 0.069379717112, 0.053516954184, 0.000573724508, 0.036093071103, -0.023596301675, -0.023040369153, -0.136923849583, 0.028462871909, 0.013502702117, -0.096884973347, -0.093728765845, -0.063672058284, 0.060913652182, -0.095856167376, -0.136612400413, -0.017547190189, -0.132081061602, -0.031127661467, -0.020530834794, -0.152150601149, 0.083035007119, -0.006973728538, 0.003815457225, 0.147675931454, 0.144479662180, 0.149312913418, -0.087716795504, -0.107624962926, 0.095178067684, 0.149319529533, -0.157273381948, 0.108382761478, -0.058849506080, 0.098819077015, -0.017100930214, -0.005234867334, -0.081884302199, 0.099341392517, 0.091563105583, 0.070203542709, 0.134931892157, -0.067840889096, 0.008308619261, -0.029420971870, -0.086881965399, 0.151969313622, -0.040127940476, 0.111813038588, -0.047519221902, -0.120907954872, -0.106577023864, 0.127074003220, -0.121658526361, 0.152590423822, 0.149873435497, -0.113455623388, -0.079611286521, -0.068449474871, 0.095900833607, -0.046954691410, 0.030109003186, -0.014065399766, 0.105460643768, -0.008522793651, -0.152074411511, -0.131768807769, 0.134083360434, 0.066202849150, -0.094895966351, -0.022976875305, 0.144523173571, -0.056778185070, 0.136248022318, -0.099111407995, -0.074302017689, 0.133127629757, 0.084273561835, -0.063191972673, -0.125091522932, -0.119417041540, -0.025122374296, 0.000902712345, -0.062918163836, 0.100495427847, -0.070498540998, -0.040637873113, 0.091940641403, -0.017834141850, -0.034115776420, -0.130276650190, -0.081926107407, 0.107678264380, 0.116785287857, -0.092678159475, -0.155159220099, -0.075137570500, -0.121918208897, -0.139245003462, -0.097946122289, -0.156939253211, -0.019190087914, 0.089858442545, -0.125711023808, 0.117428570986, -0.106237635016, 0.131483465433, -0.122781403363, 0.125971168280, -0.024237692356, 0.109731763601, 0.089776590466, -0.014311641455, -0.087068691850, 0.052037462592, 0.077640980482, -0.092023067176, 0.043504282832, 0.007020354271, -0.146656066179, -0.099738284945, -0.092324629426, 0.128357768059, -0.002213984728, 0.050086319447, 0.008078366518, 0.077782854438, 0.026373803616, 0.062779918313, -0.155494809151, -0.124164499342, 0.013539969921, -0.087298907340, -0.094508081675, -0.084896318614, -0.070999547839, 0.070722982287, 0.094205319881, -0.017427012324, 0.153302282095, -0.087790593505, 0.137796461582, -0.116719648242, -0.003495231271, 0.021058186889, -0.007256403565, 0.042942464352, -0.092094883323, -0.052300654352, -0.079565666616, -0.157667905092, -0.007578507066, -0.029376655817, -0.042431801558, 0.110382616520, 0.078811854124, 0.040057688951, 0.129978626966, 0.098145663738, 0.138920336962, -0.126042753458, 0.155802547932, 0.112184733152, 0.040945857763, -0.006299823523, -0.120071336627, -0.054441377521, 0.008941784501, -0.006810143590, 0.098414719105, 0.151964217424, -0.074666455388, -0.065847523510, -0.082384653389, -0.129853248596, 0.097504705191, 0.139208376408, 0.053159758449, -0.019326835871, -0.136475026608, -0.080010317266, -0.095128811896, 0.153675049543, 0.128500014544, 0.015152737498, -0.061797767878, -0.156822815537, -0.114862546325, 0.080172538757, 0.046531260014};
