//Numpy array shape (3, 3, 16, 32)
//Min -0.117656975985
//Max 0.117804206908
//Number of zeros 0

weight_default_t w4[4608] = {0.023454211652, -0.069798275828, -0.026284120977, 0.075633980334, 0.055805183947, -0.001621671021, -0.079390697181, -0.031646721065, -0.095858089626, -0.108554318547, -0.063738852739, 0.115924291313, 0.023610241711, 0.116300158203, 0.018651895225, -0.076800830662, 0.019314609468, -0.057334829122, 0.089437387884, -0.015785060823, -0.061916559935, 0.034788452089, 0.016195990145, -0.065671168268, -0.019104406238, 0.012441046536, -0.028119757771, 0.062996648252, 0.006593227386, -0.024265348911, -0.032362066209, -0.045206993818, -0.082737691700, 0.010248757899, -0.117453373969, 0.020536504686, -0.100334256887, 0.035106100142, 0.096705354750, 0.103991501033, 0.039632253349, -0.091141097248, -0.051321096718, 0.059440769255, -0.017976358533, -0.014362469316, -0.005646921694, -0.097387149930, -0.050557166338, 0.073344700038, -0.111245371401, -0.002443395555, 0.081060029566, 0.035494334996, 0.013093627989, 0.010271020234, -0.011402577162, 0.026742152870, -0.102220013738, -0.040207900107, -0.064743235707, 0.072501070797, -0.045724302530, -0.020793341100, 0.028763540089, -0.097689457238, -0.090340167284, 0.062459744513, 0.059471674263, -0.038851305842, 0.019761584699, 0.075970314443, -0.007591463625, 0.010477952659, 0.096380598843, 0.085737682879, 0.056317038834, -0.026292189956, 0.026669658720, 0.038602717221, -0.058642029762, -0.104580268264, 0.034410454333, -0.066480785608, -0.035554997623, 0.050598107278, -0.053127482533, -0.036245197058, 0.008327014744, -0.062609031796, 0.075044311583, 0.093656428158, -0.100188985467, -0.067451536655, 0.073832906783, -0.030618138611, -0.057326570153, 0.019342370331, -0.007980644703, -0.018306873739, 0.059392742813, 0.115004248917, -0.069991275668, -0.025073550642, 0.026775948703, 0.044782184064, -0.050078995526, -0.026710987091, 0.015373505652, -0.032297186553, -0.017402939498, 0.001368030906, -0.109993413091, 0.042890466750, 0.094970144331, 0.102465026081, -0.114526502788, 0.096876271069, 0.075903721154, 0.110212244093, -0.040694527328, 0.044951640069, 0.107746399939, 0.013959087431, -0.104719743133, 0.059705369174, -0.023615017533, -0.084181219339, -0.085415616632, -0.079027533531, 0.084583945572, 0.098900668323, 0.098870076239, 0.030872367322, 0.096551574767, -0.008136846125, 0.106719054282, -0.048895038664, -0.058396313339, 0.089043669403, -0.048920944333, 0.008007533848, 0.086691267788, 0.002493575215, -0.093044139445, -0.096958123147, -0.064392745495, -0.082445725799, -0.102469414473, -0.100743107498, -0.020930968225, -0.075391322374, 0.058631666005, 0.110150448978, 0.018723882735, 0.026329748333, 0.105834282935, -0.106979236007, -0.052555657923, 0.115621365607, -0.102410435677, -0.066558837891, 0.108088605106, -0.055484808981, -0.093572355807, 0.053340829909, 0.003480233252, 0.115655280650, 0.071174450219, -0.016581892967, 0.047578282654, 0.022970087826, -0.057761274278, -0.049111194909, 0.036267735064, 0.015265919268, -0.056390911341, 0.056919284165, -0.042026698589, -0.040880337358, -0.014480225742, -0.058911122382, -0.089238449931, -0.074045635760, -0.099561080337, -0.109491474926, -0.028451845050, 0.013581685722, 0.035286553204, 0.011485598981, -0.092177547514, 0.117428503931, 0.116211138666, 0.046032510698, 0.090745486319, 0.064591281116, -0.064737446606, -0.011565320194, 0.076745145023, -0.098340176046, -0.009580314159, -0.051889009774, -0.042538508773, -0.107421077788, 0.019991852343, -0.058359533548, 0.101762019098, 0.047245971859, -0.116046316922, -0.103008612990, -0.037488162518, 0.038667984307, 0.087785653770, 0.068803779781, 0.063511423767, -0.052984431386, -0.019395560026, -0.047877050936, -0.070311620831, 0.098539449275, -0.046821467578, -0.005294039845, 0.017196960747, -0.045755967498, 0.013417758048, 0.004100412130, 0.021045066416, 0.012513406575, -0.015807174146, 0.010004542768, 0.081779293716, 0.037972904742, -0.043932780623, 0.008398033679, -0.086520910263, -0.075204811990, -0.048801697791, 0.088745839894, -0.091865465045, -0.092145487666, 0.047590456903, 0.101647891104, -0.059271648526, 0.044771842659, -0.037416681647, -0.050956241786, -0.107229731977, -0.026986598969, 0.056916736066, 0.018735252321, 0.105912365019, -0.094108492136, 0.020217709243, -0.099916495383, 0.096214152873, 0.099362008274, -0.059885587543, 0.025371246040, -0.042759127915, 0.023038558662, 0.066947706044, -0.022622436285, -0.112360604107, -0.046140097082, 0.024643458426, -0.028332345188, 0.107270918787, 0.106075219810, -0.023323506117, 0.016024909914, -0.067236781120, 0.072210960090, -0.057208362967, 0.108234040439, -0.066748358309, -0.063215807080, -0.048306189477, -0.079812303185, 0.056059472263, 0.032358042896, 0.094132401049, -0.109049297869, -0.074517711997, 0.062043927610, 0.026143066585, 0.008095644414, 0.110998980701, 0.000112675130, -0.023183859885, -0.025821432471, 0.099970690906, -0.099687635899, 0.091185040772, -0.058531492949, -0.116024740040, -0.043383158743, 0.089853338897, 0.052788220346, -0.016460143030, 0.104748778045, 0.104685686529, 0.073159702122, -0.001039654016, -0.012875944376, -0.058112863451, 0.009626992047, 0.094748474658, -0.062783800066, 0.084614016116, 0.084271304309, 0.103762142360, 0.092356450856, 0.062642492354, 0.042922399938, -0.000250913203, -0.049899764359, -0.101895123720, 0.084602855146, 0.061508886516, 0.097324751318, 0.054968513548, -0.019121155143, -0.072479516268, -0.002557024360, -0.004349894822, -0.065159425139, 0.052018962801, 0.087385140359, 0.117377452552, 0.022375591099, -0.053632453084, -0.057634890079, 0.093190960586, 0.046047486365, -0.004218615592, 0.017450816929, 0.062147833407, 0.061789788306, -0.089213639498, -0.037253484130, 0.110185511410, -0.035242214799, -0.070379756391, 0.046450130641, -0.092499323189, 0.072285868227, 0.062285281718, 0.039395444095, 0.032867453992, 0.036468066275, -0.048037938774, 0.054224021733, 0.022899113595, 0.021524168551, 0.011128254235, -0.116303585470, 0.039850823581, -0.030920617282, -0.112197801471, -0.009984701872, -0.042012847960, 0.024688132107, 0.009332485497, 0.038300924003, -0.021735213697, -0.082775145769, -0.010998643935, 0.083434469998, -0.059958245605, -0.092844367027, -0.091079339385, -0.005659058690, 0.004010610282, 0.049194447696, -0.062671914697, 0.007701687515, 0.073850415647, 0.012787409127, -0.114642769098, -0.042701222003, -0.096470057964, 0.084119908512, 0.085650034249, -0.057543937117, 0.056384228170, 0.099071569741, -0.047209501266, 0.115110017359, 0.067218862474, 0.069315157831, 0.067743949592, 0.036953367293, 0.037991248071, 0.060661427677, -0.062655508518, -0.024480320513, -0.050797656178, 0.049830026925, 0.021595798433, 0.090886779130, 0.067898608744, -0.069372758269, 0.041040919721, 0.115821786225, -0.024382404983, -0.061903633177, -0.025180891156, -0.083149611950, 0.111394234002, 0.023094393313, 0.074728183448, 0.020454369485, -0.087909564376, 0.047303967178, -0.080316692591, -0.014746814966, 0.073928274214, 0.103854782879, 0.112508617342, 0.093860186636, 0.077151976526, 0.087867923081, 0.039643295109, 0.110982097685, 0.062165670097, -0.022824853659, 0.016733698547, 0.008509792387, -0.037291392684, 0.023699007928, 0.077839918435, 0.039190523326, 0.054025851190, -0.051718086004, -0.050056211650, -0.029551401734, 0.016401387751, -0.090699985623, 0.064443819225, 0.051102466881, 0.073976062238, 0.028776653111, 0.051771275699, -0.043036289513, 0.037114031613, 0.109363399446, -0.080527313054, 0.010953880847, -0.073827959597, -0.020223714411, 0.050148822367, -0.011120051146, -0.066196769476, -0.115995183587, -0.097370207310, -0.022316560149, -0.015955165029, 0.097492851317, 0.087799109519, -0.024216935039, -0.113139986992, -0.020549282432, -0.043216593564, 0.092817001045, 0.054579384625, 0.071061529219, 0.004454500973, 0.081087075174, -0.111173890531, -0.102272503078, 0.083246625960, 0.034427396953, -0.039186395705, -0.070891782641, 0.110235027969, 0.016566805542, 0.106531701982, -0.021248921752, -0.055768486112, -0.020124442875, -0.046171985567, -0.011360175908, 0.090339995921, -0.065452992916, 0.053463585675, 0.114213608205, 0.112523235381, 0.036874391139, -0.079401008785, 0.028870277107, -0.102521896362, 0.003302402794, -0.032741501927, 0.095263965428, -0.062429036945, -0.089880459011, 0.085515446961, -0.002062804997, -0.052062936127, 0.116991080344, 0.077504761517, -0.023137860000, -0.044297039509, -0.067073367536, 0.089503504336, -0.064800076187, -0.114826276898, -0.005370579660, 0.089785911143, -0.113594494760, -0.093586653471, 0.036318667233, -0.004620812833, 0.109055958688, -0.004805102944, -0.100449793041, -0.116276808083, 0.059149332345, 0.110164813697, 0.006254673004, -0.013846501708, -0.027719169855, 0.050736434758, -0.036970347166, -0.080998688936, -0.021900460124, -0.101851992309, -0.006397522986, -0.064451776445, 0.031571753323, -0.056456182152, -0.066905766726, 0.041091330349, 0.018748350441, 0.008226640522, -0.027247093618, 0.087726108730, 0.109909959137, 0.030545763671, 0.065953351557, -0.016215354204, -0.068666353822, 0.039379484951, -0.018303476274, -0.089447692037, 0.078726492822, 0.089180879295, 0.034626610577, 0.047928042710, 0.094316668808, 0.108446709812, 0.098163045943, 0.011988557875, 0.087491326034, -0.020684435964, -0.108543701470, -0.036207824945, -0.044118702412, -0.020049758255, 0.036233700812, -0.092067122459, 0.012956283987, -0.037156552076, -0.027674943209, 0.050198726356, -0.058110080659, -0.103290714324, -0.104153208435, 0.082423277199, -0.104874506593, -0.066156864166, 0.038954980671, 0.001851059496, 0.081337325275, 0.049897290766, 0.060859464109, 0.086635299027, 0.099381394684, -0.107228830457, -0.117053121328, 0.062064357102, 0.092930205166, -0.005554139614, 0.013596661389, 0.035197593272, -0.073281124234, -0.079396575689, -0.115970119834, -0.007424704731, 0.024967707694, -0.063104256988, 0.087932072580, -0.007118098438, 0.096663407981, -0.105597689748, -0.002223163843, 0.101486526430, 0.061518467963, -0.097695358098, 0.062281183898, -0.042365759611, 0.086954765022, 0.089263848960, 0.045171670616, -0.025416828692, -0.092356584966, 0.036241225898, 0.089371375740, 0.011882372200, 0.043799601495, 0.060593567789, 0.092147059739, -0.038886062801, -0.076022237539, -0.050479419529, 0.088845171034, 0.070084951818, 0.068096555769, 0.065635792911, 0.041455440223, 0.100678570569, 0.092665664852, 0.004747532308, -0.099185138941, 0.085571415722, -0.044680461287, -0.069519236684, -0.041430912912, -0.075000062585, 0.007756955922, 0.000927627087, 0.021591521800, -0.064461693168, 0.006583474576, 0.026537708938, 0.104405529797, 0.079299636185, 0.043469212949, 0.116775907576, -0.075449235737, -0.026010476053, 0.011511124671, 0.061081342399, 0.025712497532, -0.070668153465, -0.044299177825, 0.107916302979, 0.111827559769, 0.064486555755, 0.112240098417, -0.105848044157, 0.061294533312, 0.035566098988, 0.025867380202, 0.065352983773, -0.110743433237, 0.059819750488, -0.025340288877, 0.007961712778, 0.012225009501, 0.048239000142, 0.075771488249, -0.038257874548, 0.013489268720, -0.002693802118, -0.077730841935, -0.061729088426, -0.092474624515, -0.059498369694, -0.021770164371, 0.078504122794, -0.047296799719, 0.055321983993, 0.115765310824, 0.075981296599, -0.039214834571, -0.011514827609, -0.011922501028, 0.101610071957, -0.060797080398, 0.014754287899, -0.043726824224, 0.106922082603, 0.101795293391, -0.081740021706, 0.012472681701, -0.031318731606, -0.010766215622, 0.004113338888, -0.039686739445, -0.004060372710, -0.004086531699, 0.014352776110, 0.015733279288, 0.065820507705, 0.058722384274, 0.008110232651, 0.073549114168, 0.105213172734, -0.021732345223, -0.037719629705, 0.107659347355, -0.006240911782, -0.112370103598, -0.112427644432, 0.069097645581, -0.095485962927, -0.078388728201, -0.064855091274, 0.034944184124, 0.044604621828, -0.037401169538, 0.029568456113, -0.092582270503, 0.000760778785, 0.095978625119, -0.059250939637, 0.061361707747, -0.053676031530, 0.111818261445, -0.085915476084, -0.097565546632, 0.097694657743, -0.091179147363, -0.065945461392, -0.047488316894, 0.076807208359, -0.028852187097, -0.086000338197, -0.080084353685, -0.095517262816, 0.114803321660, -0.068831622601, 0.097194485366, 0.100996740162, 0.012256301939, 0.047600306571, 0.080456979573, -0.092474482954, 0.055439062417, -0.059568278491, 0.047269426286, 0.008570142090, -0.093590870500, 0.051441572607, -0.002444520593, 0.023268379271, 0.104244612157, -0.043815553188, 0.037376247346, -0.055512346327, 0.106028966606, -0.095001950860, 0.005412019789, 0.000148437917, 0.004903614521, 0.104115806520, 0.101552389562, 0.097538344562, -0.059557318687, -0.020633414388, -0.024241492152, -0.033223487437, -0.068936705589, 0.070016004145, 0.117460705340, 0.078061409295, 0.046550042927, 0.002240270376, 0.107640050352, 0.021741874516, 0.024725563824, -0.060927763581, -0.099785335362, -0.102939829230, -0.065057262778, -0.089365310967, 0.023723892868, 0.020857043564, 0.073104269803, -0.017516344786, -0.072535574436, 0.011291481555, -0.071690216660, -0.002686552703, 0.033027626574, -0.010393723845, 0.104181535542, -0.066209383309, 0.035828582942, -0.089162223041, 0.030043534935, 0.080924950540, 0.059738405049, 0.071930788457, 0.032387293875, -0.031747594476, -0.046238489449, 0.088059596717, 0.104050479829, -0.108770929277, 0.084643237293, 0.067312844098, 0.098633490503, -0.102349154651, 0.002041533589, 0.100388236344, 0.114114440978, 0.086188219488, 0.061600632966, 0.022695206106, -0.028416275978, -0.057085826993, 0.113533072174, 0.092426128685, -0.013862460852, -0.101208269596, 0.079558528960, 0.079362802207, -0.066207557917, -0.059205476195, -0.039391569793, 0.067507870495, 0.075990311801, 0.086212582886, -0.015049375594, 0.114385701716, 0.011465735734, -0.033753700554, -0.092720456421, 0.105781234801, 0.038217298687, -0.080617256463, -0.112314999104, 0.022630803287, 0.037150226533, -0.080033048987, -0.047075442970, -0.040720991790, -0.007980056107, 0.110925443470, -0.003855168819, 0.091599397361, -0.064433231950, -0.094978481531, 0.111094035208, 0.108036227524, 0.078420259058, 0.042090646923, -0.110487341881, -0.113665528595, 0.054454825819, -0.001462213695, -0.019630201161, 0.044068805873, 0.071474395692, -0.048415489495, -0.008723020554, 0.043809629977, 0.070232607424, 0.037560008466, -0.024866580963, 0.007664211094, -0.070199228823, -0.072078980505, 0.082775734365, 0.075382061303, -0.030270680785, 0.013615705073, 0.071255512536, -0.004745200276, 0.049586109817, -0.094123855233, -0.099612474442, 0.084869392216, -0.050718925893, 0.029448084533, 0.010119788349, 0.085859559476, 0.058841414750, 0.070388473570, -0.053727485240, -0.010189197958, 0.021590448916, 0.046742849052, -0.086740069091, 0.018053881824, 0.077205277979, -0.006269402802, 0.086397163570, 0.048710800707, -0.019147984684, 0.039248161018, -0.114790678024, 0.024001397192, -0.068656288087, -0.045673698187, -0.046464145184, 0.103456832469, -0.080149903893, -0.099241241813, -0.056878101081, 0.089481808245, 0.108443342149, 0.007670901716, -0.006015561521, 0.013792552054, 0.008371599019, 0.002790682018, -0.117484651506, 0.007767803967, -0.075088739395, 0.082337237895, -0.095268569887, 0.015614114702, 0.029040075839, -0.068644821644, 0.017592258751, -0.102350309491, 0.074142090976, -0.070238538086, 0.005685918033, -0.085875049233, -0.062724396586, 0.068696714938, -0.072066560388, 0.075515665114, -0.115407429636, 0.075153224170, -0.078709155321, 0.115207292140, 0.006511241198, -0.056623954326, -0.101079665124, 0.063666857779, -0.019050940871, -0.027553111315, -0.106661900878, 0.101668424904, 0.019680865109, 0.082680933177, 0.000366590917, -0.085093423724, 0.028230495751, 0.027568452060, 0.116440422833, -0.038632676005, 0.100025452673, -0.015527851880, -0.051585912704, -0.029688157141, 0.077468805015, 0.063409872353, -0.117381192744, -0.001228690147, -0.004060402513, 0.010525412858, 0.017248772085, -0.064630761743, 0.088945306838, -0.080423407257, -0.091305948794, -0.057214543223, -0.047629252076, 0.074063219130, 0.034240014851, -0.000173896551, 0.016449801624, -0.096641093493, -0.105283364654, 0.018447317183, -0.031154274940, 0.059034101665, 0.096277542412, 0.095921389759, -0.095851488411, -0.077321767807, 0.057561300695, -0.110695354640, 0.112235181034, -0.045405589044, 0.004838399589, -0.067733891308, 0.083177201450, 0.037846527994, -0.006449729204, 0.011934153736, 0.064766220748, 0.074355550110, -0.065880894661, 0.007866658270, -0.099396906793, 0.007525570691, 0.070981271565, 0.047819815576, -0.094844400883, 0.072824157774, -0.045418992639, 0.041414566338, 0.108095906675, 0.056129373610, -0.091149419546, 0.002134852111, -0.000637739897, -0.004115752876, 0.050020806491, -0.033330008388, 0.093823827803, 0.105833910406, 0.089889533818, -0.092569626868, -0.114656850696, 0.033086933196, 0.064981482923, 0.080194525421, -0.109965622425, 0.050937868655, -0.007510147989, 0.019878499210, 0.108169443905, -0.014805488288, -0.031245030463, -0.089545190334, -0.031333908439, -0.045186705887, 0.114871792495, 0.005959734321, 0.046105526388, -0.062508270144, -0.103647701442, 0.022688992321, 0.023708693683, 0.024235166609, -0.015780963004, 0.113274566829, 0.009705074131, 0.040391437709, -0.106387667358, 0.100196205080, 0.011356659234, -0.088289305568, -0.000253751874, 0.057788558304, 0.030538789928, 0.059470377862, 0.019972823560, 0.051493309438, 0.041786752641, -0.105287827551, 0.032145030797, -0.009652554989, -0.024959251285, 0.055993802845, -0.015785567462, 0.019565440714, 0.114684335887, 0.009672217071, -0.041300818324, -0.048379525542, -0.090068265796, 0.084295488894, -0.094681575894, 0.101329930127, 0.073338575661, 0.098382465541, 0.084503538907, -0.045280747116, -0.024226769805, 0.014752350748, -0.074947461486, -0.016380622983, 0.027860634029, 0.090082488954, 0.084854863584, 0.062223665416, -0.012121267617, -0.080640017986, -0.111782714725, 0.020207874477, 0.019203819335, 0.007197894156, -0.108232796192, 0.079580970109, -0.101566314697, 0.099926419556, -0.029291443527, 0.047507174313, -0.097460597754, -0.035095565021, -0.105354249477, 0.016279809177, 0.104165874422, 0.098075635731, 0.035374499857, -0.064799070358, -0.013705089688, -0.010925754905, 0.008648596704, -0.102894477546, 0.065631322563, 0.089689753950, -0.077754646540, 0.025480546057, 0.017939604819, 0.029903747141, 0.115023501217, -0.020345129073, -0.070882372558, -0.105371676385, 0.033365495503, -0.113168843091, 0.101251982152, 0.053884319961, -0.019381172955, -0.086087554693, 0.098596759140, -0.074848696589, -0.001797817647, -0.062335468829, -0.107221782207, 0.046337850392, -0.008626788855, -0.101729035378, 0.086310259998, -0.083950117230, 0.108853928745, 0.011333011091, -0.108603015542, 0.011766277254, 0.010431818664, 0.038862265646, 0.007426477969, 0.052828378975, 0.014666400850, -0.012824244797, -0.060305286199, -0.038360066712, -0.001995228231, 0.006247200072, 0.061897985637, -0.102542638779, -0.030359581113, -0.082991585135, -0.094344064593, -0.091353967786, -0.066897079349, 0.070816926658, -0.059597443789, 0.038065426052, 0.040948159993, -0.043963462114, -0.070060476661, 0.098909206688, -0.066825710237, -0.007948555052, -0.116358205676, -0.008641764522, 0.050815753639, -0.112249143422, 0.090188108385, 0.117683805525, 0.036981277168, -0.012563355267, -0.046747148037, -0.106103762984, 0.014518491924, 0.106332235038, 0.060285218060, 0.025520004332, -0.067977249622, -0.005068942904, -0.076054692268, -0.064570292830, 0.012000747025, -0.107279069722, -0.089853316545, -0.115410603583, 0.100664235651, 0.049337826669, -0.077162697911, -0.073328495026, 0.022113077343, 0.061317257583, 0.024706117809, 0.079272322357, 0.037436880171, 0.109852306545, 0.058264650404, 0.077220074832, 0.095567859709, 0.106252424419, -0.100219391286, 0.038169287145, -0.084359951317, 0.038359142840, 0.034048251808, -0.022757641971, -0.008075647056, 0.115892566741, 0.006303794682, 0.099814407527, -0.019003905356, 0.027924530208, -0.027969829738, 0.112380050123, 0.064090855420, -0.041882306337, 0.071285746992, -0.056556716561, 0.091467730701, 0.107633240521, 0.090157337487, 0.074593342841, 0.052449084818, -0.070265315473, -0.013260915875, -0.066108152270, -0.113259740174, 0.009796388447, 0.075047858059, 0.065986119211, 0.096691749990, 0.049081124365, 0.108456961811, -0.001394979656, -0.105744503438, -0.117531716824, -0.091034099460, 0.087699554861, -0.022319085896, 0.066604755819, 0.017615921795, 0.107769154012, -0.070204928517, 0.048873819411, 0.019325770438, -0.019095532596, -0.115079186857, -0.013507276773, -0.060912143439, -0.056286808103, 0.052655406296, -0.060195788741, -0.095459043980, 0.027079187334, 0.085349477828, -0.004171274602, -0.092319972813, 0.111774794757, -0.053311690688, 0.048285149038, 0.040864102542, 0.091216988862, 0.069824792445, -0.098869539797, 0.013595901430, -0.017743259668, -0.007283031940, 0.065119050443, -0.085260063410, -0.043685771525, -0.097689375281, -0.019375190139, 0.016499333084, 0.030377797782, 0.056834347546, 0.001312986016, 0.042739264667, 0.071127332747, 0.010227687657, -0.026605255902, -0.029205009341, 0.098163329065, -0.067417845130, -0.116414263844, -0.065776281059, -0.083306759596, 0.051739297807, 0.006003789604, 0.030853681266, 0.045465491712, -0.051427811384, -0.114751204848, -0.064490690827, 0.075169436634, 0.052737139165, -0.016371354461, 0.045624412596, 0.056313864887, 0.007865808904, 0.099938414991, 0.090631969273, -0.100630208850, 0.072176314890, -0.058785609901, -0.115067131817, -0.005717895925, -0.112607613206, -0.016554497182, 0.058795414865, 0.031551919878, -0.090093076229, -0.064532078803, 0.042524091899, 0.047227345407, -0.010075882077, -0.008619762957, -0.048771068454, 0.054959215224, 0.000583201647, 0.049517072737, 0.052044354379, -0.116789370775, -0.019523575902, 0.080195479095, 0.077906869352, 0.025872685015, 0.003333784640, 0.009966634214, 0.111803345382, -0.107610344887, 0.088626675308, 0.034302048385, -0.048492699862, 0.101189441979, 0.073577098548, -0.046499043703, -0.013983398676, 0.023708619177, -0.071250483394, -0.110632158816, -0.047065190971, 0.058249108493, -0.001701414585, -0.019264057279, -0.019439980388, 0.106471456587, -0.003958940506, 0.075588412583, -0.097306706011, 0.012337334454, 0.000143773854, -0.045500077307, 0.093216262758, -0.102685175836, 0.004144638777, -0.112732589245, 0.046397306025, 0.080609865487, -0.065362349153, -0.078670665622, 0.060774751008, 0.079189963639, -0.075383208692, -0.057324942201, 0.084311284125, -0.034622319043, -0.089464075863, 0.110172174871, 0.054748229682, -0.017923034728, -0.015484333038, 0.079259403050, 0.040776230395, 0.030779816210, -0.050569951534, -0.054602339864, -0.034392759204, -0.104352228343, 0.061430014670, 0.094973571599, 0.085813902318, -0.010983668268, 0.067401327193, -0.096108466387, -0.064165145159, 0.102910079062, 0.037166021764, 0.047979526222, 0.109729461372, 0.098227806389, -0.107714332640, -0.106406942010, -0.110835760832, -0.115189641714, 0.008239798248, 0.114663220942, 0.102322094142, 0.027395926416, -0.093113541603, -0.101558476686, -0.077061012387, 0.075992263854, -0.085614100099, 0.097653679550, -0.086901262403, 0.105031497777, 0.061912961304, -0.022183291614, -0.021838784218, 0.036865539849, -0.061577893794, -0.003467872739, -0.029454968870, 0.001549907029, -0.095314763486, 0.040881849825, 0.048437185585, 0.110098384321, 0.034652493894, -0.103905886412, 0.099317647517, -0.078355796635, -0.088648870587, 0.092262797058, 0.099979825318, -0.061826869845, -0.117047220469, -0.081344515085, 0.026776872575, 0.061779521406, -0.036629632115, -0.116935417056, 0.091726429760, -0.015314705670, 0.025716580451, 0.015442855656, -0.020292952657, -0.022604055703, -0.028918974102, -0.113803766668, 0.073309980333, 0.068556569517, -0.004461780190, 0.003994256258, -0.059343662113, -0.011875405908, -0.086200840771, 0.074012197554, -0.046179771423, 0.102491162717, 0.087216012180, -0.029555536807, 0.084121234715, 0.023759163916, -0.093087494373, -0.098464146256, -0.085664823651, 0.009873934090, -0.031009316444, -0.090605974197, -0.050903841853, 0.064216770232, -0.096760705113, 0.022774167359, 0.007440976799, 0.001727513969, -0.043950259686, 0.015043757856, -0.031895048916, 0.049846045673, -0.059223823249, 0.064320333302, -0.081705346704, -0.073305144906, -0.021318353713, -0.088638335466, 0.062908045948, 0.101745359600, 0.002032853663, 0.012201569974, -0.077400214970, 0.036406137049, -0.096595242620, 0.078495718539, -0.106529138982, 0.086689345539, 0.047831200063, 0.000532537699, -0.009288914502, -0.015870898962, -0.081353023648, -0.087466090918, 0.110950537026, -0.018314719200, -0.103959754109, 0.048339910805, 0.058414302766, -0.023345761001, -0.049471326172, 0.061142988503, 0.076677672565, 0.110916845500, -0.018801763654, 0.108834765851, -0.054623357952, -0.014031194150, -0.098022073507, -0.031523339450, -0.044840343297, 0.003089390695, -0.106935970485, 0.049677513540, -0.109598077834, -0.005865775049, 0.033792026341, -0.084842115641, -0.094547830522, 0.064845226705, -0.001795597374, -0.083282679319, -0.020329304039, -0.008394867182, 0.039545945823, -0.071680694818, -0.093590423465, -0.023928903043, 0.003200575709, 0.011003874242, 0.086393065751, -0.067534223199, -0.022025860846, -0.088080339134, 0.028431080282, 0.042320124805, -0.081564441323, 0.008418686688, -0.025211967528, -0.004363827407, -0.047420181334, 0.063266403973, -0.104139976203, 0.112606130540, -0.006413459778, -0.039401799440, -0.102346375585, 0.080158419907, 0.114568121731, -0.108962699771, -0.012016147375, 0.028632633388, 0.049595989287, -0.081381969154, -0.001763619483, 0.055325008929, 0.091392375529, -0.090865403414, 0.056845106184, -0.003977991641, -0.037921600044, -0.061291940510, 0.102702654898, -0.101995654404, -0.090105608106, 0.039887972176, -0.030675940216, 0.114199496806, -0.117530055344, 0.007080055773, 0.028434149921, -0.001438699663, -0.044049918652, 0.025065012276, 0.035756237805, 0.107288517058, -0.060958925635, 0.107818715274, 0.101550079882, -0.087758310139, 0.051503397524, 0.046348638833, -0.081556931138, 0.016673468053, 0.042285002768, 0.049187533557, 0.068156816065, -0.065660402179, -0.117433205247, 0.077142648399, -0.073008149862, -0.060627650470, 0.057621099055, 0.081053026021, -0.055367246270, 0.049935899675, 0.081335358322, 0.093978561461, -0.050624571741, -0.109581440687, 0.027683205903, 0.005728065968, 0.004629157484, -0.089926876128, 0.080491520464, 0.109284929931, 0.104433827102, -0.115393832326, -0.052300527692, -0.114132516086, 0.032289855182, -0.007704980671, 0.067498348653, -0.063293948770, 0.066699095070, -0.004382118583, 0.023685343564, 0.020337291062, -0.037832468748, -0.036352328956, -0.020242989063, -0.086347907782, 0.014702416956, -0.083908617496, 0.111528880894, -0.109629377723, -0.100101239979, -0.088601216674, 0.107562191784, -0.061862468719, -0.032185889781, -0.007751733065, -0.019599854946, 0.060760863125, 0.095599867404, -0.020283505321, -0.084174677730, 0.082817353308, -0.074797563255, 0.044920258224, -0.110078521073, 0.064699374139, 0.092512167990, 0.086024694145, -0.104250513017, -0.037384673953, 0.109476380050, 0.113239429891, -0.115208864212, 0.113647483289, 0.013063840568, -0.104980356991, 0.040266923606, -0.064072206616, 0.041742943227, 0.111199341714, -0.065967321396, 0.050850205123, 0.117550037801, 0.028348170221, 0.020887084305, 0.068384416401, -0.093395397067, -0.111756980419, -0.089831486344, 0.090947948396, 0.115614511073, 0.002041533589, 0.000926554203, 0.006457090378, 0.057881303132, 0.003030553460, -0.100263252854, 0.008740462363, -0.084658011794, 0.020401962101, 0.002170085907, 0.034647710621, 0.107690371573, 0.041633136570, 0.029247812927, 0.059991650283, -0.099576763809, 0.075773097575, -0.071149304509, 0.013898141682, -0.005172513425, -0.042781330645, 0.006985500455, -0.099343016744, -0.024792127311, -0.117260091007, -0.101680479944, -0.097557477653, 0.096997402608, -0.007154397666, 0.083187930286, -0.075276829302, -0.096651323140, -0.028223358095, -0.059330370277, 0.074385248125, -0.006067603827, 0.076220490038, 0.095954291523, 0.053827114403, 0.095578826964, 0.031522162259, -0.057799879462, -0.029518447816, -0.018536776304, 0.061682112515, 0.040423639119, -0.050965882838, 0.101185061038, 0.062854357064, -0.004457503557, 0.020005561411, -0.096798218787, 0.101608239114, 0.076066263020, -0.069670371711, -0.074887365103, -0.054400004447, 0.032382406294, 0.109263040125, -0.108514338732, 0.083663232625, 0.097632579505, 0.010602034628, -0.022066935897, 0.056130953133, -0.075129702687, -0.108715578914, 0.002266772091, -0.062815271318, -0.073400512338, 0.094618208706, -0.005247674882, 0.057810865343, 0.005049079657, -0.031117886305, 0.017282150686, -0.021127820015, -0.099617727101, 0.014862857759, -0.112481929362, -0.094242237508, 0.091251917183, 0.055497340858, -0.044109709561, -0.066858865321, 0.090785183012, 0.041272245347, 0.095243565738, -0.017271243036, -0.003324910998, 0.051754303277, -0.020756617188, -0.069167137146, -0.039370663464, -0.082870393991, -0.073714502156, -0.008561737835, 0.070211954415, -0.084651157260, 0.076496385038, 0.107293404639, 0.075091995299, 0.052004881203, 0.065957732499, -0.045020729303, 0.094982810318, -0.067598797381, -0.049741797149, -0.100583173335, -0.021281346679, 0.039123125374, -0.026013121009, 0.093338556588, -0.073037937284, 0.112784154713, 0.105336494744, -0.105962514877, -0.102443397045, 0.069771327078, -0.096063911915, 0.040808849037, 0.113484151661, -0.030147500336, 0.036873973906, -0.083387598395, -0.041752606630, 0.050891675055, 0.003574363887, 0.102102287114, -0.107511863112, -0.100828021765, -0.079451948404, 0.090619243681, -0.057482905686, -0.021739847958, -0.077788054943, 0.040217079222, -0.010561041534, 0.044389031827, 0.070157565176, 0.080661617219, -0.006807051599, 0.091851942241, -0.097896508873, -0.059115815908, 0.069212742150, 0.089286334813, -0.114420436323, 0.033431895077, 0.107004337013, 0.083671383560, 0.115723021328, -0.035182699561, 0.036005653441, 0.104625560343, 0.033248893917, -0.092729948461, -0.104157507420, -0.027257718146, 0.051485411823, 0.004657365382, -0.103469334543, 0.111277855933, -0.088179580867, 0.085850231349, -0.010712102056, 0.095334984362, -0.006386734545, -0.004228956997, -0.056614935398, 0.078770689666, 0.041554801166, -0.042429797351, 0.008362613618, 0.056206561625, 0.087598569691, 0.011609129608, -0.058203700930, 0.058193899691, 0.105767764151, -0.109518699348, 0.001033358276, 0.099433176219, -0.100703746080, -0.035205990076, 0.044301964343, 0.117111362517, 0.091954134405, 0.095661945641, 0.030645735562, -0.045686259866, 0.072430483997, 0.070176668465, -0.113669686019, 0.051940850914, -0.003101274371, -0.071518763900, 0.072235263884, -0.001920998096, -0.037535451353, 0.112286202610, -0.064730286598, 0.031151942909, -0.017252556980, -0.057990580797, -0.089617125690, -0.039285361767, 0.087323494256, -0.096673689783, -0.096621170640, 0.094584248960, -0.068538725376, 0.061436034739, 0.101634435356, -0.033668950200, -0.059923939407, 0.007565669715, -0.059684716165, 0.076010711491, 0.076614402235, -0.032376900315, -0.057305019349, -0.015112400055, 0.098809830844, -0.003079526126, 0.051976986229, 0.041772134602, -0.062624797225, -0.074203237891, 0.102709062397, -0.039889998734, -0.063889816403, -0.000945299864, 0.031111903489, 0.018869452178, -0.045597665012, 0.089801646769, -0.110836096108, 0.029898293316, -0.011107437313, -0.037119008601, 0.014438129961, -0.114284329116, -0.046474434435, 0.115241684020, -0.051458664238, -0.035577557981, 0.109481893480, 0.100257568061, -0.030385404825, 0.009252749383, -0.053347066045, -0.116964779794, -0.000693120062, -0.042404673994, 0.022711075842, 0.110582180321, -0.014885365963, 0.017058797181, -0.082390598953, -0.008004948497, -0.003115721047, -0.104781672359, -0.024784706533, 0.099641330540, -0.018635287881, 0.067461453378, -0.009306870401, -0.034871093929, -0.038454309106, -0.085180915892, -0.108530998230, -0.011652588844, -0.010163068771, 0.033938132226, -0.026647455990, 0.088880486786, -0.083983972669, 0.015433944762, -0.091467171907, 0.050015829504, 0.033254392445, 0.022350169718, 0.015693522990, 0.070472054183, 0.090146578848, -0.097118422389, -0.104270681739, -0.010046742857, -0.099165014923, 0.014868788421, 0.016729988158, 0.064203672111, 0.069070093334, 0.039185248315, 0.107588060200, 0.032322280109, -0.004427894950, 0.064456664026, -0.004263378680, 0.117117770016, 0.100692279637, 0.081972084939, 0.093598879874, 0.002519875765, -0.071784734726, 0.028215430677, 0.037909604609, 0.052712924778, -0.085052728653, 0.093375109136, -0.031606145203, 0.091525174677, 0.101062558591, 0.015117369592, -0.059238068759, 0.056391917169, 0.055605374277, 0.063999824226, -0.082964949310, 0.081145264208, 0.004455566406, -0.115698941052, 0.039329864085, -0.105355516076, 0.048878066242, -0.104412160814, 0.104107834399, 0.069675482810, -0.045090943575, 0.006378613412, 0.085769392550, -0.038308173418, 0.116714604199, 0.094528041780, -0.108377054334, -0.069127038121, -0.049295485020, 0.096480704844, -0.029415890574, -0.074300482869, 0.091005660594, 0.092362038791, -0.098447561264, -0.054070279002, 0.097716234624, -0.009431146085, -0.081428162754, 0.106314755976, -0.039344616234, -0.034994162619, -0.063974782825, -0.048603974283, -0.077633649111, 0.059846587479, 0.011543624103, 0.043065734208, -0.009593799710, 0.033026836812, -0.053877584636, 0.096083991230, -0.044054165483, -0.067652940750, 0.022492624819, 0.010130561888, -0.047175779939, -0.012830317020, 0.051883108914, -0.011200718582, -0.078285440803, 0.084725849330, -0.019250601530, 0.032410554588, 0.099569566548, -0.103156857193, 0.051620535553, 0.113241530955, -0.023094929755, 0.045979879797, -0.097101703286, -0.028255671263, 0.011288978159, -0.103684954345, -0.087770052254, -0.085988193750, 0.105197943747, 0.076284922659, -0.031254529953, 0.021194301546, 0.033673472703, -0.113216385245, 0.060113511980, -0.068771913648, 0.063135422766, 0.030023954809, 0.091539137065, 0.116782434285, -0.040211156011, -0.051118619740, 0.108669467270, -0.008653476834, -0.039578869939, 0.117169417441, -0.065864056349, -0.096706114709, -0.073744907975, -0.028884723783, 0.109892316163, -0.070429436862, 0.008650131524, 0.043847270310, -0.012173272669, 0.011473663151, -0.075417935848, 0.034868009388, -0.016284897923, -0.013831526041, -0.028520405293, 0.044878296554, -0.056876443326, 0.077524386346, -0.007398769259, -0.024140648544, 0.029841460288, -0.067582726479, 0.108655311167, -0.075655445457, 0.025756470859, -0.010057926178, -0.102607630193, -0.095234513283, 0.094452656806, -0.116237498820, 0.054399810731, -0.040149539709, 0.061638616025, 0.077159307897, -0.058852933347, -0.052070967853, 0.092639364302, 0.009027458727, 0.010955147445, -0.048538416624, 0.094698540866, -0.039043404162, 0.082889847457, 0.009402744472, 0.039782516658, 0.092684485018, -0.044208250940, -0.011672988534, 0.022311531007, 0.004038907588, 0.039513684809, 0.029039911926, -0.012871004641, -0.044139608741, -0.029475733638, 0.094310455024, 0.091441161931, -0.036872111261, 0.043348990381, 0.063189364970, 0.099532656372, -0.041846647859, 0.084416426718, 0.050006814301, -0.078812897205, -0.023856379092, 0.112106986344, 0.001576937735, 0.060095764697, 0.068642772734, -0.067008852959, 0.029957868159, -0.068003997207, -0.064872346818, -0.040329366922, 0.001497648656, 0.080810181797, -0.036198548973, -0.109658993781, 0.080155797303, -0.082903608680, -0.092700533569, 0.101117737591, -0.007669404149, 0.019317336380, -0.070765793324, -0.058229159564, -0.015715718269, -0.029196187854, 0.008882217109, 0.026769407094, -0.021790653467, 0.074516750872, 0.100408323109, 0.021355576813, -0.007912144065, 0.050992630422, -0.032214775681, -0.020009353757, -0.092706605792, 0.031983472407, -0.069197311997, 0.009417481720, -0.002362161875, 0.095089279115, 0.098194397986, 0.001118130982, 0.095239959657, -0.089667193592, -0.115939714015, -0.057106196880, -0.056882034987, 0.027370058000, -0.017762310803, -0.076114848256, 0.000091180205, -0.045275546610, -0.111207157373, -0.047720097005, -0.079306684434, 0.068288944662, -0.025884963572, -0.106278166175, 0.110473461449, 0.045948408544, 0.117394201458, -0.047184631228, -0.089885570109, -0.116119094193, 0.078509859741, -0.088312119246, 0.060239113867, -0.016664467752, -0.007304780185, 0.104574568570, 0.075960732996, 0.026202701032, -0.109104618430, 0.039561949670, 0.008554629982, -0.044973216951, 0.076818846166, -0.019558556378, 0.045928351581, -0.114325039089, -0.016972310841, -0.084543287754, -0.028524704278, 0.109986104071, -0.043035611510, -0.036893948913, 0.026721186936, -0.051396958530, -0.036596022546, 0.039496652782, 0.021803133190, -0.025780104101, 0.116785906255, 0.116129152477, -0.033233433962, 0.091355092824, -0.008246280253, -0.050081558526, 0.024096198380, 0.033366508782, 0.000230938196, 0.000644199550, 0.093786232173, -0.030042946339, -0.011221207678, 0.004041433334, -0.005990974605, 0.066772796214, -0.067239761353, -0.040867410600, -0.081613130867, 0.105551414192, 0.089539207518, -0.000907450914, -0.071992829442, -0.105636775494, 0.004488863051, -0.097654953599, 0.087273336947, 0.013214074075, 0.115386612713, -0.114750921726, 0.084404908121, 0.023284398019, 0.105264820158, -0.035911925137, 0.001796886325, -0.004588529468, 0.012389801443, -0.027934141457, -0.026135854423, 0.014302618802, -0.032194823027, 0.015213333070, 0.012925602496, 0.066342167556, -0.090472280979, -0.016732886434, -0.006786428392, -0.011646807194, -0.080891661346, -0.095581546426, 0.046939678490, -0.095183879137, -0.026688173413, -0.002528391778, -0.013249985874, -0.066228017211, 0.082937292755, 0.092035956681, 0.000449620187, -0.046734280884, 0.076940424740, 0.038243345916, -0.105312243104, -0.028846062720, 0.080200932920, 0.096385516226, -0.093783058226, -0.002763964236, -0.109896533191, -0.041872136295, 0.041040264070, 0.060676001012, 0.052617497742, -0.049966014922, -0.005637504160, -0.001374438405, -0.064174197614, 0.063608475029, 0.078623317182, 0.091107495129, -0.011611849070, -0.014975816011, 0.081085510552, 0.037257112563, 0.016882739961, -0.080805569887, 0.115349344909, 0.075718022883, -0.086886346340, -0.005193725228, -0.116904824972, 0.115522719920, -0.075753591955, 0.046595223248, -0.089380428195, 0.110138542950, 0.029645986855, -0.020608626306, 0.103043980896, 0.091791935265, 0.106804378331, 0.007332421839, -0.096483916044, -0.117155566812, 0.093685843050, 0.018115334213, -0.098967321217, -0.010871805251, -0.003602631390, -0.114155359566, -0.024434186518, 0.015932999551, 0.050573803484, -0.087248839438, -0.016327433288, 0.065602250397, -0.080979831517, -0.097085319459, 0.054889239371, 0.080159761012, 0.068631090224, -0.064596228302, 0.107395596802, 0.025506310165, 0.014694608748, 0.037149555981, -0.067213095725, 0.076849780977, 0.028475813568, 0.080439276993, 0.081245891750, -0.015427686274, -0.072375915945, -0.101638644934, -0.114652998745, -0.025123789907, 0.057648010552, 0.038792721927, 0.009824819863, -0.051754392684, 0.051313705742, -0.001886405051, -0.038493193686, 0.018911711872, -0.020288847387, 0.056174166501, -0.081868797541, 0.081396318972, 0.062914617360, 0.015788964927, 0.082622237504, -0.069455116987, 0.005182154477, 0.094790168107, 0.068743638694, 0.058998145163, 0.058829046786, -0.048159629107, -0.097729325294, -0.113568194211, -0.010550647974, 0.102230809629, 0.082655556500, 0.038899205625, 0.017144389451, 0.070293299854, -0.001854576170, 0.029976300895, -0.099331498146, 0.039371766150, -0.109633870423, -0.025970466435, -0.064164362848, -0.103900015354, 0.034139655530, -0.017562955618, 0.022186048329, 0.110600404441, -0.050200574100, -0.056095376611, -0.094233609736, 0.019716300070, -0.005883894861, -0.002711027861, 0.086970187724, -0.059329248965, -0.092584967613, -0.061424843967, 0.052347399294, 0.101143948734, -0.005062453449, 0.002976045012, 0.110955737531, 0.012625001371, 0.116369523108, 0.103964366019, 0.049433954060, -0.021462358534, -0.059075158089, -0.045539475977, 0.013600118458, 0.057863466442, -0.009647920728, -0.093250662088, 0.068413697183, 0.037508837879, 0.061776570976, 0.099684230983, -0.115225829184, -0.100103430450, -0.111139051616, -0.003743261099, -0.076069831848, -0.061264827847, 0.014553524554, 0.097114942968, 0.073533557355, -0.005973078310, -0.083064362407, -0.113737963140, -0.098700895905, 0.005008421838, 0.096321590245, -0.030071780086, 0.031762935221, -0.098233684897, 0.053299210966, -0.061164125800, 0.080255769193, -0.075772076845, -0.106566451490, 0.031509600580, -0.027694270015, -0.059586372226, 0.040320314467, 0.018000699580, 0.042855061591, 0.067769996822, 0.043718062341, -0.028695933521, -0.041796833277, 0.092913202941, 0.042002402246, -0.062155276537, -0.111739419401, 0.017566271126, 0.096839778125, 0.048644207418, 0.019968442619, 0.093935020268, -0.094582557678, -0.107381515205, 0.077618248761, 0.092110894620, -0.067394666374, 0.074265353382, 0.022478826344, 0.057688497007, -0.089602008462, 0.069783098996, 0.002139851451, 0.101005427539, 0.028951488435, -0.096082419157, -0.022315748036, 0.061362080276, 0.107548929751, -0.015528216958, -0.081151083112, -0.099695675075, -0.048950754106, -0.006790757179, 0.101517148316, 0.009178943932, -0.058736354113, -0.066372439265, 0.073709867895, -0.038527168334, -0.040652886033, -0.104410246015, -0.001946762204, -0.058079227805, 0.075369410217, 0.079576648772, -0.085220336914, 0.014173649251, 0.030989535153, 0.047129921615, -0.009203128517, -0.002270981669, 0.092946954072, -0.053002640605, -0.084837809205, 0.063779167831, 0.080891408026, 0.116607792675, 0.096775002778, 0.007268480957, 0.059625767171, -0.105471536517, 0.060533501208, 0.004326261580, 0.054065860808, 0.058498449624, -0.019442453980, 0.079617105424, 0.077754192054, -0.085824050009, -0.035315521061, -0.058650374413, 0.025759704411, -0.053637430072, 0.050566546619, -0.084218621254, -0.085558772087, -0.014213658869, 0.105128519237, -0.025959849358, 0.088817261159, 0.028763093054, -0.057013362646, -0.027976714075, -0.063823193312, -0.073333099484, 0.079641051590, -0.074411809444, 0.001178003848, -0.006579630077, 0.104356832802, 0.041240714490, -0.077290832996, -0.006808429956, 0.056281186640, -0.025234669447, -0.055348053575, -0.079199716449, 0.064231209457, -0.078149721026, -0.083254553378, 0.102178148925, -0.083888247609, 0.043783105910, -0.008965902030, 0.009055562317, 0.080177970231, -0.103140562773, 0.117478273809, 0.093097917736, -0.012370772660, 0.112521879375, 0.047273032367, 0.054347015917, 0.028651140630, -0.084926709533, -0.013842262328, 0.068451084197, -0.114440411329, 0.019928626716, 0.075103826821, 0.063119091094, 0.043125785887, 0.113086737692, 0.043528415263, 0.052291341126, -0.104704856873, -0.059696037322, -0.003918446600, 0.103705011308, 0.089768849313, -0.097879566252, -0.072762072086, 0.002111054957, 0.117598198354, -0.072611488402, -0.002390876412, -0.115270115435, -0.009880259633, -0.044754922390, -0.006765663624, 0.034328185022, -0.089458398521, -0.115814231336, -0.061623919755, 0.007604695857, -0.040474966168, -0.024719379842, -0.001007087529, -0.045361921191, 0.093807645142, 0.108567662537, -0.114676319063, -0.030576810241, -0.070841297507, -0.024059809744, -0.079509556293, 0.088498778641, 0.081819988787, -0.094298176467, 0.066945947707, -0.054922454059, -0.010382510722, -0.007663503289, -0.030362926424, -0.069906279445, 0.096933670342, 0.081514231861, 0.036537416279, -0.042166434228, 0.054212562740, 0.038848094642, 0.014392219484, -0.105705417693, -0.105710335076, 0.071637116373, -0.075310066342, 0.060107059777, -0.108295314014, -0.015579782426, -0.012613400817, 0.098303087056, 0.093143694103, -0.096077397466, 0.076592989266, 0.082481913269, 0.045208416879, -0.098438687623, -0.063676498830, 0.027204729617, -0.018817082047, 0.008840613067, -0.092966929078, 0.034553863108, 0.076555080712, 0.014379017055, -0.110823258758, 0.064940623939, 0.094743274152, -0.057301901281, 0.022637180984, 0.064845122397, -0.036362223327, -0.040999472141, 0.090139247477, 0.038795195520, -0.081228464842, -0.107439875603, -0.070330977440, 0.117804206908, -0.033618912101, 0.045988567173, -0.115251511335, -0.075162075460, -0.066046103835, 0.086025707424, 0.024996362627, -0.112026125193, 0.055022574961, 0.069519095123, 0.093051470816, 0.025780864060, -0.109750255942, 0.018370203674, 0.061741225421, 0.053132541478, -0.017636828125, 0.016136758029, 0.053047768772, -0.097979590297, 0.086923636496, 0.109258450568, 0.090284474194, 0.015420131385, 0.068936370313, -0.048985511065, -0.006857827306, 0.033749006689, -0.005619019270, -0.090619802475, -0.014323495328, 0.007289893925, 0.002697370946, -0.116629518569, 0.102436847985, -0.037664450705, -0.001013264060, -0.069900721312, 0.021473146975, -0.071188613772, 0.001179158688, 0.016681246459, -0.023314796388, -0.021576292813, 0.024265535176, -0.063134074211, 0.020232059062, -0.016019485891, -0.057022802532, -0.055540416390, -0.071081563830, -0.003144629300, -0.065677829087, -0.116210073233, -0.085090607405, -0.111640796065, 0.050131969154, 0.055054314435, 0.068978436291, -0.061503071338, 0.116295062006, -0.056922916323, -0.082563817501, 0.117106027901, -0.015558086336, 0.087757386267, 0.089813701808, -0.052714183927, -0.086880505085, -0.089638032019, -0.075662106276, -0.025239333510, 0.019948013127, 0.039070107043, 0.001283429563, 0.106474004686, -0.064048178494, -0.108841173351, -0.033078476787, 0.022262670100, -0.046414919198, 0.066800035536, 0.009776376188, 0.021853230894, -0.107355833054, 0.000316858292, 0.089661963284, -0.084202662110, 0.080944873393, -0.055023916066, 0.042335219681, 0.020638473332, -0.083968773484, -0.083966463804, -0.082890123129, -0.048154205084, 0.097015075386, 0.108872257173, -0.024977490306, 0.063953988254, 0.077073432505, -0.073628015816, 0.074716813862, 0.054354436696, 0.014022670686, 0.091124556959, 0.090234808624, -0.036329910159, -0.055047012866, 0.097917862236, -0.049996279180, 0.021868430078, -0.096060648561, 0.012881122530, -0.075422123075, -0.098013281822, 0.035858683288, -0.001657441258, 0.026063077152, -0.046024076641, -0.039079062641, 0.085542894900, 0.036962054670, -0.033410422504, -0.051773130894, -0.028437882662, 0.058246634901, -0.004017323256, 0.026488564909, 0.042943589389, 0.093353830278, 0.115771241486, -0.053489327431, -0.080164991319, 0.083142213523, 0.087526328862, 0.090707741678, -0.085958495736, -0.003713808954, -0.099185585976, 0.116803757846, -0.064841940999, -0.096719995141, -0.036282986403, -0.002086997032, -0.022017292678, 0.012278832495, -0.046747259796, 0.015122942626, 0.091773219407, 0.035062409937, 0.019632197917, 0.047182895243, -0.067885875702, 0.094832994044, -0.116170257330, 0.106260888278, 0.015401579440, -0.095786556602, -0.034582555294, -0.102178379893, 0.002318158746, 0.066002808511, -0.105916015804, -0.066830515862, 0.029611416161, 0.009883128107, -0.005453914404, -0.088962949812, -0.117130167782, -0.002423554659, 0.114553056657, 0.094329290092, -0.046075634658, 0.030099652708, 0.087539084256, 0.061066709459, 0.102519117296, 0.038427613676, 0.005382575095, -0.042918898165, 0.096244625747, -0.083389393985, 0.011378802359, 0.036441959441, 0.039598263800, 0.073911912739, 0.030540667474, 0.095160223544, 0.108142204583, -0.043784536421, -0.112007163465, -0.083088919520, 0.007812760770, -0.027692981064, -0.077941209078, 0.028160221875, -0.055834122002, -0.086612924933, 0.003017261624, -0.073862776160, -0.038063690066, -0.058272231370, 0.106535740197, -0.077449128032, -0.100743412971, 0.029678128660, 0.008496023715, 0.016206108034, 0.078035198152, -0.070622518659, 0.073170639575, 0.037995137274, -0.047799356282, -0.049774020910, 0.085504494607, -0.090943798423, -0.017120331526, 0.003524854779, 0.063640423119, 0.107700966299, 0.023164384067, -0.000105030835, -0.060935661197, -0.064688302577, -0.034006521106, -0.106731556356, 0.111904121935, 0.031130470335, 0.026682697237, 0.018570490181, -0.106743186712, -0.030011393130, 0.018755994737, -0.042660392821, 0.093939505517, 0.087897144258, -0.085465550423, 0.050479896367, 0.005788698792, 0.035176075995, -0.035911843181, 0.083979822695, -0.050882376730, 0.069341741502, 0.030289344490, -0.113884076476, 0.063703753054, 0.011852227151, -0.108742184937, -0.003125891089, 0.093518100679, -0.090931400657, 0.024943463504, -0.092658303678, 0.079453833401, -0.079261422157, 0.082558907568, -0.050979003310, -0.015338249505, 0.115278549492, 0.005952537060, -0.091201961040, -0.075181469321, -0.102611869574, 0.090094305575, -0.090848319232, 0.046456135809, 0.063775710762, -0.052267596126, -0.011395297945, 0.008153386414, 0.113023005426, -0.009718559682, 0.033518858254, 0.033578000963, 0.014827571809, 0.010332860053, 0.027409859002, -0.057806763798, 0.110109098256, -0.070314407349, -0.013332933187, 0.010766126215, -0.077553912997, -0.090631037951, 0.058780379593, 0.018460117280, 0.055742360651, -0.006457708776, -0.056029513478, -0.046638071537, 0.108757026494, -0.024238005280, -0.084988728166, 0.105465270579, -0.056190770119, 0.073793567717, 0.067174412310, -0.022268116474, -0.106240995228, -0.005685836077, 0.109626986086, -0.110140502453, 0.020427994430, 0.027715183794, -0.099406264722, 0.026763923466, 0.045009128749, -0.013230010867, -0.031973637640, 0.046068392694, 0.004894062877, -0.016914039850, 0.032527707517, -0.108727402985, 0.097589202225, 0.007638446987, 0.006248466671, 0.040955476463, -0.045986875892, -0.002721987665, -0.016033023596, 0.109697826207, 0.026784665883, 0.085611604154, 0.043473236263, 0.112026967108, -0.039144389331, 0.012658156455, 0.036386810243, -0.114520967007, 0.105446808040, -0.006288394332, -0.096168488264, 0.013823963702, 0.078293256462, -0.014292836189, 0.072469510138, 0.091107659042, 0.074110396206, 0.016074351966, 0.034271486104, 0.060895867646, -0.018798083067, -0.095580317080, -0.072481006384, 0.034428499639, 0.030079163611, 0.115083537996, 0.090272061527, 0.085625119507, -0.040179632604, 0.014508463442, -0.002552635968, 0.060149841011, 0.017416901886, -0.038236044347, 0.025219909847, 0.111795999110, 0.010595805943, 0.115026704967, 0.002366825938, -0.016617096961, -0.073043584824, -0.072602212429, 0.113735206425, -0.051695495844, -0.091475605965, -0.085229888558, -0.000294350088, -0.087856680155, 0.071393705904, 0.010277174413, -0.082177028060, -0.002779386938, 0.011981733143, -0.086574852467, -0.028338082135, -0.105984345078, -0.069587312639, 0.005385100842, 0.056941293180, -0.088058508933, 0.029191188514, 0.080156080425, -0.069236792624, -0.077351406217, 0.089873351157, -0.105594322085, -0.060197670013, 0.079788736999, 0.055507428944, -0.043341457844, 0.026740349829, -0.027265973389, -0.109055198729, -0.075770139694, 0.100670583546, 0.108690403402, 0.045313455164, -0.069851882756, -0.002716422081, 0.058477379382, 0.102410458028, 0.072596035898, -0.032367065549, 0.045693956316, -0.000629536808, 0.017828054726, -0.044842474163, 0.110423646867, 0.052427925169, 0.064046494663, -0.112523429096, -0.084366694093, 0.109875716269, 0.116931296885, -0.106581933796, -0.000442825258, 0.016632713377, -0.103480659425, 0.092097319663, 0.028855420649, -0.102364018559, -0.066870391369, 0.029731936753, -0.036639966071, 0.037896089256, -0.017673805356, 0.053820542991, 0.008694417775, 0.082358174026, 0.076404653490, -0.076735079288, -0.088062942028, -0.008108153939, 0.055262885988, 0.071188829839, -0.031874984503, 0.112705819309, 0.081229336560, 0.047292806208, 0.103070758283, -0.012032784522, -0.105583056808, 0.104071281850, -0.040998652577, -0.086352348328, -0.030272282660, 0.082985006273, 0.099399633706, 0.077966473997, 0.022271938622, -0.015187248588, -0.061409305781, -0.111920900643, -0.109882794321, -0.086557969451, 0.097339011729, -0.076343119144, -0.073236331344, -0.086163416505, 0.002896755934, -0.026365637779, 0.116032712162, 0.007333867252, 0.083568848670, 0.080609001219, 0.044533677399, 0.021625600755, 0.063955910504, -0.004807665944, -0.048560164869, -0.073206856847, 0.041273616254, 0.055136479437, 0.047176323831, 0.071449704468, 0.102796502411, 0.075502596796, -0.091953940690, -0.068198964000, 0.050515942276, 0.105389885604, -0.079557374120, 0.052246280015, 0.063738308847, 0.020750351250, 0.042068056762, -0.055635724217, -0.054993711412, -0.063902631402, -0.056537497789, 0.086418487132, -0.014525741339, 0.099885694683, 0.053486995399, 0.050696708262, 0.017305724323, -0.002402819693, 0.062130726874, 0.067104138434, 0.048779048026, -0.040722340345, 0.006048381329, -0.001077108085, -0.034557774663, -0.102737575769, -0.114983037114, -0.088914960623, -0.069101244211, -0.064903758466, 0.115301974118, -0.037691757083, 0.062856100500, 0.079226993024, -0.021827965975, 0.115910582244, -0.094494894147, -0.098468720913, 0.018828772008, 0.010742045939, -0.079666085541, 0.109574280679, -0.003130748868, 0.103774867952, 0.011677213013, -0.111353464425, -0.071973726153, 0.058505244553, 0.015831477940, -0.021203376353, -0.041909001768, 0.075979359448, -0.055669214576, 0.057207353413, -0.080258280039, -0.093899220228, 0.092820651829, -0.067842461169, 0.059629641473, 0.114992134273, -0.022488236427, -0.039021745324, -0.058254979551, -0.080308713019, -0.019847877324, -0.115912459791, -0.040246896446, 0.045367233455, -0.068245053291, -0.092641837895, 0.009004704654, -0.096294283867, -0.054329618812, 0.041558079422, 0.113000847399, -0.097923062742, 0.059216491878, 0.065676473081, 0.020311273634, 0.103492237628, 0.084157191217, 0.008800543845, 0.040409334004, 0.116869159043, -0.046339251101, 0.005186758935, 0.097719036043, 0.066937319934, -0.049033842981, 0.112895675004, -0.041949458420, -0.025962598622, 0.077051497996, 0.092457257211, -0.076044693589, -0.078670240939, 0.012474797666, -0.038329020143, 0.111976332963, 0.022316671908, 0.083697818220, 0.001851372421, -0.056273348629, -0.004824183881, 0.061354152858, -0.057159781456, -0.069795966148, -0.014043726027, 0.032254867256, 0.057478718460, -0.083256885409, 0.014707870781, -0.026868730783, -0.066573530436, 0.042675085366, 0.041294701397, -0.091039948165, 0.081486381590, 0.113986320794, -0.077304318547, -0.007916018367, 0.062164239585, 0.076007939875, -0.041689977050, -0.073546424508, -0.102210685611, -0.097230277956, -0.094155102968, 0.081155307591, 0.054351456463, 0.108346171677, 0.024514861405, -0.090820699930, 0.051388554275, 0.028155662119, 0.106416262686, 0.037331230938, 0.051914460957, 0.049725972116, -0.072070077062, 0.064071692526, -0.100466817617, 0.049277849495, -0.072773560882, 0.093872360885, 0.070236183703, -0.116226002574, 0.106354512274, 0.009824208915, -0.000234395266, 0.038908503950, -0.055726561695, -0.056351572275, 0.102097757161, 0.113933362067, -0.091187879443, 0.024710722268, -0.071935057640, -0.050366945565, 0.027569271624, -0.046303510666, -0.076297707856, 0.044306375086, 0.073259703815, 0.072881393135, 0.099238835275, -0.059879321605, 0.091977156699, 0.046580947936, -0.076727889478, -0.051769621670, -0.064229354262, 0.030203916132, -0.010293833911, 0.093800403178, 0.000854432583, 0.044554002583, -0.005856081843, 0.029294021428, 0.038117237389, 0.094002567232, 0.094851590693, 0.041910909116, 0.113297335804, 0.049518533051, 0.024612046778, -0.057830139995, 0.039380975068, 0.098583392799, -0.091481924057, 0.097876302898, 0.117382906377, -0.079118594527, -0.025324299932, -0.109870962799, -0.019177965820, 0.005639195442, 0.000200338662, -0.038848407567, 0.066007278860, -0.076467171311, -0.101684696972, 0.024224273860, 0.019476734102, 0.046812750399, -0.046493031085, 0.016249917448, -0.023592650890, -0.086944647133, 0.025926493108, 0.035094164312, -0.060663364828, 0.008216105402, -0.065718062222, -0.004019543529, -0.098991148174, -0.085702836514, 0.082181520760, -0.081542603672, -0.099749729037, 0.056306816638, 0.012037001550, -0.006924025714, -0.074501499534, 0.061822123826, 0.038911886513, 0.099184043705, -0.040399245918, 0.085516013205, 0.102213688195, 0.048437885940, -0.049991808832, -0.005869850516, 0.067269034684, 0.027743272483, 0.046426244080, 0.020157210529, -0.079853639007, -0.004081502557, -0.023516282439, -0.101437211037, -0.030005492270, 0.082712821662, 0.069451712072, 0.013437561691, -0.040793061256, -0.050454892218, -0.043999172747, 0.114035852253, 0.076230324805, 0.035922102630, -0.025809153914, 0.102304317057, -0.012065522373, 0.087424062192, -0.096521511674, -0.004999153316, 0.031783811748, 0.073302276433, -0.005763694644, 0.020094893873, -0.062860198319, -0.097896002233, -0.047191321850, -0.063349753618, -0.100816495717, 0.048279978335, 0.031720034778, -0.035502962768, -0.064593642950, 0.033586464822, -0.086986094713, -0.013386063278, 0.055723018944, -0.113909527659, -0.114475816488, -0.078021287918, -0.109169751406, -0.085797891021, -0.102658793330, 0.061848334968, 0.007778011262, -0.035761348903, -0.071637809277, 0.117451213300, 0.092786140740, 0.018016062677, -0.024131514132, -0.041004784405, 0.075813360512, -0.096728675067, 0.003337949514, -0.086956284940, -0.083928257227, -0.016020238400, -0.116507239640, -0.052933774889, -0.038170911372, -0.094021946192, 0.110013164580, -0.013778984547, 0.102885909379, 0.000211209059, 0.091387458146, -0.058177459985, 0.026051916182, 0.031887553632, 0.015329085290, -0.076437018812, 0.068498693407, -0.091818429530, -0.088921308517, -0.094860784709, 0.070822082460, -0.062005855143, 0.096797265112, 0.035006977618, 0.085253246129, 0.087497301400, 0.096894986928, 0.037316672504, -0.071961194277, -0.091533206403, -0.027667663991, -0.112425647676, 0.112391225994, 0.103574790061, 0.013979069889, -0.077271386981, 0.007491432130, -0.010219097137, -0.031248234212, 0.069070599973, 0.049142099917, 0.069029428065, 0.047038160264, 0.055145300925, 0.117150656879, 0.026801146567, 0.005815394223, 0.050195999444, -0.092655241489, 0.116686530411, -0.069611817598, -0.090570345521, 0.058396868408, -0.065268412232, -0.036961801350, -0.082242637873, 0.113297842443, -0.078773915768, 0.056069634855, -0.001276880503, 0.011423207819, -0.061609420925, 0.105514414608, -0.000971004367, -0.086386092007, 0.022670529783, -0.029454775155, 0.052207387984, -0.070416674018, 0.044310279191, 0.011640362442, -0.030740618706, 0.108159966767, 0.107365079224, 0.081418491900, -0.034732371569, 0.117647953331, -0.057869702578, 0.095532514155, -0.018859952688, -0.018008954823, 0.024467311800, -0.013863138855, 0.015265621245, -0.040626049042, -0.109757781029, -0.030929997563, 0.069289200008, 0.046262256801, -0.010937385261, 0.062426708639, -0.044882766902, -0.022988379002, -0.099123597145, -0.088635548949, 0.071153573692, -0.071931242943, 0.048658363521, 0.109779469669, 0.066601686180, -0.056063737720, -0.094895318151, 0.057551346719, -0.103361800313, -0.052967011929, -0.073304831982, 0.105323292315, -0.090578384697, 0.006535343826, -0.016630925238, -0.060116384178, 0.033256195486, 0.063571073115, 0.038200132549, 0.036894120276, -0.104153744876, -0.100957348943, 0.000298038125, -0.057634551078, -0.061610992998, -0.061458677053, -0.052994489670, -0.021815322340, -0.104844614863, -0.003698021173, 0.023953177035, -0.042055219412, 0.028708241880, 0.014162130654, 0.051219187677, 0.066953949630, 0.006908737123, 0.016209937632, -0.034507088363, 0.042846344411, -0.052162371576, 0.095976270735, 0.002960003912, 0.101739577949, 0.100478507578, -0.091792382300, -0.044479899108, 0.093832097948, -0.018610730767, -0.079072713852, 0.013047404587, -0.087066791952, 0.056183017790, -0.091056860983, 0.054015569389, 0.096571184695, -0.108351595700, -0.062819398940, 0.115723334253, 0.096187256277, 0.092338211834, 0.036339960992, 0.009783975780, 0.055095203221, 0.102683149278, -0.036682933569, 0.046354539692, 0.045985780656, -0.083396025002, -0.007455527782, 0.063099004328, -0.024864420295, 0.084312520921, -0.078899629414, 0.034589834511, -0.019308090210, -0.019231267273, 0.115209452808, 0.089143000543, 0.017430923879, -0.084549136460, 0.060699723661, -0.004425615072, -0.115227460861, 0.029516391456, 0.112110815942, 0.105301909149, -0.038400247693, -0.055395878851, -0.067492447793, -0.071195721626, 0.076730363071, 0.085110865533, 0.033168248832, -0.035657331347, 0.016491450369, 0.059679649770, -0.009059973061, -0.116016447544, 0.028009556234, 0.048552416265, 0.041216589510, 0.014449901879, -0.037143789232, 0.027975283563, -0.022009447217, 0.004484564066, 0.022958450019, 0.047392107546, 0.016879819334, 0.098731584847, -0.105148881674, 0.012328378856, -0.006051026285, 0.094574518502, -0.109327241778, -0.053541108966, 0.066676177084, 0.051178999245, -0.064812943339, 0.051427982748, -0.029608160257, 0.021225072443, -0.030763603747, -0.111816123128, 0.014099217951, 0.115890659392, 0.065504215658, -0.017466522753, 0.039634250104, 0.069256491959, -0.040434449911, 0.042263515294, 0.081993691623, 0.116239823401, -0.099415622652, -0.002564519644, 0.050615943968, 0.113132737577, -0.018672682345, -0.017965428531, -0.026808962226, -0.004544414580, -0.004753433168, -0.052748553455, -0.032257117331, -0.023733511567, 0.098615027964, 0.009946964681, -0.113981515169, 0.030642755330, -0.077227272093, -0.018645621836, 0.012777544558, 0.077799268067, -0.094255723059, 0.089358679950, 0.020090363920, -0.048194356263, 0.033365391195, 0.065307013690, 0.058701656759, -0.038479119539, 0.030080311000, -0.010412745178, 0.098312981427, -0.050905890763, -0.031828202307, -0.086960077286, 0.083097197115, 0.069866351783, -0.012915536761, -0.058617275208, 0.069020293653, 0.094739146531, 0.075786687434, -0.054068841040, -0.111628286541, -0.080015853047, -0.110503502190, -0.078571423888, -0.104463435709, -0.073151618242, -0.000132709742, 0.007708437741, 0.091166131198, 0.112421654165, 0.079605422914, 0.107259936631, 0.054748810828, 0.074461452663, -0.068738564849, 0.048969127238, 0.012026019394, 0.037267617881, 0.068777702749, -0.105854116380, 0.112100102007, -0.087506778538, -0.021287217736, -0.079836808145, -0.048545159400, 0.010673128068, -0.081029728055, 0.046813122928, -0.010003499687, -0.078241325915, -0.029554158449, 0.010879032314, -0.002200230956, 0.004733853042, 0.053957797587, -0.074607372284, -0.039089769125, 0.078093133867, -0.037653908134, -0.055175840855, -0.077281251550, 0.103507883847, 0.051939018071, -0.005080267787, -0.067799702287, -0.046124249697, 0.081516198814, 0.033729203045, -0.014478035271, 0.062493823469, 0.071252249181, 0.073482580483, -0.063910663128, 0.001324675977, 0.047235243022, 0.100712530315, 0.088366352022, -0.087512873113, 0.104108087718, 0.008684955537, 0.073448471725, 0.071979321539, 0.092602916062, -0.028487533331, -0.051080740988, 0.077716208994, -0.090658858418, -0.045838095248, -0.105129472911, 0.012189649045, 0.053273282945, -0.091344103217, 0.105749197304, -0.004367709160, -0.008250020444, 0.100717090070, 0.097637720406, -0.029037348926, 0.032802887261, 0.015616051853, 0.007599778473, -0.105546019971, 0.044676132500, -0.028678737581, 0.057373799384, 0.025974370539, -0.072575867176, -0.084850236773, -0.105905815959, 0.092548154294, -0.015960648656, 0.034481771290, -0.108636759222, 0.011659927666, -0.079107865691, -0.033879235387, -0.011149980128, -0.082134798169, -0.045149274170, 0.068178452551, -0.091204516590, 0.023582480848, -0.061269830912, 0.093341507018, 0.014127068222, -0.012887015939, -0.036753229797, 0.080173082650, 0.061931170523, 0.070238150656, 0.116860397160, -0.081044033170, -0.045732840896, 0.094722993672, 0.081347100437, 0.094143308699, 0.022912256420, -0.025616377592, 0.090735115111, 0.057520054281, 0.039926268160, -0.010110132396, 0.007500089705, 0.093416132033, -0.056394364685, -0.057203222066, -0.006906017661, 0.004073552787, -0.021053448319, -0.043744608760, -0.038251861930, -0.063337244093, -0.044215247035, 0.100121520460, -0.099309243262, -0.096008472145, -0.031429998577, 0.088947020471, -0.094778120518, -0.035318918526, 0.090594194829, -0.007549256086, 0.054257161915, -0.110485747457, 0.022740952671, 0.066565237939, -0.117265202105, -0.082653120160, 0.107800401747, -0.060846421868, -0.104001030326, 0.070758827031, 0.043768741190, -0.088617570698, 0.018863864243, 0.096709601581, 0.014560692012, 0.020841918886, -0.009713217616, -0.088676996529, 0.084844611585, -0.109921172261, -0.089718841016, -0.104332782328, -0.000519558787, 0.059774465859, -0.070190429688, 0.101788125932, 0.044964872301, 0.088395930827, 0.088408522308, -0.048095457256, 0.107636667788, -0.069616362453, 0.066321440041, 0.049545757473, -0.036864638329, 0.114876098931, 0.048986859620, 0.082400016487, 0.031612299383, -0.045202523470, 0.017247386277, 0.089843116701, -0.092035233974, -0.027339562774, -0.054266512394, 0.095312260091, -0.047482669353, -0.064103335142, 0.090500809252, 0.104246295989, 0.004579819739, -0.110258035362, -0.020540125668, 0.023158229887, 0.035738788545, 0.014270551503, 0.038619019091, 0.015493430197, 0.116688273847, 0.098960272968, -0.104649193585, -0.009761549532, 0.102547980845, -0.099230624735, 0.061928533018, -0.042796529830, -0.089236818254, 0.045643739402, 0.026686705649, 0.110224969685, -0.001624509692, 0.093306235969, -0.062797144055, -0.076032184064, -0.077244244516, 0.065582834184, 0.041562743485, -0.035079888999, 0.057563133538, -0.087029337883, 0.050215862691, 0.027663089335, -0.057157505304, 0.112764649093, 0.001994892955, 0.057109318674, 0.007987789810, -0.093344762921, 0.007889293134, 0.101758249104, -0.111774764955, 0.063914738595, -0.082080930471, -0.020320035517, -0.064033955336, 0.062851719558, 0.014223240316, -0.052348271012, -0.099892303348, 0.110829018056, -0.066949009895, -0.110495269299, -0.016084812582, -0.113089635968, -0.011962652206, 0.046132706106, -0.014224700630, -0.062837243080, 0.076267652214, -0.043094620109, -0.011572964489, -0.031948015094, 0.005148150027, -0.108990594745, 0.079084344208, -0.022140972316, -0.074534907937, 0.051434166729, -0.058641158044, -0.020189687610, 0.021143980324, 0.098394744098, -0.115702599287, 0.053479008377, -0.025916039944, -0.037912860513, -0.066703766584, 0.103845514357, -0.039099656045, -0.051487043500, -0.018220447004, 0.073469854891, -0.053646445274, 0.112257041037, -0.063707970083, 0.099384121597, -0.000033013523, 0.000533744693, 0.079292275012, 0.110063679516, 0.002405658364, 0.066365502775, 0.098929502070, -0.062086720020, -0.005736947060, 0.087445102632, 0.053544677794, 0.072192527354, 0.003559723496, 0.080726169050, -0.073578700423, -0.008097924292, 0.078491710126, -0.057510640472, -0.109906703234, 0.032758332789, 0.012621037662, 0.024756588042, -0.023169413209, 0.003061719239, -0.049999453127, -0.019646696746, -0.070912331343, -0.015668541193, 0.038425646722, 0.012908153236, 0.031672708690, -0.115319989622, 0.106535352767, -0.107764013112, -0.085522755980, 0.006436303258, -0.039463669062, 0.094514839351, 0.026238180697, 0.002446852624, -0.023340724409, -0.049678549170, -0.096863992512, -0.030920810997, -0.100019782782, -0.115283459425, -0.117656975985, 0.011159412563, 0.027677945793, 0.074057660997, 0.113256372511, -0.059691682458, 0.081226535141, -0.111512415111, -0.114940360188, 0.030998103321, 0.103765375912, 0.092369742692, -0.094019867480, -0.077837586403, 0.011191613972, 0.115144483745, 0.029552467167, 0.068248115480, -0.032668441534, 0.104774869978, -0.082977280021, -0.061215374619, -0.026476114988, 0.054960839450, -0.015124931931, 0.116415418684, -0.002829402685, 0.033675439656, 0.036032207310, 0.059721551836, -0.053312361240, 0.087996892631, -0.107161283493, 0.107928045094, 0.065844304860, -0.084181390703, 0.068927861750, 0.019537262619, 0.101651377976, 0.077000327408, 0.064618401229, -0.025719948113, 0.115947954357, -0.045173332095, -0.048923052847, -0.025125592947, -0.098267316818, -0.020040377975, 0.087189473212, -0.062048815191, 0.005405083299, 0.034934096038, 0.056337945163, 0.098755992949, 0.033935628831, -0.077968239784, 0.063824795187, -0.068412199616, -0.078147254884, 0.073644764721, -0.108062416315, 0.091813988984, 0.082647494972, -0.044415138662, 0.003430359066, -0.046433433890, -0.049112260342, -0.029159575701, 0.043557874858, 0.012956805527, -0.070950984955, -0.069388717413, -0.084979735315, -0.036750622094, -0.077742166817, 0.037364281714, -0.025875270367, -0.069481641054, -0.107955694199, -0.030402153730, -0.011856444180, 0.078717924654, -0.040308542550, 0.106634087861, -0.031112521887, -0.075749486685, -0.108660250902, 0.092895217240, 0.087833248079, 0.053324721754, 0.066328324378, 0.034180022776, -0.039410673082, 0.041595675051, 0.050788693130, 0.030061744153, 0.027787901461, 0.023731537163, 0.039935626090, 0.027757920325, -0.043194055557, 0.053554870188, -0.048437573016, 0.039508320391, 0.019631348550, -0.013011716306, 0.022006757557, 0.087329141796, 0.033401764929, 0.017593018711, 0.085369430482, 0.085659138858, -0.053827680647, -0.072856366634, 0.099317975342, 0.092907957733, -0.078053683043, -0.056397370994, -0.107374601066, -0.078288450837, -0.015514791012, -0.081965506077, 0.060701973736, 0.030995495617, 0.111315079033, 0.040341608226, -0.070905499160, -0.050587147474, 0.043381772935, 0.060909159482, -0.078244976699, -0.020421385765, 0.035322822630, -0.050942927599, -0.033819414675, -0.056603778154, -0.019631527364, -0.015119113028, 0.060857154429, 0.059211604297, 0.095566131175, 0.032349921763, 0.112455345690, -0.011783249676, -0.009315803647, 0.112524829805, 0.002796947956, 0.060226462781, -0.066154368222, 0.114538557827, -0.007649227977, -0.039410762489, -0.107503823936, 0.048781327903, 0.031918995082, -0.052970662713, 0.100951276720, -0.084890216589, 0.088972814381, -0.055369324982, -0.107289664447, 0.004270911217, -0.116859190166, -0.020056113601, 0.091332055628, 0.027510173619, -0.007661849260, -0.058851584792, 0.097930841148, 0.052732445300, -0.032060317695, -0.006316073239, 0.086836479604, 0.025622300804, -0.022004395723, 0.078694887459, -0.077027380466, -0.070159301162, -0.075597822666, -0.117630705237, 0.106259234250, -0.001961402595, 0.067007131875, 0.111791796982, 0.001505851746, 0.018980525434, 0.043355979025, -0.090611286461, -0.103063404560, -0.051679395139, -0.107026666403, 0.013379074633, 0.026327200234, -0.040616326034, 0.070488221943, -0.027874045074, -0.084085099399, -0.073974102736, 0.116902552545, 0.052976392210, 0.006306067109, -0.090139910579, 0.072460718453, -0.061196353287, -0.030513107777, 0.057595022023, -0.114885456860, -0.046131633222, -0.026618801057, 0.019127048552, 0.002018667758, 0.085564427078, -0.089280568063, -0.110673323274, -0.007200986147, 0.112645514309, -0.082960337400, -0.064685270190, 0.097570858896, -0.115183822811, 0.103480972350, -0.062220323831, -0.114494301379, -0.034181512892, 0.086732484400, -0.027917228639, 0.052687637508, -0.012145459652, 0.096686638892, 0.044086106122, 0.071378417313, -0.065330818295, -0.032697133720, 0.098729871213, -0.018128789961, 0.100629143417, -0.043667957187, -0.005154252052, -0.081218376756, 0.048127032816, -0.053957127035, 0.028222940862, 0.028289191425, 0.007363058627, -0.021335631609, -0.051661498845, -0.088380225003, -0.107534483075, 0.014961518347, -0.011000216007, 0.087976656854, 0.028845809400, 0.057885177433, 0.074572645128, 0.107554592192, -0.114396438003, -0.108186967671, 0.102301619947, 0.017960198224, -0.035530723631, -0.043719992042, 0.095955140889, -0.035681240261, -0.063734970987, 0.011770971119, 0.006094127893, 0.044602908194, -0.045593842864, 0.069654889405, 0.075352050364, 0.006556086242, -0.068430833519, 0.109519295394, 0.038262628019, 0.084489904344, -0.044820845127, -0.079244390130, -0.070846796036, 0.099551416934, -0.071217916906, -0.035491302609, -0.008163847029, 0.043488837779, -0.017154186964, -0.064838066697, -0.078254163265, -0.065600417554, 0.013722740114, -0.097579568624, -0.058512892574, -0.083977483213, -0.033853866160, -0.081089273095, -0.012264169753, -0.003608219326, -0.087776236236, 0.065403334796, -0.032814919949, -0.084944814444, -0.112893961370, 0.027556173503, -0.037820786238, -0.086118236184, 0.065178699791, 0.113526187837, -0.109627075493, -0.077950313687, -0.086025848985, -0.046020872891, -0.008930072188, 0.052246607840, 0.003608532250, -0.040659680963, -0.000438213348, -0.056083124131, 0.007615230978, 0.117114938796, -0.003419600427, 0.102233819664, 0.056079842150, 0.098240010440, -0.051184341311, -0.010171808302, 0.002251036465, -0.030654102564, 0.001159176230, 0.083346091211, -0.072825372219, 0.072381936014, -0.087090648711, -0.033060356975, 0.097346328199, 0.081540472806, 0.080404914916, 0.032970838249, -0.007822036743, -0.037250675261, 0.075821898878, -0.015111193061, 0.002060472965, 0.040809057653, -0.090849950910, -0.042803749442, -0.018259167671, 0.057275824249, -0.061942633241, -0.078724548221, 0.009555079043, 0.051488019526, -0.104978755116, -0.029290713370, 0.055997513235, -0.001942068338, -0.031485438347, -0.051315106452, -0.053950466216, 0.016005076468, 0.076216556132, 0.069199956954, -0.024475827813, -0.025587916374, -0.065704829991, -0.044098161161, -0.029855169356, 0.112055264413, -0.010866582394, 0.004598729312, 0.092103980482, -0.075252473354, -0.098241157830, -0.077578805387, -0.076832100749, -0.025413200259, 0.073829703033, -0.040306180716, -0.113580897450, -0.032686792314, 0.042218081653, -0.056463629007, 0.075412593782, 0.010346852243, 0.082891441882, -0.011497519910, -0.099048800766, -0.043570458889, 0.022961877286, 0.025712914765, 0.045327864587, -0.055207818747, 0.106906659901, 0.072732172906, -0.029463849962, 0.083809874952, -0.067498371005, -0.027903065085, -0.084199845791, 0.085231415927, -0.020217083395, -0.035000257194, 0.007013179362, -0.030343316495, 0.048049144447, -0.115595765412, 0.032234974205, 0.092069454491, -0.027945049107, -0.080402277410, 0.095640860498, 0.075539998710, 0.049819715321, 0.061571605504, 0.069576211274, -0.025963105261, 0.053312592208, -0.065071254969, -0.012561224401, -0.036836065352, -0.068907007575, -0.052453525364, -0.099399462342, -0.015324845910, 0.029569275677, 0.056849770248, 0.075254909694, 0.077465631068, 0.089395917952, 0.029921926558, 0.046297304332, 0.024667285383, -0.088313102722, -0.067603938282, -0.102575317025, 0.072400532663, -0.079318150878, 0.039182908833, -0.008401751518, -0.103967480361, -0.028619118035, 0.045894034207, -0.072905339301, 0.006094209850, 0.036875791848, 0.073966257274, 0.044170148671, 0.021454341710, -0.008505769074, 0.038316123188, -0.099959678948, 0.086857832968, 0.100743673742, 0.076352871954, 0.033234275877, 0.089414112270, 0.000194743276, -0.093668028712, 0.067381508648, -0.115494616330, -0.065005272627, 0.029755868018, -0.101947970688, 0.084894008934, -0.110779061913, -0.030422605574, -0.088156059384, 0.052654422820, -0.026907928288, -0.088447883725, 0.107776410878, -0.020023770630, -0.061922065914, 0.014227770269, 0.064458750188, -0.012435093522, 0.002759322524, -0.073128655553, 0.074611775577, 0.079518847167, -0.034161478281, -0.056240025908, 0.066227115691, -0.029169887304, -0.007575444877, -0.054461002350, 0.065802164376, 0.007680870593, -0.093612983823, 0.042420603335, -0.113075613976, -0.042323812842, 0.103668548167, -0.043581075966, -0.068133607507, 0.079918317497, -0.104431465268, 0.040952853858, -0.018212325871, 0.110907100141, 0.014269314706, 0.060247547925, 0.039516948164, 0.116427414119, 0.055255986750, -0.073721133173, 0.037015832961, -0.050731852651, 0.069979555905, 0.115837581456, -0.047848418355, 0.003804117441, 0.076009459794, 0.035606049001, 0.004947818816, 0.005568943918, 0.074944995344, 0.078669227660, -0.115929961205, -0.095613442361, 0.059299655259, 0.003512606025, -0.096675485373, -0.102796360850, -0.045834697783, 0.048800937831, -0.013870783150, -0.007692418993, -0.057904317975, 0.100791178644, 0.063853241503, 0.049746267498, -0.056779362261, -0.105806574225, -0.010492347181, -0.103735901415, 0.114553786814, 0.092826016247, -0.068383514881, 0.110068552196, 0.088833443820, -0.063969925046, 0.103133447468, -0.036163404584, -0.006602637470, 0.001764439046, -0.095167614520, -0.096352025867, 0.030620418489, -0.094340495765, -0.077542588115, 0.025165371597, 0.070158846676, 0.040027849376, 0.004233174026, -0.103629410267, 0.049535579979, 0.002416841686, 0.070559583604, -0.000404074788, -0.059343803674, 0.057179220021, 0.098021768034, -0.064123138785, -0.074089914560, 0.089804954827, 0.011558853090, 0.110939718783, 0.040341727436, 0.017786361277, 0.028480671346, 0.040144614875, -0.103867679834, -0.022501304746, -0.103863827884};
