//Numpy array shape (1, 1, 32, 2)
//Min -0.409533411264
//Max 0.389571458101
//Number of zeros 0

weight_default_t w5[64] = {-0.316561758518, -0.038788765669, -0.052438884974, 0.119385272264, 0.345465034246, -0.409533411264, 0.389571458101, 0.034858345985, -0.228592082858, -0.104781121016, -0.221685230732, 0.041673749685, 0.291910201311, -0.199147269130, 0.120057791471, -0.304586112499, -0.068083047867, -0.351009964943, 0.292001515627, -0.031245917082, 0.221426099539, 0.134478121996, 0.025275915861, 0.281830102205, -0.169622421265, -0.345149517059, 0.169823259115, 0.075777620077, -0.132454484701, -0.353272676468, 0.072295188904, 0.000989645720, 0.245933145285, -0.330000758171, -0.356132417917, -0.039332985878, 0.329874485731, -0.030157715082, -0.031446635723, 0.378644973040, -0.056742191315, 0.120328933001, 0.161707788706, 0.214282840490, -0.405052840710, 0.163190633059, -0.185963049531, 0.139609545469, 0.333518952131, 0.182860046625, -0.006445229053, 0.375483423471, -0.290996670723, 0.085864394903, 0.114641577005, 0.152556091547, 0.053087204695, -0.327645897865, 0.321090191603, 0.182754844427, -0.356417775154, -0.039462387562, -0.109703183174, 0.301962822676};
