//Numpy array shape (1, 1, 32, 4)
//Min -0.405831903219
//Max 0.407741010189
//Number of zeros 0

weight_default_t w6[128] = {-0.277848303318, 0.359946191311, -0.346491068602, -0.039532095194, 0.298440277576, -0.080767542124, -0.217705458403, -0.232517644763, 0.362423360348, 0.381588935852, -0.262421369553, 0.263314962387, -0.219584494829, -0.121979147196, 0.154306292534, 0.226571500301, -0.321697950363, 0.084419220686, -0.342843472958, -0.038119584322, -0.062297433615, 0.275063514709, -0.374123990536, -0.196575507522, 0.048032462597, 0.131121456623, 0.362730145454, 0.086789608002, -0.307233065367, -0.188656613231, 0.230317890644, 0.104943454266, -0.034443467855, 0.271040558815, 0.119598925114, -0.395911127329, 0.341035366058, 0.010068625212, 0.251636445522, -0.031735062599, 0.344036757946, 0.052696526051, -0.346780449152, 0.088533133268, -0.238377347589, -0.396452695131, -0.383052438498, -0.387705773115, 0.252950370312, 0.046259731054, -0.186079010367, 0.307035088539, -0.202157318592, 0.099202036858, 0.365875601768, 0.231065988541, 0.308519005775, 0.022291928530, -0.280550420284, -0.191122382879, 0.201653420925, -0.024939984083, -0.191704913974, 0.352299273014, -0.302453666925, 0.330180704594, 0.237828075886, -0.391314923763, 0.407741010189, -0.213374480605, -0.005512416363, 0.115440607071, -0.350308418274, -0.086961597204, 0.245638191700, 0.160304784775, -0.288404762745, 0.294204831123, -0.061958640814, -0.376545161009, -0.276399970055, 0.155701875687, -0.171173676848, 0.297090590000, 0.297716736794, 0.296674072742, -0.284169286489, -0.349852502346, 0.052170634270, -0.121093511581, -0.405831903219, 0.297971904278, -0.145569980145, 0.163399696350, 0.273730039597, 0.315257370472, 0.199542820454, -0.164620578289, -0.253850430250, 0.314832031727, -0.001523673534, -0.169872909784, 0.129587173462, -0.068598747253, 0.059968829155, -0.144500076771, 0.139746189117, 0.151024401188, 0.308728098869, -0.007888436317, -0.157886534929, -0.065672695637, 0.199592113495, 0.288299560547, -0.091594964266, -0.015184968710, -0.020945578814, 0.032989412546, 0.301013708115, 0.216022551060, -0.006682842970, 0.367821693420, 0.388923645020, 0.301589071751, -0.060450255871, -0.017748355865, -0.164958029985, 0.048274546862};
